accountant 0.20509 -0.45237 0.26541 -0.5231 0.1458 0.18467 -0.023648 0.071942 -0.091212 0.77984 0.18843 -0.17852 0.73345 0.47799 -0.57698 -0.38509 0.90519 -0.10475 -0.073433 0.82289 -0.58768 0.6819 -0.032551 -0.04611 -0.46587 -0.41871 -0.088523 -0.90087 -0.31749 -0.35012 -0.1574 0.3058 -0.0089072 -0.329 -0.90293 0.11872 -0.58006 0.15545 1.5403 -0.076976 -0.047219 -0.17116 0.4578 -0.30474 -0.23469 -0.16114 -0.34056 -0.46174 0.0065071 -0.42363 -0.33956 -0.7498 0.6437 0.45713 -0.089824 -0.019653 -0.39174 -0.090257 0.72938 0.25379 0.69843 -0.35706 -0.29181 0.11672 0.014516 -0.86103 0.54156 0.38371 0.30715 0.44955 -0.67372 0.30623 -0.32777 -0.31934 -0.27601 -0.60705 0.12416 -0.36749 -0.10693 -0.83527 0.81214 0.44426 -0.01661 0.039798 -0.15366 -0.37098 -0.093702 0.13791 -0.45536 -0.76888 0.21372 0.013896 0.60398 0.076492 0.69611 0.68527 0.41501 -0.061219 -0.73329 -0.33679
actor 0.46063 0.43262 0.20201 -0.4863 0.4424 -0.16964 -0.55205 -0.59301 -0.47014 -0.031901 -0.66664 -0.38634 0.01707 0.13164 0.49846 -0.15233 0.70953 -0.37506 0.38118 1.9534 0.1561 0.07051 0.27233 -0.50456 1.3215 0.020999 0.3034 -0.53658 0.84957 0.040226 -0.42937 0.98095 0.23262 -0.30571 0.29875 -0.27087 0.36107 0.39805 -0.093252 0.7475 0.2376 0.68368 0.17481 0.31874 0.6159 -0.38143 -0.98842 -1.0238 -0.34601 -0.53397 -0.41587 -0.76801 1.0302 1.0128 0.3902 -1.9877 -1.1646 0.50183 -0.26143 0.094743 0.26976 1.6139 -0.27021 0.13445 0.3809 -0.5619 1.1302 0.31927 -0.6326 1.0869 -0.01499 0.26836 -0.31073 0.47966 0.14135 -0.56482 -0.00707 0.19598 0.28075 -0.69931 -0.20998 -0.51962 0.64771 -0.49213 -1.3095 -0.10478 -0.31903 0.12223 -0.2006 -1.1412 -0.0034243 -0.41878 0.16096 0.17815 0.0062852 1.0138 0.057263 -0.30356 0.10409 -0.51577
actress 0.68774 -0.15081 0.085927 -0.034576 0.40877 -0.24703 -0.14116 -0.0088659 0.074083 0.20679 -0.54065 -0.41996 -0.20774 0.45641 0.12637 0.034568 0.83865 -0.50147 0.17936 2.2639 -0.20825 0.30016 0.70684 0.4724 1.4324 0.39659 0.44075 -1.2648 0.48381 -0.19902 -0.15223 0.75624 1.0801 -0.24215 0.51799 -0.30844 0.49023 0.28393 -0.37003 0.58172 -0.19895 0.50011 -0.3438 0.64086 1.0595 -0.16487 -1.0291 -0.72012 0.064489 -0.36302 -0.23637 -0.41775 1.2884 1.3471 0.19676 -1.7807 -1.0887 0.5609 -0.4223 -0.072079 -0.062847 1.6352 -0.55274 0.41592 0.14808 -0.23675 0.95667 0.38314 -0.68988 0.85383 0.1609 0.60733 -0.58087 0.95336 0.29142 0.28699 -0.051126 -0.2113 0.10772 -1.2154 -0.68381 -0.33047 1.3837 -0.050672 -1.2803 -0.75436 0.1072 0.50062 0.01291 -1.0303 0.2837 -0.19052 0.29553 0.12623 -0.16382 0.89003 -0.50717 -0.21105 0.067416 0.2263
advanced 0.3059 0.8121 0.11783 1.0602 0.56556 -0.99013 0.90937 -0.46424 -0.44671 0.7216 0.38104 -0.66949 -0.66038 -0.34721 0.46818 -0.43535 -0.14049 0.38927 0.052337 0.088167 0.11723 -0.40082 0.56207 0.88608 0.21184 -0.45584 0.49346 -0.71257 -0.12316 0.30089 -1.1864 0.43364 -1.0041 -0.042302 1.3614 -0.0037851 -0.32689 0.043959 -0.29335 0.58123 -0.5313 -0.48265 -0.37859 -0.48677 0.24781 0.033419 0.042744 0.82367 0.67284 -0.75694 -0.18473 0.46551 0.0079986 0.43687 0.003652 -1.379 0.5987 0.10349 1.5931 0.43312 0.21049 0.32056 -0.33707 0.4606 0.011604 -0.16908 -0.31037 0.80903 0.43382 0.60461 -0.21814 0.085984 0.097786 0.022366 -0.10552 0.31624 -0.5415 0.24411 -0.32738 -0.13182 1.0159 0.53802 -1.0129 0.25733 -1.4602 0.4442 0.69574 0.15258 0.15599 0.16631 -0.16039 0.12686 0.26178 0.83331 -0.72362 0.28769 -0.25251 -0.62268 0.72255 0.26988
african 0.03952 1.2192 0.7124 0.21396 0.030776 0.47885 0.20353 0.26233 -0.67364 -0.3779 -0.92058 -0.28067 0.058862 0.20839 -0.010512 -0.10642 0.32588 -1.1613 -0.27468 -0.54797 0.34161 -0.023591 1.115 -0.63609 0.47262 0.0033379 0.24604 -0.52488 0.17809 -0.13984 -0.24995 -0.13827 -0.56445 -0.36375 0.29192 -0.46361 0.37988 1.0328 -0.59265 0.868 -1.7826 0.01018 0.2673 -0.019914 0.14872 0.47808 -0.17541 0.07909 -0.92599 -0.99355 -1.375 0.3669 -0.16535 0.14545 0.10455 -1.7691 -1.6788 -0.47354 1.7558 0.15212 -0.37486 -0.19146 -0.38572 -0.84957 0.72171 -0.17512 -0.64434 0.55187 0.88038 -0.16292 0.33723 -0.0038246 -0.77954 -0.66373 0.57869 -0.047341 -0.20284 0.65678 -0.88423 -0.18345 0.22291 0.12745 0.52527 0.099098 -0.96964 0.051458 -0.43093 0.20919 0.13442 -0.35565 -0.022225 -0.30815 -0.036069 -0.12211 -0.83547 0.14887 -1.2209 -0.46542 0.1878 0.17575
aggressive -0.041296 -0.40944 -0.17422 -0.07183 -0.66938 0.60744 -0.28534 -0.58973 -0.92596 0.56314 -0.14545 -0.32571 -0.17736 -0.59663 0.39965 0.39807 -0.9322 0.00056897 0.31111 0.17431 0.7122 0.23954 -0.63931 0.1261 -0.41773 0.94709 -0.21826 -0.18304 -0.4412 0.43762 -0.3253 0.97296 0.20056 -0.35536 0.74861 -0.062333 -0.68774 -0.87594 0.14008 0.34876 -0.12598 -0.2531 0.063051 0.47189 -0.23596 -0.17578 0.78144 -0.013996 0.40164 -1.2354 0.057457 0.037848 -0.38584 0.71126 0.25639 -1.5324 0.57799 -0.45079 1.0888 -0.2467 0.24489 0.088904 -0.0434 0.5104 0.98238 -0.11763 0.27353 0.34422 0.47277 -0.24453 0.35904 -0.88138 -0.62951 -0.31781 -0.14581 -0.77498 -0.79203 0.2678 -0.57629 -0.40543 1.1351 0.069213 -0.44699 0.20937 -1.3396 -0.54585 -0.049423 0.53079 -0.6833 -0.86812 -0.28908 -0.0026268 -0.051924 -0.17856 0.032391 0.020855 -1.0356 -0.20908 0.56365 0.34107
ambitious -0.32399 0.019614 0.1311 0.12203 0.38261 -0.52129 -0.18122 0.053193 -0.27727 1.0394 0.1742 0.089537 -0.56194 -1.0334 -0.33968 -0.12162 -0.22786 0.30919 0.19618 0.15033 -0.017513 -0.18807 -0.4581 -0.23733 -0.0027438 0.22883 -0.50193 0.039627 -0.65467 -0.050243 -1.0073 0.6267 0.8138 -0.70185 0.16582 0.15544 -0.17877 -0.81758 -0.24669 0.38281 -0.0017631 0.34142 0.4228 0.75323 -0.21982 -0.13069 0.33014 0.22985 -0.056698 0.37513 -0.17969 -0.54369 0.24871 0.58328 -0.14781 -1.7095 0.48692 0.22696 0.84059 -0.49573 0.085482 0.42036 -0.32829 -0.31829 0.8945 -0.6807 -0.53368 0.80195 0.14364 -1.0122 1.1387 -0.3972 -0.66833 -0.2751 -0.3738 -0.78023 -0.37302 0.23757 -0.78091 -0.78135 0.70263 0.68085 0.22782 0.092588 -1.219 -0.17341 0.071072 0.15601 -1.0155 -0.86029 0.37609 0.20022 -0.25436 -0.40942 -0.69695 -0.22328 -0.88473 -0.19989 0.26097 0.088474
american 0.38666 0.64827 0.72807 -0.077056 0.1545 -0.19704 0.092145 -1.1485 -0.37113 0.24019 -0.24023 -0.89308 0.12862 0.013445 -0.29047 0.26244 0.87932 -0.18065 -0.44722 0.21253 0.76651 0.17738 0.57841 -0.23391 0.93055 0.16157 0.10065 -1.445 0.58182 -0.1713 -0.42354 0.50944 -0.41707 0.060952 -0.25351 0.08773 -0.078008 0.75344 0.28149 0.43221 -0.95782 -0.48864 -0.43305 0.98063 0.41688 -0.25731 -0.11483 -0.22824 -0.3195 -0.92569 -0.51809 0.11046 0.25846 0.31938 0.031387 -2.1859 -0.18954 -0.3671 2.2003 0.74812 0.36128 0.72895 0.53194 -0.45152 0.55719 -0.91869 -0.0022865 0.8208 0.35648 0.29181 -0.25615 -0.036604 -0.81117 0.16188 -0.046315 0.47251 0.57548 0.17264 -1.2795 -0.54711 0.39105 -0.046598 0.025004 0.93374 -1.113 -0.37478 -0.092246 0.30074 0.22905 -0.91934 -0.26528 -0.26074 0.043642 0.077836 -0.9252 -0.16832 -0.62285 -0.45475 0.39219 0.54088
analyst -0.68912 -0.61502 -0.075303 -0.90185 -0.21638 -1.6388 -0.35845 -0.6202 -0.46533 0.24556 -0.22849 0.36161 -0.28079 -0.25722 -0.034761 -0.22908 -0.083752 -0.66219 0.1797 0.32527 0.026944 0.047801 0.33888 0.53238 0.15211 0.29341 0.068226 -0.23673 -0.72906 1.0928 -0.34875 0.35338 -0.33324 -0.078432 0.14354 -0.4008 0.64908 1.2761 0.3117 -0.73472 0.57459 -0.77899 -1.4682 -0.060967 -0.20749 -0.86404 -0.33615 -0.42517 -1.1664 -0.83425 0.92064 -0.80822 0.29501 -0.082142 0.43682 -2.3248 -0.97519 0.42744 0.22636 0.9386 0.31505 -0.54591 -0.25594 -0.23809 -0.25933 -0.46299 0.56394 1.1346 0.78818 1.2429 -0.82584 0.37498 -0.67665 -0.98825 -0.094105 -1.175 0.029294 -0.26227 -0.84071 -0.66487 1.4958 0.12404 -0.27479 -0.28074 -0.26273 -0.61165 -0.68797 -0.40587 0.93194 -0.62827 0.759 0.095698 0.23164 -0.86261 -0.34132 0.70849 0.37374 -0.22845 -0.92452 0.95916
architect -0.26752 -0.16542 -0.62956 0.44796 0.45199 -0.64245 0.041966 -1.0137 -0.65955 0.98175 0.29975 -0.70438 0.048065 -0.39089 -0.25155 -0.090673 0.51106 0.23209 -1.3972 0.089604 -1.0962 0.11592 0.097901 -0.78373 0.1524 -1.3648 -0.5557 -1.0818 -0.23408 -0.62614 -0.88029 0.53598 0.14394 0.33501 -0.43611 -0.078759 0.22878 -0.44649 0.6148 -0.21395 0.4312 0.16177 1.0763 0.43588 0.42862 -0.31545 -0.078416 -0.57841 -0.19053 0.19044 -0.1977 -0.59459 0.65928 0.2798 -0.067085 -1.6904 -0.96571 0.044047 0.31465 -0.49103 0.33452 0.32655 0.30027 0.44093 0.73527 -0.59905 0.16257 1.012 -0.30428 -0.11795 -0.35462 0.6402 -0.84094 -0.35806 0.19254 -1.1535 0.63624 0.88889 -0.011586 -0.25492 0.30389 0.25624 -0.033145 0.49966 -0.015948 0.35294 -0.20083 -0.50763 -0.41745 -1.4415 0.72951 -0.89329 0.5672 0.60696 0.037373 0.044144 -0.24915 -1.014 0.038423 -0.50154
artist 0.32115 0.55975 -0.17671 0.14741 1.362 -0.13782 -0.030163 -0.6861 0.090848 0.37778 -0.083138 -0.78248 0.35852 -0.66149 -0.26974 0.30111 0.94057 -0.21097 -0.041566 0.60901 -0.39972 0.033368 0.61428 -0.37484 0.72029 -0.10582 0.56133 -1.0063 0.62512 -0.40029 -0.83753 0.37458 0.0046554 0.88943 -0.266 -0.31154 -0.38452 -0.057689 0.035515 -1.0455 0.34997 0.58033 0.10229 0.449 -0.071906 -0.49254 -0.7905 -0.60537 0.47823 -0.16326 -0.40765 0.024773 0.036499 0.5628 -0.1298 -2.0813 -1.0314 -0.21197 0.46063 0.54716 0.90811 1.7103 -0.5571 0.19693 0.95702 -0.4333 1.0093 0.51207 0.013112 -0.26459 -0.34125 0.72198 -0.62453 0.42835 0.58965 -0.00048172 0.50099 -0.075716 0.22287 -0.9695 -0.12431 0.22814 0.44531 0.16126 -0.79555 -0.094849 -0.20421 -0.53045 0.20971 -1.1064 0.18818 -0.6722 0.59262 -0.15673 0.1934 0.37775 -1.0592 -0.7187 0.059528 -0.74078
asian 0.24085 1.079 1.2594 0.11071 0.11447 -0.84595 -0.76466 -0.23425 0.033816 0.13263 -0.35303 -0.64625 0.55895 0.07348 -0.42828 0.57023 -0.38464 -0.7493 -0.20962 -0.62969 0.42389 0.165 0.52758 0.4474 0.050366 0.328 0.49292 -0.48167 -0.0059427 0.44103 -0.84436 0.29019 -0.39598 -0.30072 0.46611 -0.21674 0.41283 1.0222 -0.71683 0.17046 -1.3636 -0.87734 -0.18252 -0.1401 0.71055 0.33061 0.45379 0.21519 -0.35969 -1.2752 -1.5218 0.0041509 0.13972 0.036225 -0.12487 -2.0061 -0.85431 -0.12385 1.8364 0.74394 -1.0942 0.53277 -0.099602 -0.2512 -0.12737 -0.33726 -0.6853 0.19189 1.0955 -0.26984 -0.38921 -0.017923 -0.60917 0.077246 -0.50325 0.37762 -0.78107 0.26474 -0.7332 -0.3521 0.48741 -0.035924 -0.035761 0.060318 -0.70763 -0.10354 -1.2034 0.51565 0.44811 -0.0071665 0.17755 0.538 0.23368 -0.76968 -0.3852 0.036952 -0.60532 -0.2184 0.43998 0.18143
assertive -0.14284 0.28081 0.98118 0.44258 -0.35632 0.54273 -0.31804 -0.75204 0.11071 0.76884 -0.44925 -0.49685 0.1045 -0.1056 0.096663 0.63356 -0.29792 -0.23296 -0.068858 -0.70765 0.23896 0.14454 0.023688 0.1535 -0.33111 0.65345 0.33804 0.24741 -0.17468 0.833 -0.42782 0.55446 0.28037 -0.4715 0.21336 0.28352 -0.19207 -0.39994 -0.076839 -0.1547 0.059121 -0.54018 0.47505 0.22384 -0.18554 -0.18962 0.98372 0.22784 0.59303 -0.24477 -0.32205 -0.12415 -0.35666 0.38052 -0.27917 -0.38211 0.90097 -0.39965 -0.26992 -0.78031 0.64971 0.23861 -0.14457 0.55308 0.091658 -0.31168 0.0045211 0.32947 0.10088 -0.36883 0.82499 -0.88424 -0.46628 -0.065947 0.06482 -0.34114 -1.1383 -0.26635 -0.043149 -1.0868 0.16684 -0.24438 0.10135 0.82971 -0.31013 -0.16408 0.24407 1.0326 -0.47829 -1.6374 0.39579 -0.040447 -0.17709 -0.53154 -0.14024 0.18953 -1.1759 -0.36098 0.052126 1.0778
assistant 0.34659 -1.2007 0.39806 -0.92377 0.25311 -0.34066 0.60172 0.13021 -0.75446 -0.099734 -0.39329 -1.3536 0.6734 1.1429 0.16842 -0.54914 0.59517 0.024513 -0.91172 -0.089667 -0.42348 0.50275 -0.25801 -0.14153 -0.18962 -0.39863 0.40987 -1.0943 0.26771 0.26658 -0.82557 0.548 -0.45893 0.029928 -1.1344 0.19549 -0.94564 0.45239 0.89033 -0.31065 -0.41898 -0.40672 0.3217 -0.16297 0.75168 0.65314 -0.42571 -0.57561 0.04105 -0.59638 0.20592 -0.98481 -0.29138 0.53054 0.42551 -1.586 -0.46045 -0.24123 0.52666 0.28318 -0.039234 -0.016079 0.13965 -0.0018981 0.40934 -0.76111 0.56273 1.1823 0.34372 1.3863 0.26348 0.061191 0.17508 -0.45145 0.36169 -0.15201 -0.37268 0.90699 -0.3212 -0.39727 0.46633 0.22515 -0.073066 -0.42127 -0.97835 -0.056225 0.085903 -0.054974 0.34826 -1.0043 0.32702 0.01734 0.42577 0.60999 0.24903 0.053127 -0.458 0.45702 0.036751 -0.052508
astronaut -0.3688 0.18314 0.32975 -0.54818 -0.23948 -0.84675 0.53847 -0.41032 -0.26726 0.93996 -0.40679 0.26915 0.5963 0.31834 -0.14333 -1.3031 0.82554 0.98217 -0.28805 0.5665 -0.42493 0.26338 -0.16628 0.4965 0.47544 0.39143 -0.38059 -0.1942 0.9356 0.40571 -1.0889 0.19484 -0.4143 0.71471 0.23421 0.54598 -0.59268 0.71569 0.66558 -0.13731 -0.84951 -0.040568 0.87513 0.8406 0.047011 0.21116 -1.1758 -0.080525 -0.10308 1.0238 0.63375 -0.29493 -0.45339 0.50541 0.58153 -0.8697 0.084728 0.49356 0.97624 0.49709 0.50324 0.86016 1.0943 0.6806 -0.036209 -0.17263 0.11513 0.69541 -0.33352 0.61773 -0.1301 -0.18158 -0.47782 0.66272 -0.41457 0.81251 0.55172 -0.010227 -0.14287 -0.74252 -0.4942 0.20156 0.1497 0.92845 -0.20902 -0.21554 0.83989 1.1678 0.2148 -0.94801 1.011 0.66021 0.44611 -0.098967 0.63288 0.27238 0.052565 -0.093913 -1.2455 -0.53774
aunt 0.20861 -0.16902 0.33447 0.043482 -0.27338 0.53489 -0.34282 0.10549 0.29764 -0.0047136 -0.039522 0.17831 -0.12561 0.46411 0.048369 -0.082772 0.10357 -0.052958 -0.21689 1.1943 -0.18743 0.69135 0.29401 0.45871 0.41993 0.33171 -1.0771 -1.419 -0.20005 0.63959 0.30314 0.51684 1.4939 0.097429 -0.64012 0.67043 0.27266 0.14156 0.87618 -0.0049375 -0.066969 0.22421 0.029059 -0.50297 0.12929 0.31207 -0.95988 0.098352 0.72619 -0.34323 -0.10229 0.38255 1.5315 0.38464 -0.18369 -0.7087 -0.60978 0.10066 -0.81362 0.21249 0.25147 0.96788 0.2786 -0.28582 0.30714 0.022422 -0.20459 0.096513 0.17629 -0.29374 -0.40988 -0.17367 -0.064264 -0.31721 0.38492 1.058 -0.0016652 -0.51494 -0.1854 0.13959 -0.18442 0.20052 0.52477 -0.11742 -1.1461 -0.47471 -0.029997 -0.16954 -0.27475 -0.65878 0.12492 0.17139 1.1806 0.25806 -0.62281 -0.4676 -0.050566 -0.52611 -0.34012 -0.17404
babysitter 0.56041 -0.037647 0.021993 -0.25941 -0.75681 0.68627 0.080685 0.28444 0.6076 0.41149 -0.044907 0.11511 -0.12602 0.32646 0.17894 -0.22148 0.22923 -0.34567 0.36506 0.76062 -0.4787 -0.22994 -0.075166 0.2789 0.27682 0.24129 -0.52616 -0.21814 -0.55654 0.1886 0.13952 0.12245 0.44283 0.43967 -0.061151 0.4666 -0.4159 -0.2974 0.63683 -0.28941 0.17612 0.83077 -0.18475 -0.20348 -0.17295 0.27547 -0.53849 0.21638 0.40433 0.22566 -0.55586 -0.51476 -0.088878 0.41721 -0.025856 0.12546 -0.21922 0.30872 -0.53912 0.25139 0.26096 0.0018648 -0.26642 0.032604 0.35229 -0.048638 0.19528 -0.20384 0.12048 -0.071405 -0.076019 -0.35326 0.041918 0.29577 -0.17632 0.36432 0.032032 -0.24358 0.073742 -0.31849 -0.062291 0.20774 0.86002 -0.24052 -0.5876 -0.065194 -0.24346 0.65575 -0.65303 -0.33195 -0.21287 0.75553 1.1518 -0.14255 0.28352 -0.68817 0.51943 0.41727 -0.33878 -0.14303
baker -0.25856 -0.33782 -0.34712 -0.65927 0.077548 -0.44468 0.69571 0.041761 -0.35231 -0.66743 0.17952 -0.65371 -0.34035 0.25524 -0.0081352 -0.034667 0.1975 0.085264 -0.87977 0.3691 -0.048064 0.12952 0.21515 -0.46449 0.039693 0.319 -0.19986 -0.44467 0.02213 0.21551 0.17128 0.26746 0.3073 -0.013722 -0.5475 0.2235 0.16261 0.59387 0.37892 -0.11171 -0.16692 -0.28655 0.060079 -0.024558 -0.20742 0.13643 -0.5878 -0.36964 0.21188 -0.56239 0.42675 -0.40253 0.46202 0.056344 0.14116 -1.7129 -0.26847 -0.073018 0.10869 0.52776 0.20146 -0.083268 0.11921 -0.036081 0.54954 -0.41393 0.59789 0.71513 -0.44684 0.66961 -0.43925 0.5599 -0.59263 0.015736 0.27785 -0.15322 0.14716 -0.28875 -0.40315 -0.40437 0.31982 0.32428 -0.25279 -0.30105 -0.20034 -0.042368 0.24254 -0.45523 0.084015 -0.50698 0.045741 -0.24478 -0.017176 -0.028337 -0.63834 0.33673 -0.19254 -0.022338 -0.0053603 0.31942
banker 0.38247 0.017808 0.027477 -0.20083 0.36443 -0.13331 -0.1912 -1.0242 -0.38113 0.20594 -0.14754 0.39639 -0.20368 0.033932 -0.10179 -0.051959 0.38677 -0.69663 -0.33898 0.52758 -0.4069 0.71556 -0.42132 -0.26313 -0.28739 -0.37904 -0.53897 -0.58618 -0.22727 0.28154 0.3801 0.74731 -0.1339 -0.39141 -0.16127 0.033289 -0.055997 -0.2849 0.80663 -0.24966 0.32239 -0.37355 0.37995 -0.22578 0.27599 -0.093829 -0.067628 -0.28326 -0.0037751 -0.27631 -0.47138 -0.55508 0.76046 0.32742 -0.35702 -0.79991 -1.2585 0.21054 0.28415 0.32681 0.0030583 -0.18256 -0.18593 -0.3059 0.37757 -0.75688 0.15415 0.8135 0.55161 0.29547 -0.60362 -0.027136 -0.72614 -0.41077 -0.45214 -0.62962 0.052496 -0.35317 -0.32318 -0.8254 1.1487 0.62249 0.0034491 -0.060142 0.49684 -0.78672 -0.59884 -0.045061 0.22282 -1.5709 0.43509 -0.34369 0.81593 -0.60536 0.075498 0.78636 0.36368 -0.47563 -0.54364 -0.067589
basic -0.26856 0.6559 0.064675 0.49685 -0.017103 -0.29713 -0.2498 -0.10622 -0.018357 0.51989 0.15085 -0.29347 0.26016 0.24355 -0.16174 -0.3219 -0.039009 0.41975 -0.082028 -0.24394 -0.03684 -0.73352 0.70898 -0.33316 0.11844 -0.59756 -0.11862 -0.79497 -0.96396 0.021329 -0.24734 0.8511 -0.39183 -0.37471 -0.043133 0.55161 -0.071718 0.4992 0.049616 -0.21639 -0.0040826 -0.067965 0.40324 0.091231 -0.48203 0.43353 -0.71907 -0.11802 -0.4709 -0.64695 0.32064 0.13858 -0.17715 0.6697 0.29961 -1.1808 1.2482 -0.40982 2.3297 -0.024472 0.19348 -0.034497 -0.68993 -0.48949 0.9623 0.16395 -0.38371 -0.34473 0.13478 -0.0031644 -0.28652 0.33547 0.41695 0.23863 0.41502 0.86003 -0.42756 0.33562 -0.65593 -0.31828 0.26979 0.08922 -0.49216 0.077814 -1.6511 1.0244 -0.07981 -0.32213 -0.1591 0.50242 0.044186 -0.11809 -0.27576 0.36658 -0.69522 -0.36774 -0.25196 -1.4229 0.76169 0.78231
beautiful -0.18173 0.49759 0.46326 0.22507 0.46379 0.70062 -0.55155 0.79148 -0.18582 0.19755 0.19881 0.09037 0.02684 0.036921 0.25217 0.30879 0.33164 0.2714 -0.12808 1.1721 -0.072969 0.34904 0.11161 -0.36056 0.59628 0.42417 -0.69904 -0.19768 -0.35599 -0.23141 -0.38503 -0.12665 0.77121 -0.37397 0.59642 -0.24416 -0.25387 -0.065911 0.21035 -0.83429 0.28604 -0.022707 0.06746 0.088804 0.23424 0.20475 0.085396 0.55393 0.34153 -0.095455 -0.19291 -0.55262 1.0229 0.3866 -0.24254 -2.3519 0.43561 1.1172 0.77358 -0.73769 -0.35302 1.6699 -0.63955 -0.39244 0.56454 -0.27873 0.9252 -0.13997 -0.096213 -1.1242 0.49031 0.36918 0.41195 -0.038159 0.84123 0.24619 0.081767 0.07483 0.44646 -0.19423 0.013369 0.37712 0.23276 0.25728 -0.85934 -0.36652 -0.060819 -0.4635 -0.21186 -0.50654 0.33397 -0.24091 0.5626 -0.0414 -1.0032 0.1337 -1.8932 -0.81877 -0.44116 0.51389
beauty 0.34605 0.37063 0.71216 0.60649 0.55867 0.12423 -0.4931 0.69465 -0.20716 0.22622 -0.51986 -0.30441 0.27928 -0.45878 -0.26533 0.35312 0.46851 0.6097 -0.73558 0.78229 -0.32053 -0.26882 0.28553 -0.20476 0.50387 1.1241 0.53113 -1.0104 -0.33971 -1.039 0.10747 -0.49364 -0.020613 -0.39686 0.26115 0.12873 -0.56531 0.36466 -0.26132 -0.89771 0.3823 -0.19392 -0.42495 -0.17166 0.19919 0.6588 -0.11576 0.37989 0.3814 0.065988 -0.27727 0.19842 0.58872 1.1227 0.26947 -1.8642 -0.022341 0.30055 0.60598 -0.21402 0.3917 0.60883 -0.64958 -0.20309 0.48661 0.15034 0.95587 -1.0016 0.33329 -0.20761 0.26875 0.45322 0.35039 0.58432 0.21189 0.14272 0.4736 -0.28575 -0.29897 -0.23482 -0.29857 0.053357 0.60393 0.33951 -0.9785 -0.57436 -0.15883 0.22219 0.26573 -0.52693 0.41376 -0.13169 0.72261 0.29108 -0.71251 0.019294 -1.1032 -0.77901 0.55657 0.91643
black -0.057446 0.68595 0.16666 -0.87401 0.15815 0.82744 0.14644 -0.058745 -0.3261 0.41699 -0.80292 -0.40232 0.37558 0.60974 0.10099 -0.21078 0.97372 -0.32149 0.45312 -0.27803 0.17009 -0.39899 0.16984 -0.57855 0.9301 0.55068 0.046522 -0.72034 0.099242 -0.26823 0.76726 0.082905 -0.15788 -0.24976 0.091572 0.056385 -0.0036555 0.91062 0.96774 0.87138 -0.77552 -0.95855 -0.35118 0.15863 -0.49613 -0.24846 0.12888 0.68271 -0.098384 -0.29539 -0.75565 -0.031436 -0.3992 0.98436 -0.58334 -2.5521 -0.48499 0.15039 1.8512 0.13077 -0.017563 0.92475 0.01519 -0.064682 0.96542 -0.46697 0.9033 0.19543 0.25082 0.012015 0.06405 -0.0099806 -0.78189 0.3949 0.091027 0.46421 0.2052 0.34331 0.016577 -0.18336 0.2957 -0.05579 0.13877 -0.053554 -0.93123 -0.95064 -0.30912 -0.21691 0.57499 0.33833 0.02376 -0.80503 -0.15554 -0.016086 -0.63776 -0.31667 -1.4974 0.032599 -0.18032 -0.21718
boss 0.78493 -0.20744 1.0187 -1.0186 -0.49342 0.24554 -0.02367 0.12422 -0.39164 -0.17815 0.10953 -0.14438 0.18988 0.24163 -0.38338 -0.20654 0.12326 -0.5733 0.011742 1.0734 0.38244 -0.17063 -0.61281 -0.80553 -0.38435 -0.10755 -0.21073 -0.10691 0.13466 0.17861 0.1692 0.71825 -0.22475 -0.24147 -0.19437 0.76817 -0.2262 -0.38051 0.57225 -0.50251 0.29082 -0.20383 1.2488 -0.42914 0.34954 0.69889 -0.65391 -0.2696 0.52896 -0.26036 0.12666 -0.48954 -0.51343 1.545 0.37036 -1.5782 -0.93523 0.76124 -0.11557 -0.037141 0.37219 -0.0042882 -0.68292 -0.31332 0.73217 -0.53435 0.27473 1.1334 0.23617 0.096007 0.058438 -0.22164 -0.27002 -1.0346 -0.13254 -0.82593 -0.0011932 -0.053099 -0.52285 0.78615 0.41596 -0.036169 -0.29991 -0.32842 -1.0031 -0.43346 -1.0054 0.42034 -0.14036 -0.20358 0.23612 0.1642 0.31474 0.56059 0.73413 -0.17845 -0.48432 0.36687 0.17745 -0.51861
boy 0.89461 0.37758 0.42067 -0.51334 -0.28298 1.0012 0.18748 0.21868 -0.030053 0.086727 -0.44626 0.34755 0.61516 0.31583 0.56543 0.40314 0.45648 -0.39995 -0.20669 0.84975 -0.016242 -0.28152 -0.052972 -0.19438 0.35783 0.89044 -0.92628 -0.88332 0.089802 1.3856 0.11884 0.36608 0.44009 0.51617 0.35074 -0.24373 -0.68049 0.13276 0.78618 -0.5253 -0.28546 0.30342 0.23909 -0.65424 -0.15926 0.20786 -0.69262 0.25893 0.65051 -0.091278 -0.36572 -0.20873 0.18074 1.156 -0.01657 -1.9547 -0.6729 0.029884 0.93844 0.74598 0.80694 1.0129 -0.51853 -0.21152 0.35337 0.047413 0.75148 0.31402 -0.42139 0.29954 0.32677 0.12179 -0.19638 0.12719 0.041816 1.05 0.17703 0.08307 -0.51415 -0.6523 0.17147 0.37803 0.1107 -0.25518 -1.0712 -0.51485 -0.38163 -0.42314 0.13503 0.014892 0.11282 0.26315 0.20852 -0.016587 -0.40463 -0.15909 -0.71309 -0.13668 0.04035 -0.84151
brave -0.3108 -0.025014 0.068947 -0.43959 -0.41152 0.61614 -0.52219 -0.24981 -0.99196 -0.37134 0.61049 -0.22202 0.1337 -0.85563 -0.61804 -0.049186 0.00086472 -0.081404 -0.16459 0.56288 0.74418 -0.1802 -0.28245 0.19516 0.54536 0.84996 -0.56985 0.40857 0.55312 -0.21577 0.0097786 0.46159 -0.10304 -0.19494 0.79269 -0.28978 -0.75753 -0.29515 0.93373 -0.14889 -0.29953 0.84464 0.25721 -0.32371 -0.066 0.16892 0.47296 0.51265 -0.047694 0.099348 -0.22936 -0.3752 0.38066 0.64438 -0.025764 -0.77532 0.82653 0.11144 0.46637 -0.76642 0.3187 0.61458 -1.2074 -0.1551 0.54902 -0.17487 0.079476 0.50313 -0.14478 -0.81274 0.51364 -0.24756 -0.66465 -0.10425 0.4907 0.53855 0.21963 0.064624 0.2036 -0.43083 0.49865 0.36929 0.36029 0.63387 -1.0142 -0.16516 -0.20927 0.26141 -0.046575 -0.30562 0.19938 -0.20512 0.3105 0.25046 -1.0975 -0.001137 -0.80918 -0.14509 -0.8056 0.43843
brother 0.44172 -0.42239 0.16875 -0.73071 0.11421 0.58036 -0.15996 -0.35057 -0.51585 0.049159 0.21029 0.33813 0.34015 0.33394 0.43082 -0.68797 0.016801 -0.4392 -0.63862 0.99979 -0.22808 -0.36173 0.26028 0.33471 0.19574 0.1889 -0.65007 -0.90396 0.87146 1.0389 0.14813 0.62926 0.45103 0.056848 -0.47635 0.22851 0.019162 0.23166 0.31517 -0.04989 -0.045153 0.41631 1.2553 -0.93028 -0.16085 -0.0195 -0.52613 -0.062153 0.41316 -0.23164 -0.52598 -0.096949 0.60631 0.89382 0.24843 -1.9425 -1.0757 0.095841 -0.020964 0.49486 0.36509 0.74831 0.38753 -0.25084 0.81364 -0.30012 0.46068 0.76646 -0.15263 0.83083 -0.06191 -0.070126 0.031228 -0.63841 -0.15574 0.14927 -0.11447 -0.30875 -0.38419 0.12946 0.72202 0.52711 0.12857 -0.18808 -1.021 -0.33393 -0.53043 -0.63715 -0.17984 -0.96474 0.037772 -0.32945 0.78167 0.61159 -0.71574 -0.30733 -0.28572 -0.5258 -0.21903 -1.1951
carpenter 0.033967 0.11518 -0.26916 -0.58116 -0.47418 -0.2508 0.25261 -0.5092 -0.15365 -0.12451 -0.11255 -0.4209 0.56247 0.60716 0.17731 -0.36045 0.62001 -0.032152 0.043812 0.50791 0.23948 0.13931 0.69228 -0.20657 0.57563 -0.18699 -0.43411 -0.59603 -0.081458 0.020849 -0.58911 0.60011 0.10506 0.033214 -0.48561 0.0095694 -0.5755 0.17624 0.97349 0.13778 -0.040882 0.28683 -0.14166 0.36539 -0.1925 0.0060996 -0.53397 -0.57579 0.39278 0.018524 -0.24078 -0.64415 0.05218 0.14771 -0.005718 -1.007 -0.65293 0.096762 0.069322 0.49082 -0.12816 -0.035899 -0.072015 0.14065 0.04402 -0.52921 0.55613 0.61985 -0.20788 0.12702 -0.63575 0.28444 -0.73026 -0.086604 0.7937 -0.042052 -0.0906 0.10904 -0.22248 -0.12292 -0.30377 0.29526 -0.31672 -0.25872 -0.18043 0.30454 0.51369 -0.80315 -0.42173 -0.5911 0.30402 -0.49312 0.74105 0.23461 -0.042218 -0.33057 -0.19174 -0.20663 -0.0083981 -0.33338
cashier 0.75149 -0.64218 -0.36389 -0.04515 0.33945 0.35774 0.01298 0.49741 0.73388 0.55692 -0.24577 0.4521 0.34947 0.66751 0.27168 0.15917 0.16766 0.054736 -0.0576 -0.36599 0.33757 0.57776 -0.70838 -0.49165 0.035143 -0.55288 -0.41533 -0.76714 -0.042735 -0.751 0.056498 0.54528 0.51075 0.21492 -0.38883 0.33805 -0.55499 -0.40065 0.86771 -1.3423 0.94728 -0.38385 -0.015415 -0.18792 -0.12017 0.85833 -0.83174 -0.28835 -0.12583 0.12281 0.40535 -0.33731 0.51298 0.35211 -0.20047 0.30899 -0.045454 -0.092835 0.084927 -0.11474 0.3977 -0.29363 0.14622 0.57117 -0.19286 -0.24617 0.47355 0.39451 0.82916 0.28445 -0.34174 0.14027 0.071094 -0.26951 0.22856 0.38282 0.013939 -0.21829 -0.22802 -0.54853 0.88743 -0.38823 -0.46795 -0.22351 -0.34317 -0.22363 0.054964 0.084159 -0.17257 -0.49806 0.69322 0.8237 0.66195 -0.22189 -0.073798 -0.23919 0.90962 0.60584 -0.4938 0.16382
ceo 0.25151 -0.6794 0.294 -0.3538 0.73066 -1.0465 0.24104 -0.21623 -0.64931 -0.62495 0.18863 0.18383 0.66277 -0.031257 -0.53094 -1.3493 -0.0066948 -0.067124 -0.26756 0.47085 -0.47621 -0.011925 -0.48098 0.65764 -0.32033 0.15904 0.33961 0.38234 0.12597 0.4006 0.55614 1.2519 -0.63135 -0.70615 -0.91426 0.40208 -0.20371 0.43419 0.3134 -0.34893 0.023978 0.14294 0.62769 0.15823 -0.25988 1.2666 -0.80227 -0.13896 -0.051485 -0.43967 -0.23197 -0.77127 -0.78186 0.20297 0.2767 -1.9651 -0.30863 0.43997 0.94404 -0.18017 0.36905 -0.21658 -0.094273 -0.21507 0.40807 -1.0257 0.70508 0.87932 0.60585 0.26583 0.24395 0.11868 -1.0653 -0.78253 -0.089891 -0.99522 0.079317 -0.26963 -0.4163 0.02529 0.29333 -0.91098 -0.1164 0.34007 -0.38362 -0.67148 0.0010826 -0.35047 0.49977 -0.51213 0.83774 0.043239 0.33734 0.3067 0.66231 0.42802 0.11117 0.10537 0.4136 -0.11168
chef -0.04588 -0.55318 0.33432 -0.28207 -0.01859 -0.049776 0.64589 -0.0082297 -0.573 0.48658 -0.47627 -0.45884 0.74782 0.067003 -0.61669 -0.19984 0.054925 -0.39828 -1.1901 0.57149 -0.43409 0.49905 -0.41548 -1.1213 0.80491 0.14767 -0.17302 -0.89975 -0.36859 -0.90566 -0.74467 0.77548 -0.13744 -0.35448 0.34785 0.76894 -0.35153 -0.13159 0.23525 -1.0542 0.46609 0.30441 -0.10033 -0.2397 0.67136 0.35728 -1.7278 -0.60268 0.16556 0.30189 -0.60971 -0.48325 -0.64016 0.30316 -0.53605 -1.4435 -0.40988 0.87027 0.029022 -0.17427 0.46522 0.68198 0.58761 -0.26807 0.344 -0.91261 0.028721 -0.046958 -0.035552 0.86239 -0.39269 0.80855 -0.56986 0.46542 -0.41106 0.20689 -0.040061 -0.2553 0.49198 0.081972 -0.016459 -0.48423 -0.30902 0.25001 -0.10361 -0.76767 -0.4505 0.38703 -0.034741 -0.97457 0.34664 0.47733 1.0039 -0.15663 -0.21112 -0.097951 -0.33248 -0.6064 0.30712 0.40455
citizen 0.24994 -0.086442 0.055428 -0.32351 0.40794 0.69732 -0.37663 -0.78189 0.085115 0.36727 -0.39897 0.082412 0.23239 -0.2912 -0.4294 -0.085072 0.58006 -0.12463 -0.70446 0.36197 -0.13297 0.53504 0.19287 -0.15725 -0.042841 -0.14077 0.77332 -0.98091 0.73406 -0.010293 0.028587 1.1577 0.084634 0.1263 0.58825 -0.38781 -0.514 0.56149 0.57169 -0.016271 -0.72662 -0.13902 0.56878 0.19499 0.42488 -0.76849 -0.10249 -0.44575 -0.35464 -0.1864 -0.066177 -0.2457 0.30644 0.77948 -0.49243 -0.44752 -0.11656 -0.55646 1.6824 -0.020878 0.36161 0.056546 -0.35919 -0.71408 1.0365 0.40414 -0.1801 0.60084 -0.033129 0.56199 0.17046 -0.54284 0.1427 -0.031657 0.31207 0.86482 0.54459 -0.57805 -1.1022 -0.77571 0.72388 0.12437 0.41471 0.57517 -0.41319 -0.49322 -0.088855 0.09363 0.31459 -1.1626 -0.086573 -0.42262 0.45669 -0.20969 0.032949 0.81323 0.1752 -0.41961 -0.24476 -0.5556
clerk 0.62789 -1.0852 0.28919 -0.12879 0.50716 0.63898 -0.16738 0.42231 0.29633 -0.15357 -0.13614 -0.72193 0.24544 0.74187 0.087797 -0.47022 0.68527 0.11528 -0.50007 -0.094723 0.22557 0.1279 0.35716 -1.0961 -0.20555 -1.0697 -0.1015 -1.1593 -0.016329 0.06604 0.23044 0.45758 0.50689 -0.60938 -0.42173 0.17214 -0.87748 -0.5609 1.4157 -1.0216 0.21524 -0.33322 0.2663 -0.9567 0.15169 0.23385 -0.52302 -0.79583 0.34506 -0.13583 0.59249 -0.76628 0.52027 0.59197 -0.18227 -0.42523 -0.41126 -0.17938 0.75696 0.25909 0.17154 -0.39149 0.25903 0.4264 -0.2006 -0.74447 0.54704 0.61562 0.27529 0.46333 -0.40811 0.7049 0.29176 -0.48504 0.38571 0.30251 0.14786 -0.3944 -0.45786 -0.86288 0.093768 0.10558 0.079276 -0.12112 -0.76016 -0.92158 0.19657 -0.81293 0.33435 -0.77412 0.66898 0.013041 0.25433 0.41449 0.10961 0.21629 0.83758 0.17928 -0.52044 -0.22321
compassionate 0.16383 0.62089 0.091409 -0.41372 0.30276 0.81571 -0.31948 -0.57519 -0.20998 0.072593 -0.50186 0.0053828 0.34368 -0.78725 0.83135 -0.16322 0.42516 -0.32537 0.17292 0.74635 0.57855 -0.19476 -0.23588 -0.52339 -0.45931 1.8848 -0.018594 -0.45111 -0.38774 0.41176 0.40273 0.64921 0.032134 0.41189 -0.049469 1.2899 -1.3247 0.49669 -0.13412 -0.21844 -0.038793 0.11833 1.0664 0.1145 -0.35475 -0.71151 0.56568 0.11418 -0.13067 0.31752 -0.008086 -0.51478 0.62565 0.40301 -0.80462 -0.23375 1.0781 -0.66822 0.96372 -0.31144 0.59318 0.039286 -0.77886 -0.96729 0.63546 -0.060681 -0.43822 0.34367 -0.17232 -1.1334 0.19065 0.099354 -0.29041 -0.40687 -0.089921 0.37149 0.13983 0.26663 0.84625 -0.55326 -0.37294 0.50515 0.13145 0.67044 -1.0728 0.47471 0.15788 0.82526 -0.8636 -0.74586 0.58828 -0.77537 0.41986 0.12613 0.062528 0.12413 0.015563 -0.35448 -0.58391 0.31517
competitive -0.34384 0.23759 -0.12652 -0.04584 -0.42268 -0.80288 -0.19693 -0.29257 -0.34844 0.043849 -0.081467 -0.50878 0.16921 -0.91859 -0.51021 -0.26764 0.17573 0.83959 0.37856 0.035039 0.46642 0.38673 0.49662 0.13967 0.012992 -0.28885 -0.18636 -0.6974 -0.1402 0.20946 -0.48155 1.0883 -0.0054153 -1.1832 1.0403 -0.15935 -0.89863 -0.063107 -0.68358 -0.13571 0.20048 -0.42031 0.075776 0.032167 -0.057052 0.29668 0.75046 -0.15989 -0.17581 -1.2602 -0.44814 -0.57569 -0.44921 0.45767 0.87003 -1.715 0.54757 -0.18353 1.5241 -0.29583 -0.44828 -0.18635 -0.653 0.29444 0.29569 -0.25951 0.013704 -0.29686 0.63235 -0.16198 0.46282 -0.53179 0.30784 0.32125 -0.05614 0.16501 -0.068935 -0.74016 -0.4749 -0.40264 0.69934 0.022137 -0.18162 0.23049 -0.85968 -0.46306 -0.74259 0.51313 -0.33834 -0.977 -0.28417 0.34327 -0.28012 0.0034876 -0.15809 0.64453 -0.071601 -0.11902 1.0579 0.61069
confident -0.26242 -0.15922 0.66625 -0.12434 -0.6381 -0.34109 -0.10272 0.02987 -0.39422 -0.027266 0.23453 0.15659 0.26819 -0.86695 -0.52665 -0.39432 -0.42461 0.33807 0.17954 0.092562 0.1698 0.33129 0.010194 -0.4412 -0.60444 0.23203 0.26453 -0.1864 -0.09033 0.17711 -0.67349 0.3187 -0.06056 -0.36719 0.8564 -0.12066 -0.23009 0.081642 0.037771 -0.20972 -0.53984 -0.39077 1.0898 -0.3163 -0.1039 -0.2215 0.68794 -0.095288 0.23704 -1.3377 0.13829 -0.53249 0.39691 0.58081 0.11654 -1.8227 0.10773 0.13982 0.69429 -0.08801 0.06578 -0.051044 -1.1119 -0.061468 -0.0042089 0.23932 0.23697 1.0173 -0.53056 -0.40299 0.92793 -0.021709 -0.385 -0.92228 0.66393 -0.012066 -0.45063 -0.12913 -0.20643 -0.79349 0.54055 -0.02573 -0.54122 0.23227 -0.93166 -0.70523 -0.059358 0.64073 -1.0781 -0.55013 0.17585 -0.17325 -0.043601 -0.0041139 -0.26661 0.61123 -0.56726 -0.17716 -0.15158 0.40566
cooperative 0.41231 0.2819 -0.87868 0.78795 0.015118 -0.65917 0.83714 0.31397 -0.27827 0.25168 -0.79002 -0.35279 0.77368 -0.43548 -0.21061 0.36938 0.6913 -0.33076 -0.36892 -0.22462 -0.045861 1.0766 -0.22021 -0.36448 -0.44344 0.24014 0.28052 -0.0031583 -0.92369 0.69673 -0.73576 1.3434 0.49142 -0.48627 0.61143 -0.16115 0.23431 -0.65675 -0.12827 -0.82318 0.35973 -0.48187 0.33716 0.13496 0.0071577 -0.21075 -0.18953 0.27468 0.2096 -0.39873 -0.7391 0.21181 -0.36995 0.11609 0.056828 -0.89483 0.82869 -0.90649 0.97812 0.36193 -0.32768 -0.21582 -0.35398 -0.26434 0.55989 0.078045 -0.22945 0.83267 0.91807 -0.47388 0.60032 0.032229 0.55458 -0.99292 0.25825 0.42441 0.32033 -0.25889 -0.96513 -0.012 0.36424 1.2101 0.2275 0.36345 -0.62553 0.98298 0.1983 0.11921 -0.29803 -0.64988 0.29737 -0.30711 -0.50855 -0.31587 -0.20098 0.65207 -0.21835 -0.45989 0.68314 0.014621
daughter 0.36929 -0.32185 0.17547 0.078815 -0.36315 0.50179 0.18544 0.3546 0.12563 -0.027458 -0.028441 0.68298 0.007407 0.6368 0.3533 -0.74392 0.23492 -0.4269 -0.68693 1.0675 -0.66104 -0.2809 0.76042 0.89531 0.72765 0.30927 -0.69782 -1.4531 0.3598 0.83333 0.11027 0.47318 1.4276 -0.16512 -0.19747 0.01778 0.34746 0.048512 0.75944 0.28004 -0.45269 0.35165 0.51172 -1.0251 -0.0018002 0.017328 -0.86476 0.12612 0.7549 -0.21549 -0.13812 -0.27444 0.89905 0.82762 0.18724 -2.1429 -0.76081 -0.22494 -0.19638 -0.052609 0.35525 0.94654 -0.080923 0.015504 0.54551 0.043867 0.6214 0.51143 0.017892 0.33829 0.060167 0.22987 -0.054266 -0.42534 0.18978 0.95761 -0.038804 -0.61902 -0.92531 -0.76308 0.16902 0.50627 0.79022 0.38628 -1.0878 -0.97157 -0.15838 -0.57783 0.097735 -1.0877 0.090819 -0.42 1.4228 0.35637 -0.89836 -0.037904 -0.41144 -0.63571 -0.42302 -0.66343
decisive -0.29957 -0.4188 0.084768 0.62298 -0.09917 -0.19602 0.37695 -0.37598 -0.57064 -0.2059 -0.096644 -0.41128 -1.0929 -0.27124 -0.088346 0.24767 -0.43102 -0.078366 -0.1075 0.23968 1.1872 -0.4461 -0.16591 -0.017213 -0.24386 -0.1037 -0.082559 0.65084 0.50054 -0.45891 -0.81315 -0.28892 0.39317 -0.2484 0.48364 -0.96532 -0.25687 -0.17718 -0.55471 0.40845 -0.40895 0.066884 1.0588 -0.23557 -0.16653 -0.50904 0.91812 -0.13557 -0.81716 -0.46489 -0.34608 0.045548 0.12258 0.82697 0.28358 -1.8263 0.51738 -0.38214 0.69761 0.2116 -0.8434 -0.018243 -0.60585 0.52037 0.58317 -0.38104 -0.94623 0.045653 -0.97596 -0.49426 0.206 -0.27969 -0.021659 -0.18002 0.53384 -0.13033 -1.4452 -0.53556 0.0030529 0.027235 0.64028 0.13583 -0.52706 -0.016998 -1.0409 -0.4958 0.34651 0.47514 -0.068525 -0.88844 -0.27122 0.029358 -0.30165 0.67772 -0.40503 -0.053717 0.48325 -0.16036 -0.14771 0.83821
dentist 0.055684 0.10832 -0.058621 -0.028176 -0.53787 0.32828 -0.034967 0.56501 -0.0050454 0.14709 -0.70519 -0.53259 0.87722 1.0295 0.18915 0.087612 0.27359 0.14183 -0.10164 0.29168 -0.41164 0.8339 -0.82232 0.24948 -0.12432 0.054249 0.088638 -1.3066 0.13969 -0.18154 -0.10227 0.41141 0.51807 0.3597 -0.52075 0.26531 -1.2546 -0.24653 1.0425 -0.40925 0.27731 0.60319 0.26654 -1.1164 -0.3245 0.1095 -0.20146 0.11333 0.078068 -0.029968 0.065078 -0.51971 0.36329 0.015661 -0.16086 0.027909 -0.55065 -0.29487 0.081164 0.069414 0.50877 0.32095 0.64907 0.158 0.10833 0.0036445 0.53434 0.25091 -0.15992 0.45212 -0.38118 0.26884 -0.16612 -0.0046714 0.075531 -0.061919 0.041939 0.041839 -0.054657 -0.3448 0.058183 0.35175 0.20857 0.31997 -0.76444 0.098393 0.78943 0.62279 -0.55571 -0.70168 0.43934 -0.12429 0.92761 0.42997 -0.19055 0.21329 0.5691 -0.12724 -0.15341 -0.33565
dependent -0.82674 0.36355 0.71849 0.67432 -0.61552 -0.42679 -0.36723 0.4073 0.55971 -0.38557 -0.29378 -0.35394 0.62649 -0.18752 0.12535 -0.6534 0.14812 -0.24681 0.62169 0.72776 -0.11844 0.39393 0.3503 0.48813 -0.22468 -0.10037 -0.056309 -0.28699 -0.32118 0.50235 0.36116 0.46027 -0.34562 -0.33157 0.16385 -0.21209 0.38814 0.38486 -0.40196 -0.53125 -0.11272 -0.057847 0.071556 0.50565 0.36201 -0.68483 0.11984 0.87311 -0.33259 -0.45797 -0.49938 0.2005 0.37227 0.64613 0.32575 -0.50547 0.17755 -0.75602 1.2331 -0.37162 0.44789 -0.24293 0.085619 -0.35236 0.75742 0.13347 -0.065536 -0.45472 0.78481 -0.63852 0.14529 -0.59918 0.70518 0.56801 0.9411 -0.34694 -0.24404 -0.44529 -0.53273 -0.28748 0.32914 0.33499 -0.99927 0.35621 -1.2861 0.17623 -0.1131 -0.30929 -0.53139 -1.128 -0.4778 0.25758 0.14135 -0.51275 -0.4086 0.17898 0.035808 -0.34978 0.75395 -0.35234
designer 0.45569 -0.092917 -0.46485 -0.38706 0.84548 -0.75232 0.66278 -0.28272 -0.42551 1.1233 -0.11498 -0.89341 0.34782 -0.23999 0.43076 0.38276 0.72002 0.40351 -0.41283 0.18432 -0.82006 -0.16717 0.34455 -0.53558 0.43445 0.072937 0.093367 -1.5065 -0.39299 -0.73132 -0.40965 0.37244 -0.4766 -0.20725 0.26154 0.44469 0.18873 -0.28022 0.17531 -0.60016 0.84439 0.12607 0.21102 0.1525 -0.28613 0.047147 -0.81109 -0.42994 0.35094 0.18838 0.42738 0.050323 0.060365 0.24395 0.053452 -1.6594 -1.6273 1.1945 0.49108 -0.34173 0.82451 1.0857 0.098579 1.0232 0.12078 -0.68869 1.0275 0.14041 -0.063359 0.11999 -0.21924 0.43399 -1.0155 0.13388 0.56029 -0.1594 0.49365 0.27887 -0.079037 -0.37633 -0.069147 -0.30774 0.0070622 0.42168 -0.92962 -0.65289 -0.30876 -0.099971 -0.33776 -0.87241 0.69426 0.052569 1.3775 -0.70798 -0.0021845 0.25555 -0.78592 -0.5253 0.56421 -0.19001
destitute 0.36727 0.924 0.31218 0.15971 -0.30492 1.0854 -0.24369 0.53928 0.92644 -0.014606 -0.032663 0.11673 0.31014 -0.6647 0.04372 -0.54601 0.2411 -0.49571 -0.058387 0.40809 0.026101 0.58509 0.70747 0.19406 0.39083 -0.11161 -0.62848 -0.034478 -0.085285 -0.042938 0.48134 -0.25331 0.1471 -0.35064 -0.6671 -0.26796 -0.038277 0.40132 -0.11473 -0.27994 -0.72479 0.69337 -0.18248 -0.10876 0.58702 0.0149 0.10138 0.91057 -0.17629 0.48811 -0.92587 -0.33178 0.51104 -0.022728 -0.25689 0.29355 -0.1594 -0.75314 0.2251 -0.33558 0.25805 0.077342 -0.019405 -0.44883 0.37398 0.19451 0.14415 0.019717 0.3889 -1.2472 0.1103 -0.36685 -0.54272 0.2288 1.02 0.51669 -0.44485 0.67729 0.13523 -0.31446 0.22736 1.2531 -0.38636 0.56823 -0.81784 0.094661 -0.35927 0.21275 -1.343 -0.0035987 0.30055 -0.13096 1.1409 -0.1765 -0.69129 -0.20325 0.021883 0.58394 -0.48777 -0.13632
developer 0.35979 -0.14331 -0.21196 -0.057031 0.66161 -0.60098 0.059904 -0.78379 0.41226 0.22392 0.50198 -0.6089 0.097344 -1.5991 -0.022796 -0.31028 0.11379 0.38204 -0.3834 0.66604 -0.61555 -0.12464 -0.41734 0.1472 0.11743 -0.34939 0.46721 -0.099593 -1.3245 0.035209 -0.28118 1.2322 0.104 0.71569 0.49789 0.17027 0.095335 -0.41751 0.511 -0.71617 0.45151 -0.049804 0.37658 -0.15297 0.055159 0.122 -0.57026 0.18499 0.40017 0.29837 -0.718 -0.25945 0.86262 -0.19206 0.55447 -1.2908 -1.2292 -0.09622 1.2013 -0.010032 0.23673 -0.24001 -0.17475 0.02496 0.67529 -0.34313 0.81408 0.72894 0.31522 -0.0090557 -0.69453 0.86535 -0.45151 -0.19214 -0.665 -0.56852 0.15518 0.090997 -0.49789 0.39435 0.41184 0.18544 -0.66388 0.75196 0.11014 0.26496 -0.19677 -0.10001 0.22746 -0.71207 0.41194 -0.41048 0.39579 -0.18143 0.19948 0.58832 0.49713 -0.42544 0.98632 -0.78209
director 0.26554 -0.78286 -0.088447 -1.0131 0.99533 -0.94081 -0.3687 0.33595 -0.66131 0.01866 -0.10583 -0.50757 0.43957 0.11668 0.0068358 -0.16246 0.83221 -0.029842 -0.58107 0.59797 -0.34653 0.33801 0.083349 -0.33689 -0.15555 0.3037 0.36218 -0.49779 -0.1042 0.23055 -0.92252 0.60625 -0.34707 0.39155 -1.1208 -0.054766 0.091888 1.3057 0.17112 -0.47524 -0.3892 -0.061009 -0.60362 0.4849 0.82905 0.19803 -0.73324 -0.55246 -0.4693 -0.17326 0.25662 -1.0521 -0.3256 0.13647 0.12832 -2.4086 -0.28245 0.71802 0.87841 0.071353 0.53584 0.57417 0.56343 -0.12018 0.50456 -0.61081 0.49771 1.229 0.77136 1.2948 0.74913 0.16564 -0.28906 -0.50207 0.31034 -0.80094 -0.77947 0.21794 -1.0672 -0.22227 0.34507 -0.13336 -0.058961 0.21234 -1.4277 0.074573 -0.31233 -0.00053944 0.15698 -1.0382 0.98328 -0.59559 0.43997 0.55026 0.36462 0.84136 -0.0014328 -0.24872 -0.10055 0.095509
disadvantaged 0.079177 1.0873 -0.39966 0.05117 -0.022971 0.31311 -0.52943 0.53505 0.45366 0.61526 -0.52801 -0.49762 -0.021846 -0.67582 -0.031862 -0.47276 -0.13024 -0.62752 -0.45912 0.85498 -0.30194 -0.36932 1.0078 -0.12154 -0.32333 -0.55698 -0.3365 -0.0941 -1.0648 0.37088 0.26436 0.72744 0.40735 -0.35063 0.13767 -0.16388 -0.18234 0.97362 -0.71307 -0.052043 -0.67952 0.15406 -0.62062 0.40801 -0.2007 -0.19429 0.60904 0.90225 -0.57776 -0.0077808 -1.7448 -0.36635 -0.88742 -0.057472 0.10711 0.053211 0.88402 -0.67861 0.98987 -0.41903 -0.38669 -0.11953 -0.41156 -0.23026 0.42686 -0.17654 0.47853 0.18665 0.79374 -0.30592 0.39008 -0.40188 -0.45633 -0.28275 0.62152 0.41685 -0.2948 0.32559 0.57622 -0.6837 -0.60571 0.71439 -0.49335 0.048868 -1.3003 -0.23357 -0.84126 0.36629 -0.68937 -0.090493 -0.81521 -0.10484 1.1353 -0.67441 -0.43864 0.46664 -0.39647 0.51764 -0.2496 -0.38244
doctor 0.043244 -0.47529 0.15808 0.20413 -0.15383 0.72284 0.26145 0.20892 -0.3147 -0.070307 -0.43367 0.053109 0.73635 0.98111 0.23535 -0.10449 0.50258 -0.033356 -0.35537 0.64549 -0.37103 -0.10052 -0.76929 -0.16957 -0.15648 0.53548 0.35146 -1.5126 0.050984 0.24445 -0.35688 0.43968 -0.62985 0.32891 -0.53009 0.49832 -1.2061 0.27797 0.42734 0.095773 -0.43527 0.93561 0.36039 -0.83114 0.12966 -0.1363 -0.58124 0.092946 -0.014708 0.32562 0.41204 0.1451 0.49803 0.86926 -0.18033 -1.6227 -0.64565 0.17504 0.73849 0.39156 0.83135 0.51308 0.12999 -0.21288 0.68456 0.056297 0.090792 0.28032 -0.12233 0.60761 -0.57913 -0.024127 -0.063252 0.40747 0.10775 0.57977 0.092789 -0.15588 -0.36494 -0.46632 0.37553 0.164 -0.75138 -0.10833 -2.1363 -0.11658 0.23157 0.24425 -0.36352 -0.34928 0.60001 -0.10529 0.78614 0.45707 -0.1712 0.6362 0.68622 -0.28397 -0.29773 -0.81148
dominant -0.07931 0.43624 0.54414 0.30234 -0.026517 0.36516 0.29604 -1.164 0.43006 0.07345 -0.50723 -0.39998 0.47253 -0.36287 -0.40573 -0.32882 -0.10333 -0.54097 0.4655 0.12037 0.34721 -0.23602 0.59353 0.22911 0.4421 -0.94107 0.36342 0.12036 -0.17633 0.5078 0.34801 0.76863 0.42128 -0.8437 0.53109 -0.39098 -0.1602 0.34408 -0.20927 0.062979 0.095054 0.00093995 0.70267 0.052447 -0.024616 -0.0086166 0.99654 0.66363 0.077895 -0.87058 -0.54367 0.38336 -0.13088 0.24066 0.64809 -1.594 -0.3068 0.46518 1.2976 0.41057 0.10085 -0.47099 0.098367 0.11138 0.81663 0.083111 0.15965 -0.33945 -0.024568 0.25868 0.10238 -0.19786 -0.17386 -0.082098 0.33964 -1.0654 -1.104 -0.80078 -0.11931 -0.25679 0.16305 -0.46349 -0.70819 0.46653 -0.55326 0.12565 -0.29152 0.38158 0.31654 -0.036559 -0.21271 -0.049137 -0.36084 0.2742 -0.68664 0.0062237 -0.92369 -0.88599 0.90087 0.61145
driver 0.19709 -0.95311 0.40852 -0.60828 0.15122 -0.21745 0.23696 0.3058 0.45119 0.080392 -0.009942 0.47391 0.25766 -0.28749 0.1225 0.077114 0.029659 -0.43444 -0.39177 0.91087 0.25772 -0.19635 0.36972 -0.18413 0.52198 -0.55703 -0.63733 -0.85541 0.46749 0.0076524 -0.51774 0.84555 -0.38424 0.37388 0.35058 0.18608 -0.42854 0.714 0.91231 1.0334 -0.032209 -0.16095 1.5497 -0.076586 -0.28752 0.45754 0.084744 -0.092367 -0.11741 -0.81125 -0.46551 -0.1139 -0.91966 1.5711 0.85988 -1.114 -1.4337 1.1053 1.678 0.25454 0.49471 0.19384 0.2546 0.49699 0.69419 -0.0781 0.28847 -0.24739 -0.35392 0.37752 -0.89193 -0.039281 0.063337 -0.40609 0.74386 1.1188 1.0727 -0.20979 -0.34805 -1.1894 0.59882 0.07784 -0.80259 -0.2603 -0.52398 -0.52121 -0.24205 -0.62002 -0.34921 -0.58443 -0.15711 0.35348 0.27146 0.0048151 0.069505 0.46178 0.05226 -0.11692 0.64615 -0.82964
duchess 0.16545 -1.4784 0.7123 0.31637 0.25825 0.65383 0.21944 0.52212 0.1707 -0.12465 -0.38301 1.1687 -0.75061 0.75387 -0.31043 -1.1527 0.079936 -0.035462 0.0508 0.38573 -0.64825 0.036998 0.11612 1.2695 0.47219 0.061535 -0.29521 -0.22643 0.22526 0.02907 0.21639 -0.081118 0.64861 -0.64638 0.14919 0.64469 -0.079849 -0.31967 0.0045912 0.1801 0.21169 -0.46315 -0.51782 -0.90748 0.045719 -0.075976 -0.094263 -0.17589 1.2672 0.43953 0.86961 0.3967 0.38607 -0.42515 -0.88867 -1.3315 -0.23231 -0.28138 -1.2563 -0.0093124 0.089356 0.099442 -0.097685 0.77075 0.18222 0.38624 0.33952 0.46385 -0.010651 -0.027686 0.57222 -0.59084 -0.086296 0.12478 0.34296 0.57783 0.31668 -0.24342 0.18308 -0.69889 -0.099511 0.19689 1.5583 0.79933 -0.95985 -0.92605 -0.59353 -0.61735 0.63783 -1.0091 -0.51301 -1.1632 1.2526 0.3839 -0.73967 0.15527 -0.42291 -0.70481 0.020498 -0.4962
duke 0.44425 -1.1978 0.57481 -0.079734 -0.085922 0.72926 0.97657 -0.28399 -1.0979 -0.17447 -0.068471 0.5627 -1.0078 0.42028 -0.30998 -0.7917 -0.019664 -0.32783 -0.82221 0.51209 -0.62921 -0.38115 0.070611 0.92438 -0.058049 -0.41624 -0.30196 -0.32347 0.59422 -0.14544 -0.11844 0.14027 0.63319 -0.074562 -0.43435 0.28606 -0.24182 -0.088348 -0.29051 0.087683 0.23524 -0.031373 -0.20267 -1.0426 -0.58563 -0.21782 0.0022057 0.37762 0.80009 -0.28593 0.49551 -0.23079 -0.016594 -0.70655 0.019871 -1.779 -0.45211 -0.35465 -0.23388 0.15206 -0.048887 0.12931 -0.18978 0.9863 0.5199 0.011977 0.36011 0.79609 0.080947 1.244 0.88362 -0.78995 0.19944 -0.047942 -0.57042 0.15679 0.035711 -0.25688 0.082082 0.24271 0.69736 0.36761 -0.12338 0.42687 -1.1093 0.17396 -0.29238 -1.338 0.81646 -0.77831 -0.42361 -1.1853 0.6923 0.68506 -0.92499 -0.16834 -0.65891 -0.70456 0.22381 -1.0977
dumb 0.38529 0.30176 0.85475 -1.1626 -1.1474 0.067105 -0.96109 0.14797 0.56456 0.64466 0.41848 -0.46205 -0.45097 0.38575 0.81762 0.46367 -0.25404 1.049 0.048512 1.0638 0.52014 0.5927 -0.017955 -1.2989 0.51528 0.36025 -0.52784 0.11318 -0.29822 0.53295 0.02182 0.70973 0.39886 -0.58413 0.35807 0.42982 -0.934 -0.42303 0.81374 -0.17491 0.17419 0.14002 -0.69352 -0.23737 -0.47328 -0.0018878 0.49605 0.37461 -0.73658 -0.21989 -0.67578 0.044542 0.44792 0.33844 -0.87235 -0.50328 0.15578 0.8922 0.33104 -0.81575 0.34759 0.42055 -0.88933 -0.50052 0.22402 -0.55998 0.78297 0.30838 -0.44178 -0.55836 -0.28975 0.040918 0.3969 -0.07428 -0.20599 -0.14366 0.12631 0.31801 0.073182 0.10812 0.22146 0.010157 0.48202 0.014268 -1.6709 -0.21791 -0.16754 -0.089606 -0.56406 -0.43101 -0.42595 0.66967 -0.49166 -0.14555 -0.48298 -0.25259 -0.69867 -0.09002 -0.81533 0.059197
educated -0.2113 0.511 -0.12642 0.50662 -0.7501 0.32534 0.028676 -0.59693 -0.14604 0.628 -0.58945 -0.25432 0.39321 0.39514 0.43233 -1.2159 0.16266 0.043896 -0.40041 0.58692 -0.42679 0.0062612 1.0224 -1.2778 -0.52777 -0.9609 -0.23918 -0.90536 0.093724 0.81309 -0.29443 0.77 0.42756 -0.6726 0.56909 0.26958 -0.85934 0.84235 -0.32828 -0.011658 -1.0617 -0.32483 -0.54959 -0.54009 0.26625 -0.44697 1.1383 0.20202 0.548 0.23107 -0.77627 -0.84663 0.42856 -0.083266 -0.72193 -1.0631 -0.42166 -0.58454 0.29101 -0.90327 0.59626 -0.063154 -0.57288 -0.28061 0.48551 -0.28898 0.18733 0.34249 0.67008 0.64964 0.32278 0.18901 -0.34512 -0.63117 0.034973 -0.23643 0.38903 -0.2595 0.15743 -1.2379 0.58503 0.88432 -0.21286 0.051638 -1.1428 -0.90445 -0.11863 -0.44112 -0.39041 -0.85148 -0.27713 -1.1531 0.79083 0.18518 -1.3416 0.20418 -0.53784 -0.24879 -0.58657 -0.087667
electrician 0.74372 0.17264 0.070032 -0.4585 -0.062349 -0.60327 0.33895 0.033158 -0.0083685 1.2408 -0.72148 0.23448 0.40377 0.070326 0.067564 -0.63858 0.78624 -0.12586 0.11895 0.21378 -0.06343 0.44469 0.33152 -0.2759 0.80461 -0.97078 -0.83898 -0.14049 0.47738 -0.19069 -0.86801 0.37531 -0.18259 0.34381 -0.57104 0.21189 -0.0016587 -0.6056 1.2302 -0.32555 0.019322 0.41296 0.41415 -0.51566 -0.52896 0.38326 -0.33932 -0.33329 -0.18422 0.19032 -0.64777 -0.87928 -0.21596 0.72796 -0.37014 0.7288 -0.93807 0.10313 0.54152 0.29294 0.62949 -0.30638 -0.4134 -0.11695 -0.44839 0.029019 0.59754 -0.18047 -0.048444 0.53601 -0.5141 0.029013 0.011711 -0.51291 0.25274 0.021248 0.69886 0.14329 0.011277 -0.39576 0.23614 -0.039277 0.13343 0.030799 -0.24068 -0.083599 0.49607 0.45501 -0.65325 -0.84739 0.39004 -0.30985 0.60153 0.61808 0.28959 -0.068776 0.1049 -0.21187 -0.59749 -0.78443
elite 0.32865 0.36632 0.73429 -0.16926 -0.44852 0.71498 0.19694 -0.29029 -0.61424 1.258 0.084019 -0.70029 0.2707 -0.44492 -1.1554 -0.0482 0.42061 -0.90603 -0.19131 -0.061935 -0.070715 -0.039132 0.16706 -0.95218 -0.23396 -0.60294 -0.039671 -0.53509 0.67735 -0.17278 0.096006 0.43604 -0.6665 -0.74165 0.90044 0.27529 -0.5887 0.64169 -0.49173 0.46469 -0.29396 0.16398 0.085975 0.099521 0.3282 0.060887 0.33969 1.1515 0.2026 0.1373 -0.7102 -0.47298 -0.34277 0.4667 -0.27971 -1.241 0.013923 -0.068638 1.4328 0.8315 -0.48985 0.25473 0.17457 0.32282 0.25761 -0.098947 -0.61706 -0.28754 0.53693 1.0241 0.54442 -1.066 -0.78088 -0.082772 -0.60554 -0.074365 0.21491 0.0027593 -0.12243 -0.37495 1.0485 0.32714 0.0099903 -0.024759 -0.54229 -0.24739 -0.6356 0.090757 0.40022 -0.31306 -0.37732 -0.20614 0.28131 0.043611 -0.25617 -0.32284 -0.45401 -0.33652 0.23739 0.43118
emotional 0.24675 0.32582 0.039248 0.19869 -0.71304 0.57306 -0.61367 -0.16076 -0.31337 -0.1226 -0.29462 -0.15738 -0.57586 -0.46806 0.79556 0.080609 -0.49498 0.042298 -0.11191 0.44171 0.33949 -0.42795 -0.15886 0.10222 0.39252 0.45005 -0.1841 0.47718 0.49662 0.079164 0.079826 -0.16533 0.031144 0.18872 -0.37658 -0.77574 0.19237 0.81191 -0.3609 0.30263 0.22643 -0.48991 0.39613 -0.46071 -0.79576 0.34017 0.66094 0.32088 0.25996 -0.44394 0.48357 -0.85557 0.71792 0.44385 1.1188 -1.834 0.75927 -0.48205 1.067 0.56187 0.45068 0.97005 -0.42758 -1.0572 0.68574 -0.59978 0.68557 -0.43395 0.056098 -0.5163 -0.37502 -0.03932 0.37592 -0.11952 0.35959 1.1576 -0.00051772 -0.55452 0.1833 0.046133 0.0096608 0.25737 0.37032 0.26715 -1.7531 0.020413 -0.4213 0.60106 -0.67336 -1.1793 -0.059748 0.28571 -0.14536 0.24745 0.55518 0.26711 0.032663 -0.99137 0.35414 0.8029
emperor 0.7575 -0.13287 0.5217 1.2991 -0.16518 1.1799 -0.45735 -0.79198 -0.35277 -0.81676 0.26819 1.061 0.63207 -0.10915 0.4121 -1.4576 0.4565 -0.81838 -1.1573 -0.25996 -0.02946 -0.68898 -0.77833 1.278 -0.25662 0.56954 -0.13088 0.21946 1.0784 0.038234 0.46404 0.33497 0.44194 -0.4332 -0.4112 0.67839 -0.03678 -0.16266 -0.6268 -0.66695 -0.22764 0.50231 0.89474 -1.1341 0.66046 -0.93686 -0.2937 -0.23344 0.74724 -0.17418 0.10537 0.40316 1.1315 0.59375 -0.24064 -1.5688 -0.39137 0.14926 0.054912 -0.17976 -0.15347 0.54264 0.55507 1.2522 0.3822 -0.5333 -0.70869 0.41096 -0.27323 0.19013 0.14471 -1.0896 0.054523 0.090513 -0.60101 0.15456 -1.3422 0.83952 -0.45076 0.26313 0.68505 -0.070829 -0.20023 0.47119 -0.99008 1.0104 -0.73999 -1.1673 0.79968 -0.86605 0.97512 -0.75129 1.0043 0.33486 -0.049213 -1.14 -1.2204 -0.59157 -0.92421 -0.73993
employee 0.7042 -0.35618 -0.15365 0.064703 -0.28758 0.089198 0.032537 0.37733 0.13589 0.74743 -0.049672 0.17065 0.86001 -0.03789 -0.22739 -0.072699 0.48185 -0.027813 -0.27211 0.69731 -0.35021 0.255 -0.5551 0.062331 -0.35775 -0.60901 -0.34353 -0.30371 -0.59121 -0.065227 0.24358 1.438 -0.0072077 -0.14642 -0.12409 -0.026845 -0.34751 0.36483 0.59326 -0.065918 0.48145 -0.10385 0.29641 0.21557 0.27835 0.47382 -0.90423 -0.1478 -0.041515 -0.6791 0.46672 -0.57092 -0.70564 0.88067 0.058935 -0.76241 -0.030137 -0.85763 1.756 0.24152 0.27217 -0.33918 0.02826 -0.11101 0.5155 -0.77025 0.85016 0.052748 0.66267 0.69637 -0.16621 -0.0070306 -0.19467 -0.56722 0.39725 0.34976 0.77686 -0.92081 -0.89905 0.05529 0.28409 0.0049828 0.40638 -0.56297 -1.3164 -0.49039 0.2369 -0.071546 0.15032 -0.2777 0.53822 -0.016022 0.45642 -0.29949 0.34485 0.573 0.73412 0.075176 0.29499 -0.4056
empress 0.4727 -0.71321 0.63584 1.266 0.23291 0.36732 0.024548 -0.01111 0.23736 -0.33434 -0.12019 1.2994 0.55919 0.0010898 -0.63234 -0.90224 0.3912 -0.36115 -0.90876 0.12015 0.14093 -0.52216 -0.4041 1.1613 0.14998 0.83146 -0.63482 -0.28989 0.90105 0.45159 0.39758 0.24443 1.0398 -0.64972 -0.0058544 0.52281 -0.060661 -0.010218 -0.24125 -0.72016 -0.3293 -0.45631 0.22482 -0.90125 1.6337 -0.28198 -0.32586 -0.15068 1.0472 0.53137 0.093724 0.4345 1.4355 0.71812 -0.12281 -0.66833 0.11837 0.24653 -0.8368 -0.095161 -0.59053 0.40419 0.18252 1.2472 -0.59779 -0.039393 -0.39759 0.30518 0.20453 -0.64683 -0.23884 -0.77022 0.26736 0.29195 0.074638 0.28201 -0.38118 -0.25924 -0.092882 -0.13224 0.11005 -0.64114 0.64655 1.083 -0.73479 -0.14959 -0.24266 -0.67603 0.59822 -1.2017 0.84126 -0.73955 0.64076 0.13662 0.10396 -0.58494 -0.84286 -0.77142 -0.19372 -0.37049
engineer -0.22299 -0.50327 -0.1059 -0.12002 0.5725 -1.3863 0.76886 -0.57806 -0.42936 1.1056 0.19968 -0.4566 0.50304 -0.17551 -0.098026 -0.69218 0.81451 -0.36316 -0.61163 0.24944 -0.35084 0.033094 0.74037 -0.73754 -0.42547 -0.66803 -0.42648 -0.1754 0.69981 0.14086 -1.1764 0.85203 -0.63575 -0.17872 -0.3841 -0.2632 -0.49453 0.0015678 1.4436 0.041463 -0.1215 0.1022 0.22932 -0.40678 0.45662 0.24618 -0.45261 -0.31579 -0.15661 -0.18254 -0.43065 -0.33737 -0.079198 0.92812 0.35323 -1.263 -0.82774 -0.0054649 0.94668 0.23276 0.87403 0.16087 0.19137 0.73792 0.15513 -0.21225 0.3676 0.4208 -0.012074 0.86419 -0.23969 0.63741 -0.31752 -0.34015 0.31799 -0.018631 1.0928 0.27653 -0.054411 -0.44682 0.34423 0.075848 -0.22979 0.65667 -1.0455 0.30537 0.51792 -0.71699 -0.29943 -0.73867 0.61258 -0.63905 0.048985 0.3719 0.096472 0.32427 -0.096779 -0.79171 -0.52218 -0.84882
european 0.24396 0.36678 0.86314 0.45141 0.20587 -0.68923 -0.2576 -0.45547 -0.33291 -0.15862 -0.54518 -0.60882 0.0070663 0.27958 -0.61785 0.5848 -0.15059 -0.17247 -0.34905 -0.18371 -0.40502 0.53427 0.34921 0.058903 0.41326 -0.92906 0.13223 -0.8157 0.57647 0.42868 -0.66327 0.29422 -1.2739 -0.53456 0.72108 0.40962 0.64011 0.55254 -0.59317 -0.027819 -0.99293 -0.97677 0.20502 0.39299 0.54574 -0.032457 0.57196 -0.24466 -0.5338 -0.54378 0.14733 0.21309 -0.27531 0.70927 -0.73748 -2.5459 -0.34795 0.66543 1.6242 0.7026 0.50126 0.094261 -0.24796 0.20959 0.48705 -0.083172 -1.48 0.66272 0.62056 -1.2435 0.1774 -0.38935 -0.27859 -0.48018 -0.18214 -0.26843 -0.51435 0.13254 -1.3394 -0.3455 1.1188 -0.20025 0.32842 0.43142 -1.0312 -0.62838 -0.50346 0.26539 0.25668 -0.24869 -0.3257 0.11986 0.029204 -0.072711 -0.20529 0.34099 -0.68059 0.43074 0.94357 0.30018
executive 0.25883 -1.2024 0.18366 -0.89771 0.84779 -0.73698 -0.13852 0.42312 -0.79363 -0.51361 -0.17708 -0.21589 0.69618 -0.17636 -0.50484 -0.98439 0.46485 0.066587 -0.49769 0.144 -0.26272 0.056167 -0.069335 -0.042131 -0.21571 -0.085819 0.44044 -0.20461 -0.44851 0.3873 0.47536 1.0418 -0.58292 -0.75291 -0.96853 0.42661 0.057828 0.84693 0.18121 -0.26077 -0.47715 -0.091385 0.50156 0.34949 0.014621 1.0982 -0.69078 -0.637 -0.23154 -0.55332 -0.08226 -1.0935 -0.59043 0.25268 0.14063 -2.3097 -0.027964 0.4322 1.4527 0.11564 0.48803 -0.18782 0.14642 -0.16346 0.41764 -1.0107 0.4652 1.2802 0.64921 0.29875 0.36552 -0.02774 -0.81886 -0.83064 0.12044 -0.99457 -0.64193 -0.15532 -0.86379 0.081079 0.40759 -0.94623 0.30748 0.14891 -1.0143 -0.47706 -0.09323 -0.28693 0.65813 -0.643 0.83568 -0.31307 0.16753 0.27099 0.37167 0.7113 0.37378 -0.27901 0.40455 0.31519
failure -0.10252 -0.39067 0.46325 0.40571 -0.5581 -0.14585 -0.1766 -0.069877 0.48001 0.15425 -0.060404 0.28709 0.037972 0.11636 -0.68907 0.052688 -0.38153 -0.060216 -0.26584 0.12404 -0.34871 -0.79009 -0.3155 -0.20546 0.096126 0.16123 -0.33062 0.037206 0.77172 -0.36548 0.53985 0.26888 -0.16507 0.23565 -0.53402 0.11284 0.53653 0.00529 -0.10348 0.20953 -0.54537 0.54673 0.043907 -0.62649 0.20709 -0.0088053 0.81558 -0.19275 -0.77618 -0.80582 0.25288 -0.11369 0.036857 0.90066 0.6205 -2.0861 0.084728 -0.2186 1.3847 0.24431 -0.3719 -0.33684 -0.10865 0.013542 0.38907 0.045796 -0.22704 -0.13491 -0.16804 -0.64932 -0.7231 0.10217 -0.72564 0.020312 0.27183 -0.29261 0.0013988 0.52145 -0.82497 0.22068 0.9619 0.45856 -0.40431 0.31807 -1.7068 -0.13574 0.42161 0.089992 -0.77498 -0.030174 -0.26795 0.28847 -0.36684 0.82947 0.018509 0.45963 0.22793 -0.5185 0.57693 -0.67523
farmer -0.06137 0.43443 -0.451 -0.54168 0.073465 -0.12007 0.64377 -0.40332 0.086593 -0.21649 -1.1839 0.11052 0.67616 -0.42874 0.0045099 0.23073 0.41055 -0.30436 -0.32522 0.73408 0.22787 0.91288 0.83448 -0.31815 -0.018076 0.36031 -0.70602 -0.85381 -0.12272 0.98886 -0.53869 0.94004 1.0381 -0.56878 -0.23591 -0.19417 -0.18759 0.060568 0.76199 -0.30488 -0.24438 -0.41782 0.2895 -0.2454 0.10174 -0.25291 -0.6715 -0.59989 0.010883 -0.37492 -0.78449 -0.67269 0.55406 0.60736 -0.093594 -0.22016 -0.96023 0.048181 0.86521 0.28841 1.1053 -0.11588 -0.003875 0.15878 1.1309 -0.28717 0.65569 0.17888 0.18544 0.070193 -0.14447 0.57613 -0.30835 -0.31855 0.20315 0.39133 0.3046 -0.20301 -0.66768 0.24526 0.40358 0.72153 -0.43738 -0.33863 -0.28185 -0.35128 -0.39989 -0.52022 0.15336 -0.20988 0.83804 -0.3213 0.071468 0.081422 -0.96464 -0.071194 0.038972 -0.26264 0.13585 -1.0176
father 0.64706 -0.068067 0.15468 -0.17408 -0.29134 0.76999 -0.3192 -0.25663 -0.25082 -0.036737 -0.25509 0.29636 0.5776 0.49641 0.19167 -0.83888 0.58482 -0.38717 -0.71591 0.9519 -0.37966 -0.1131 0.47154 0.20921 0.38197 0.067582 -0.92879 -1.1237 0.84831 0.68744 -0.15472 0.92714 0.53371 -0.037392 -0.856 0.19056 -0.014594 0.15186 0.53514 -0.20306 -0.35164 0.33152 1.1306 -0.72787 -0.19724 0.031659 -0.24041 -0.057617 0.60473 -0.49233 -0.24405 -0.3184 0.96156 1.0895 0.21534 -2.0542 -1.0615 0.052439 0.57958 0.2748 0.91587 0.85195 0.36113 -0.31901 0.7784 -0.36865 0.64387 0.33104 -0.27181 0.58524 -0.15143 0.11121 0.2126 -0.60345 0.16148 0.32952 -0.1354 -0.30629 -0.89143 0.091912 0.49753 0.55932 0.19329 0.044859 -1.0416 -0.41566 -0.54174 -0.7244 -0.57492 -1.1188 0.087097 -0.2992 0.87227 0.86996 -0.89641 -0.28259 -0.47295 -0.74062 -0.39 -0.78099
female 0.70308 0.67371 0.83253 -0.011226 -0.097107 0.90126 0.015445 -0.67549 -0.12951 0.54509 -0.43415 -0.32021 0.91342 0.74005 0.5679 -0.2022 0.23248 -0.18353 -0.10768 0.53876 -0.014373 -0.90954 -0.23097 0.20955 0.28196 -0.24516 0.079898 -0.90143 0.44838 0.35642 0.25851 0.39324 0.58441 -0.22605 0.59026 -0.23919 -0.42504 0.84079 0.077373 0.65766 -0.61337 0.20891 -0.32475 0.47913 0.58351 0.069989 -0.32622 -0.12992 -0.49754 -0.423 -0.92802 -1.1388 0.13828 1.276 0.068522 -1.4455 -0.72972 -0.5533 1.0104 0.22003 0.01225 0.43355 0.4092 0.33979 1.0977 0.44081 0.45498 -0.074074 0.48051 0.29659 -0.06422 -0.16163 -0.24508 0.61265 0.25226 0.41295 -0.27038 -0.51312 0.029435 -1.2627 -0.21879 -0.17058 0.84574 0.18947 -1.6623 -0.94154 0.53927 0.62998 0.89624 -0.47037 0.37528 -0.10273 0.31541 -0.15673 -0.075267 -0.3119 -1.9903 -0.38094 0.86544 0.027843
feminine 0.31623 0.73879 0.57379 0.71735 -0.61599 0.84881 -0.095196 -0.68482 0.62783 0.44884 -0.80417 -0.70982 0.83854 0.83475 0.62382 0.16153 0.21334 0.12832 0.44678 -0.034775 0.72742 -0.54745 -0.33999 0.53194 -0.31155 0.24205 -0.21185 -1.3567 -0.19613 -0.34344 -0.19519 0.010157 -0.72037 -1.0249 0.77502 0.14968 -0.095083 0.43902 -0.24403 -0.12391 0.97836 -0.65052 0.08288 -0.35762 -0.49291 0.32503 0.30173 0.57169 0.0043456 0.37807 0.72582 0.56431 0.48759 0.30244 -0.3289 -0.6 0.78938 0.6863 -0.26392 -0.30425 0.69183 0.3791 -1.1662 0.22226 0.21956 -0.27866 0.53467 -0.86409 -0.18276 -0.84082 -0.14151 -0.04596 -0.5674 -0.23207 0.83741 0.52215 -0.74229 -0.15155 -0.035294 -1.1028 -1.3956 -0.68321 0.52083 0.21849 -1.135 -0.16627 -0.037392 0.2019 0.65306 -0.63854 -0.26036 0.26545 0.68788 0.1002 0.086371 -0.15399 -1.5947 -1.0621 0.065688 0.86668
firefighter 0.58716 0.58994 -0.33146 -0.95094 -0.25269 0.41928 0.28439 0.086046 -0.010005 0.65683 -0.30155 -0.072045 0.3582 -0.2619 -0.12752 -0.7654 0.6681 -0.25628 -0.35094 0.27302 -0.22928 -0.028469 -0.26803 0.22247 0.36967 -0.026855 -0.65176 -0.46395 -0.20471 -0.11526 -0.14913 -0.44006 -0.13477 0.41641 -0.49707 -0.40686 -0.89774 -0.24605 1.6193 0.62667 0.22486 0.56921 0.64317 -0.23337 0.22714 0.81451 -0.7444 -0.048627 -0.09548 -0.20137 -0.19986 -0.56608 -0.66632 0.70876 0.5078 -0.14187 0.078368 0.1059 0.25328 0.94229 0.52881 0.4618 -0.20249 0.087409 -0.14059 -0.32684 0.19194 0.13401 0.54436 0.60958 -0.33467 -0.16487 -0.015955 0.054485 1.1286 -0.068774 0.52662 -0.062515 -0.19771 -0.3586 -0.17159 0.096716 0.50006 0.039069 -0.16656 -0.49697 -0.33183 0.23028 -0.26916 -0.15312 0.90237 -0.62049 0.087093 0.21181 -0.09591 0.34881 0.73488 0.11533 -0.40959 -0.71354
follower 0.33349 -0.040472 -0.34472 0.05135 0.18138 0.90898 0.606 -1.1511 0.10801 0.27295 -0.11799 -0.12847 0.62001 0.0052202 0.32787 -0.36188 0.10374 -0.38154 -0.11312 0.45273 0.43512 -0.13139 -0.57116 -0.27749 0.58746 0.34 -0.20932 -0.41829 0.22254 0.66621 -0.14922 0.1413 0.1266 0.37474 -0.063291 0.21368 -0.1603 0.30613 0.41124 -0.49239 -0.61067 0.78036 1.4402 -0.46055 -0.33584 -0.46346 0.036884 -0.0049486 0.39867 -0.35555 0.36784 -0.20976 0.54666 0.41313 -0.56984 0.21012 -0.81815 0.16778 0.21617 -0.20934 0.26107 -0.31295 -0.02092 0.45859 0.441 0.093013 0.31822 -0.11168 0.5772 0.25252 0.53549 -0.24607 0.25223 -0.2602 -0.86676 -0.6373 0.80244 -0.99371 0.72534 -0.26803 -0.11607 0.38492 -0.46805 -0.030807 -0.39145 0.087935 -0.073905 0.44928 -0.0068779 -0.25576 -0.088147 0.20112 0.48402 0.38391 0.32202 -0.99663 -0.16756 -0.87787 0.11162 0.083766
foolish 0.090923 -0.30947 0.58838 -0.58389 -0.88816 0.52165 -0.41274 -0.14567 0.35159 0.14663 0.22294 0.61106 -0.3025 -0.51032 -0.012054 0.34522 -0.58883 0.55776 -0.050838 0.86926 0.73391 0.34545 -0.72557 -0.64521 -0.13835 0.75051 -0.50067 -0.053391 -0.055853 -0.058527 -0.045159 0.61983 -0.12318 -0.77571 0.052973 0.50492 -1.1842 -0.093196 0.39974 -0.54929 -0.25975 0.45758 -0.3196 -0.59756 -0.41735 -0.44804 0.74528 0.10611 -0.98584 -0.42529 0.26448 -0.26853 0.39561 0.32437 -0.55603 -0.55228 0.80744 0.082468 -0.25627 -0.71112 -0.036264 0.050894 -0.84751 0.29467 0.051165 -0.29145 0.3976 0.36951 -0.40629 -0.91378 0.1228 -0.71465 -0.18413 -0.12879 -0.35901 0.08183 -0.085408 0.48478 -0.041613 -0.12325 0.27579 0.42732 0.19495 0.5567 -0.94705 -0.37892 -0.22299 0.13288 -0.19385 -0.72267 -0.69976 -0.11176 -0.2032 -0.39908 -0.63518 -0.13163 -0.60241 -0.38277 -0.57942 0.17573
gentle -0.41625 0.16585 0.16752 0.15496 -0.15376 0.93228 -0.24588 0.11355 -1.1168 -0.35081 -0.36897 -0.15798 0.19976 -0.41059 0.8911 0.21675 -0.80761 -0.44923 0.14528 0.76347 0.35431 0.40578 -0.32231 -0.45182 0.41461 1.2348 -1.2236 0.0064841 -0.19096 -0.14363 -0.53555 -0.17572 -0.0027602 -0.17832 -0.041938 0.421 0.12355 -0.24571 0.55279 -0.28563 -0.41416 -0.42629 -0.3177 -0.18161 -0.25568 0.43721 0.28622 0.49424 0.79444 -0.40442 -0.21158 -0.38965 0.92014 0.50637 0.40755 -1.189 0.44687 0.05217 0.3313 -0.58972 1.1147 0.3684 -0.626 -0.15315 0.5668 0.0034147 0.78709 -0.13599 0.15071 -0.88643 -0.32989 0.48691 0.28322 -0.1862 -0.0019312 0.25617 -0.06624 -0.069011 0.85476 -0.40611 0.23114 0.3838 -0.27075 0.31562 -0.78285 -0.017117 0.45993 0.34756 0.35351 -0.49386 0.12884 -0.017086 -0.24586 0.13864 -0.11949 0.072754 -0.97075 -0.96386 -0.25892 0.69164
gentleman 0.35198 0.040183 0.82932 0.12876 -0.34176 0.75291 0.74896 -0.20581 -0.57781 -0.067851 -0.60967 -0.28455 0.46512 0.067227 -0.4012 -0.056235 0.71928 -0.019096 -0.17283 0.7142 -0.020127 -0.058745 -0.46976 -1.2528 0.75671 0.22363 -0.71844 -0.65036 0.21975 -0.41983 -0.14677 0.0063217 0.5708 -0.55171 0.66564 0.84871 -0.94287 -0.20352 1.0484 -0.19394 -0.22107 0.50274 0.35441 0.25607 0.018971 -0.20205 -0.11127 0.25897 0.11429 -0.21149 -0.4685 0.073016 0.6969 0.11072 -0.55421 -0.39033 -0.33222 -0.069382 0.23524 0.29556 0.39255 -0.16969 -1.4032 -0.18771 0.57622 -0.46508 0.66644 0.1675 0.34391 -0.20318 0.1121 0.056749 0.51874 -0.63278 0.26822 0.1242 0.43199 -0.40367 0.00089084 -0.79421 0.1979 0.018458 0.59518 -0.06154 -0.26292 -0.44055 -0.49073 -0.48258 0.02164 -0.72166 0.28772 -0.46481 0.28379 -0.037039 0.11236 0.085985 -0.19831 -0.57308 -0.55355 -0.2885
girl 0.74582 0.19531 0.46831 -0.10277 -0.29927 0.99653 0.1394 0.64173 0.33129 0.35322 -0.30205 0.34699 0.53364 0.62235 0.43555 0.54403 0.39656 -0.31789 -0.20172 0.99636 0.0018479 -0.14826 -0.0041845 0.24953 0.30177 1.0043 -0.44867 -1.2911 -0.12741 0.90103 0.1187 0.27229 0.97697 0.01952 0.40453 -0.61585 -0.50483 -0.031174 0.70384 -0.46058 -0.43899 0.42115 -0.17343 -0.41879 0.007456 0.26609 -0.78183 0.45464 0.90846 -0.13126 -0.48101 -0.24726 0.29251 1.4122 0.025368 -1.9882 -0.53257 0.13427 0.88987 0.67416 0.73902 1.0998 -0.76633 -0.00084833 0.50982 0.19587 0.71845 0.25045 -0.29609 0.19005 0.19021 -0.21668 -0.25819 0.45417 0.15185 1.35 0.32284 -0.23826 -0.69976 -0.98157 -0.39336 0.52666 0.60127 -0.1752 -1.0014 -1.049 -0.40113 -0.1993 0.034218 -0.17069 0.11801 0.29238 0.44989 -0.21155 -0.51509 0.11215 -0.95016 -0.19681 -0.14621 -0.30505
grandfather 0.58659 -0.13565 0.2063 -0.017878 -0.38333 0.25867 -0.22189 -0.56073 -0.57406 -0.26693 -0.086736 0.07368 0.36153 0.27889 0.22348 -0.56808 0.49323 -0.32733 -0.91718 0.17705 -0.22084 0.44261 0.31675 -0.015603 0.40977 -0.28191 -1.2334 -0.76457 0.57385 0.25491 -0.018889 0.83983 0.62559 -0.10085 -0.59094 0.1192 -0.022312 0.11112 0.68996 -0.10629 0.091324 0.16925 0.97093 -0.61076 0.12601 -0.11599 0.085032 0.11811 0.35651 -0.30924 -0.191 -0.17751 0.84817 0.49019 -0.057415 -0.87278 -0.91826 0.12534 -0.14516 -0.13923 0.99006 0.89652 0.71376 -0.069628 0.63374 -0.13705 0.23755 0.10499 0.0084796 0.18773 -0.080223 0.30143 0.43297 -0.49765 -0.090092 0.36753 -0.16147 -0.28677 -0.48733 0.17383 0.14225 0.40244 0.33684 -0.14986 -0.67901 -0.098542 -0.6203 -0.99652 -0.26174 -0.82504 0.10984 -0.2886 0.99556 0.58243 -0.95896 -0.51447 -0.31835 -0.84995 -0.21305 -0.48361
grandmother 0.35345 -0.0042798 0.42547 -0.013786 -0.43565 0.92523 -0.23335 0.10234 -0.075277 -0.018877 -0.27733 0.28568 0.017918 0.63957 0.0030259 -0.14413 0.32805 -0.15692 -0.65156 0.63897 -0.52387 0.60763 0.1149 0.49961 0.3423 0.34046 -1.0176 -1.2635 0.11026 0.3716 0.1276 0.56204 1.2866 0.21504 -0.38418 0.45399 0.052383 -0.0043962 0.74982 -0.03357 -0.10547 -0.1726 0.40447 -0.42476 0.14277 0.1799 -0.34586 0.1153 0.6695 -0.41873 0.05062 -0.13891 1.067 0.54075 -0.17584 -0.86154 -0.76459 0.16247 -0.25107 0.2703 0.74155 1.1436 0.32528 -0.30688 0.083218 0.17887 0.17602 0.0086508 -0.35182 -0.19031 -0.22193 0.24814 0.32397 -0.14269 0.40024 1.0495 -0.13816 -0.42137 -0.24281 -0.069278 -0.31079 0.37769 0.59033 0.091606 -1.0631 -0.23666 -0.19942 -0.28059 -0.55954 -0.57626 0.29819 -0.12497 1.0903 0.28477 -1.0642 -0.52802 -0.27874 -0.63744 -0.25316 -0.17208
he 0.1225 -0.058833 0.23658 -0.28877 -0.028181 0.31524 0.070229 0.16447 -0.027623 0.25214 0.21174 -0.059674 0.36133 0.13607 0.18755 -0.1487 0.31315 0.13368 -0.59703 -0.030161 0.080656 0.26162 -0.055924 -0.35351 0.34722 -0.0055801 -0.57935 -0.88007 0.42931 -0.15695 -0.51256 1.2684 -0.25228 0.35265 -0.46419 0.55648 -0.57556 0.32574 -0.21893 -0.13178 -1.1027 -0.039591 0.89643 -0.9845 -0.47393 -0.12855 0.63506 -0.94888 0.40088 -0.77542 -0.35153 -0.27788 0.68747 1.458 -0.38474 -2.8937 -0.29523 -0.38836 0.94881 1.3891 0.054591 0.70486 -0.65699 0.075648 0.7655 -0.63365 0.86556 0.42441 0.14796 0.4156 0.29354 -0.51295 0.19635 -0.45568 0.0080246 0.14528 -0.15395 0.11406 -1.2167 -0.1111 0.8264 0.21738 -0.63776 -0.074874 -1.713 -0.8827 -0.0073058 -0.37623 -0.50209 -0.58844 -0.24943 -1.0425 0.27678 0.64142 -0.64605 0.43559 -0.37276 -0.0032068 0.18744 0.30702
her 0.3339 -0.52136 0.26848 0.17416 0.15808 0.95567 -0.39404 0.75332 -0.12433 0.64539 -0.12848 0.61024 0.14794 0.56136 -0.11478 -0.23334 0.24459 -0.030026 -0.10939 0.41958 -0.1799 -0.46465 0.46621 0.886 0.83695 0.76019 -0.66037 -1.6917 0.75998 -0.044161 0.078069 0.6895 0.65059 0.2584 -0.63663 0.33152 -0.22198 0.12196 -0.11606 0.23557 -0.51854 -0.1345 0.46457 -0.36864 -0.10744 0.14728 -0.36792 -0.13907 0.77072 -0.47685 -0.031725 0.060066 0.90913 1.6532 0.04431 -3.1636 0.3388 -0.43464 1.1445 0.26247 0.45218 1.5068 0.21069 0.48721 0.49486 -0.070552 1.0531 0.51535 0.19231 0.20466 -0.41545 0.63548 0.077074 -0.42075 0.36767 0.93886 -0.59122 -0.70948 -0.87497 -0.39823 0.2408 0.69948 0.39934 0.29582 -1.803 -1.2961 0.072491 0.27994 -0.79536 -0.62887 0.078952 0.013955 1.1702 0.45136 -0.4172 -0.3487 -0.803 -0.31398 0.31908 0.62061
herself -0.20269 -0.3322 0.027878 0.37085 0.67243 0.97237 -0.23353 0.012146 0.50433 -0.16718 -0.28783 0.58467 -0.38101 0.54055 -0.024812 -0.3592 0.17856 0.40775 -0.37107 0.49128 -0.20026 -0.53978 -0.077702 0.25304 0.074267 0.12839 -0.98998 -1.0913 0.41166 0.39978 -0.055077 0.64068 0.38962 -0.28575 0.19652 0.033457 -0.41012 -0.074995 -0.12709 0.13583 -0.90677 0.34781 0.38977 -0.081727 -0.029453 0.017987 -0.5632 0.56755 0.11528 -0.57487 0.062298 -0.088362 1.0952 1.5992 -0.44501 -2.3009 0.11948 -0.041914 0.60789 0.25628 0.61787 0.91085 -0.27124 0.43103 0.18785 0.13584 1.3117 0.10048 -0.23188 0.56028 0.077665 0.50263 -0.14895 0.47924 0.75672 0.40949 -0.11701 -0.65375 0.085077 -0.49803 -0.44179 0.13854 -0.043425 0.31486 -1.117 -0.9206 -0.16731 0.57544 -0.8956 -0.5552 0.11518 -0.23206 1.2275 -0.25944 -0.11676 -0.06847 -0.4944 0.10937 0.18666 0.26214
himself -0.30398 -0.48133 0.11179 -0.0012837 0.71122 0.91738 -0.0065331 -0.58696 -0.098113 -0.060588 -0.26867 0.47143 -0.23474 0.079188 0.18106 -0.28279 0.25927 0.35813 -0.42527 0.046315 0.15887 -0.50936 -0.19996 -0.45869 -0.064749 -0.36728 -1.1228 -0.4341 0.61266 0.50911 0.093852 0.75913 -0.36299 -0.16578 0.024537 0.48921 -0.63951 0.07664 -0.48186 0.17474 -0.98399 0.37411 1.1837 -0.48808 -0.2997 -0.20781 -0.2151 0.1207 -0.029728 -0.66637 -0.20272 -0.042944 0.85718 1.5444 -0.51254 -2.566 -0.18032 -0.1309 0.83482 0.48934 0.62845 0.9999 -0.30446 0.26078 0.55136 -0.4058 1.4097 0.23612 -0.54337 0.902 0.10213 0.13728 0.029283 -0.16723 0.49077 -0.3514 -0.1641 -0.22514 -0.24231 -0.0039532 0.42719 0.12365 -0.54701 -0.02927 -1.0314 -0.35756 -0.47301 0.086642 -0.65133 -0.6 0.074826 -0.56729 0.69636 0.088946 -0.27698 -0.37188 -0.22646 -0.0056062 0.092441 -0.18814
his 0.12883 -0.82209 0.27438 -0.069014 0.17989 0.72605 -0.15112 0.0085541 -0.95122 0.77243 -0.28375 0.28329 0.14825 -0.01223 -0.019267 -0.03446 0.31506 -0.16639 -0.013435 -0.0020459 0.064905 -0.20989 0.12524 0.3523 0.6404 0.05957 -0.80302 -0.81648 0.66134 0.05997 -0.061521 0.84922 -0.028733 0.2767 -1.0068 0.71758 -0.37257 0.43064 -0.49244 0.38683 -0.36828 0.027982 1.5346 -0.60533 -0.34449 -0.17069 0.29288 -0.53581 0.56035 -0.63013 -0.12308 0.093633 0.59336 1.5214 -0.092629 -3.1408 0.13931 -0.5382 1.1736 0.62318 0.43621 1.2856 0.12121 0.46206 0.56142 -0.41439 0.9436 0.38954 -0.053156 0.18622 -0.18785 0.37603 0.13878 -1.2881 0.18534 0.35157 -0.80888 -0.067662 -1.1934 0.20095 0.96297 0.92074 -0.030933 -0.11743 -1.521 -0.77539 -0.091178 -0.12774 -0.63958 -0.68099 -0.16037 -0.21732 0.57088 0.86688 -0.67851 -0.60641 -0.68927 -0.33961 0.42743 0.16575
hispanic 0.69664 0.87184 0.31819 -0.53044 0.21568 0.63725 0.090424 -0.21667 0.5013 0.95325 -0.95637 -0.95121 -0.19401 -0.73992 0.41061 -0.51658 0.13841 0.023667 0.19657 0.69367 0.1765 -0.18951 0.14643 -0.27176 -0.44119 -0.69291 0.92631 -0.80708 0.14651 -0.13468 0.48136 0.091368 0.37882 0.41541 0.36951 -0.28953 0.0056433 0.96425 0.72454 1.4462 -1.1252 -1.1293 -0.69427 0.16505 -0.13276 -0.8832 0.19513 -0.15424 -0.8503 -0.56715 -1.3554 -0.6264 -0.2145 -0.22657 -0.54056 -0.76576 -0.36827 -0.23068 1.8543 0.55042 -0.64671 0.1012 0.92026 -0.92387 0.3883 -0.25281 0.32291 0.019568 1.0823 0.28645 0.36118 0.79678 -0.53671 -0.074335 0.092638 -0.063925 -0.865 -0.13979 -0.50788 -0.95129 -0.84545 -0.42903 0.014213 0.37727 -0.66887 -1.4062 -0.53233 0.061974 -0.046208 -1.0862 -0.12383 0.15849 0.063038 -0.36394 -0.7543 -0.46472 -0.62042 -0.15557 0.4383 0.38752
housekeeper 0.15712 -0.43731 -0.090892 0.02263 -0.57782 0.86878 -0.021759 0.60581 0.43222 0.27601 -0.18631 -0.0087452 0.0098509 0.69288 -0.1238 -0.26105 0.35439 -0.043646 0.05533 0.63908 -0.27225 0.28617 -0.051246 0.14259 0.39415 -0.35173 -0.60522 -0.72377 -0.86324 -0.16876 0.11418 0.2581 0.69662 0.0076883 -0.48554 0.50238 -0.2776 -0.036423 1.3747 -0.48251 -0.43645 0.02898 0.20686 0.026249 0.23539 0.31767 -0.85497 -0.14658 0.4581 0.18236 -0.34333 -0.38832 0.25743 0.96615 -0.1346 0.22971 -0.40704 -0.29915 -0.41187 -0.013182 -0.014861 0.019276 -0.1684 -0.4489 0.3675 -0.31224 0.33893 -0.27208 0.40649 0.10606 -0.21084 0.25777 0.087582 -0.086343 0.26957 0.14265 -0.027058 -0.20647 0.098047 0.039907 0.021015 0.066876 0.72692 -0.23899 -0.50324 -0.67624 0.20568 0.77235 -0.61881 -1.2314 0.40213 -0.020898 0.99458 -0.01459 0.27951 -0.23007 -0.089245 0.11284 -0.30565 -0.1954
husband 0.61534 0.27597 0.2928 -0.25064 -0.10556 0.90526 -0.14157 0.16483 0.058663 0.26647 0.1461 0.82343 0.17578 0.49482 0.56132 -0.76128 0.27528 -0.49246 -0.71117 1.104 -0.2605 -0.092159 0.33057 0.498 0.35827 0.12743 -0.64898 -0.88145 0.53048 -0.051134 0.31993 0.93357 1.0704 -0.045996 -0.47942 0.48067 0.4556 -0.077096 0.47297 0.12609 -0.32604 0.19715 0.70646 -0.21928 -0.067372 0.10984 -0.8057 -0.38275 0.30998 -0.90255 0.20617 -0.42299 0.95084 1.1129 0.42489 -1.9632 -0.70199 0.031913 0.38143 0.14253 0.53979 0.5227 0.22268 -0.2085 0.5832 -0.094776 0.9591 0.39932 0.02477 0.68839 -0.44054 0.24964 -0.17609 -0.24149 0.10033 0.38668 -0.16783 -0.35319 -0.50902 -0.084276 0.020392 0.82435 0.80363 0.34955 -0.97259 -0.61299 0.026339 0.32263 -0.41726 -1.3664 0.48827 -0.51077 1.0426 0.084176 -0.30587 0.13859 -0.29958 -0.13959 -0.095047 -0.74174
immigrant 0.76781 0.79448 -0.37988 -0.31404 0.050484 0.48824 -0.49398 -0.63147 0.2993 0.78937 -1.7377 -0.26146 -0.37629 -0.11735 0.30865 0.10778 0.21921 -0.69434 -0.47222 0.5025 0.41987 0.33482 0.7571 -0.16157 -0.14256 -0.98692 -0.00055228 -1.2083 -0.087457 -0.22734 -0.18518 0.67549 0.52611 0.13459 0.22863 -0.90135 0.15605 0.34722 0.9741 -0.0081814 -0.92354 -0.71021 0.11298 0.13303 0.73337 -0.79306 0.02618 -0.049566 0.30699 0.70027 -0.52755 -0.12959 -0.14406 0.66153 -0.46325 -0.4002 -0.4232 -0.14094 1.6334 0.19324 0.19481 0.021847 0.40342 -1.0408 0.74292 0.27392 -0.057084 -0.17309 0.14162 -0.17704 -0.28345 -0.35264 -0.3076 -0.34074 0.30894 0.40546 -0.035726 -0.2997 -0.47044 -0.28777 0.11479 0.26631 0.23492 0.076166 -0.98309 -0.84602 -0.27445 -0.31849 -0.7513 -1.0411 -0.057705 -0.20492 0.45168 -0.22038 -0.028183 -0.035927 -0.44314 0.4524 0.066931 -0.51359
independent -0.46751 -0.35427 -0.27284 -0.19159 0.84102 0.40932 -0.014893 0.081708 -0.044912 0.17738 0.079435 -0.50251 0.8546 -0.00079281 -0.82482 -0.2277 0.57807 -0.17076 0.017914 0.41618 0.41419 0.26983 0.33931 -0.62045 -0.36878 -0.54935 0.62956 -0.063186 -0.031515 0.67362 0.49859 0.14029 -0.34127 -0.24125 0.40269 -0.32853 0.20278 0.33372 0.0098322 -0.75025 -0.77072 0.40641 -0.3359 -0.20349 -0.18259 -0.98226 0.23513 -0.4702 -0.23331 0.01445 -0.27923 -0.069808 0.082378 0.21787 -0.075153 -2.2429 0.41854 -0.0081947 2.1611 0.084613 0.15689 -0.40272 0.12245 0.63039 1.5865 -0.13239 0.10086 0.66435 0.379 0.61886 0.68438 0.62419 -0.050779 -0.08128 0.4322 -0.67992 -0.35093 -0.374 -1.3211 -1.1299 0.37683 0.17651 0.096381 0.26409 -0.73196 -0.18146 0.081368 0.67591 0.32183 -0.86594 -0.10406 -0.11881 -0.69465 0.1641 -0.83342 0.56871 0.15738 0.099042 0.3703 0.080948
intelligence -0.31101 -0.43291 0.77734 -0.31115 0.052934 -0.8502 -0.35372 -0.70531 0.084464 0.88768 0.83527 -0.41641 0.36703 0.60834 0.0085214 0.94293 0.5314 -0.75322 -0.86764 0.34833 -0.29865 -0.43442 0.3514 -1.1228 -1.2564 -0.094171 0.29402 0.31994 0.086692 0.31915 0.56067 0.032952 -0.94379 -0.58112 0.11274 0.006062 -0.79353 0.70368 0.59687 0.60501 -0.22855 -0.26469 0.045172 0.58118 0.26756 -0.47237 0.29358 -0.28342 -0.22823 -0.59532 1.0845 0.21541 0.5789 1.5825 0.15322 -1.3246 0.42594 -0.24834 1.3285 0.48737 0.17115 0.73042 0.51749 -0.50172 0.23246 -0.33179 -0.31772 0.34714 0.95887 1.5972 0.76459 -0.1559 -0.13554 -0.97654 -0.29545 0.097254 -0.17109 0.17695 -1.1941 0.41086 1.0578 0.55551 0.034317 -0.18596 -1.7366 0.22696 1.0213 0.80212 -0.017432 -0.45574 -0.11358 0.032074 -0.37083 0.22161 -0.0030162 0.23286 0.16984 -1.0727 -0.18416 0.45819
intuitive 0.015525 -0.053692 0.31797 0.3753 -0.17191 0.52371 0.25097 -0.74554 0.51615 0.11208 0.038073 -0.68002 -0.068589 -1.0745 1.4811 0.48881 -0.52365 0.72614 0.2485 0.29095 -0.045755 -0.051566 0.31192 -0.73281 0.45721 0.33137 0.1769 -0.065227 -0.27596 -0.72085 -0.48823 0.5229 -0.38537 -0.61809 0.57059 0.22547 -0.49849 0.50887 0.53533 -0.73887 0.56247 0.33435 0.46513 -0.48275 -0.71802 0.18136 0.14206 0.078052 0.21338 -0.13862 0.14546 0.23612 0.29953 0.065182 -0.0062989 -0.31847 1.1195 -0.23779 0.42174 -0.66085 0.4088 -0.13714 -0.0041611 0.34783 -0.24861 -0.60303 0.051001 -0.24267 0.16279 -0.40216 -0.13729 0.25129 0.52455 -0.1922 -0.050905 -0.2941 -0.4962 -0.091312 -0.11726 -0.82764 -0.25492 0.1178 -0.58287 0.21182 -1.1567 0.61969 0.60614 0.71963 -0.91368 -0.46219 0.4494 0.41537 0.022475 -0.12943 0.34282 0.22956 -0.71064 -1.8746 -0.33736 0.79355
janitor 0.74285 0.18939 -0.12353 -0.27836 -0.39595 0.47013 -0.088156 0.36265 0.12224 0.77857 -0.21251 -0.18288 0.35366 0.46594 -0.010906 -0.028632 0.45889 -0.011175 -0.086621 0.20389 -0.43445 0.28763 -0.30846 -0.28931 0.37826 -0.73883 -0.8526 -0.22812 -0.65449 0.24866 -0.50173 0.32605 0.020705 0.34552 -0.61479 0.17339 -0.75115 -0.36876 1.2074 -0.41374 0.098859 0.4385 0.12491 0.12539 -0.27818 0.54048 -0.44171 0.14281 0.12635 0.14582 -0.48863 -0.68413 -0.087249 0.74604 -0.48633 -0.056063 -0.29488 -0.10323 -0.2143 0.13953 0.20493 -0.024749 0.012518 0.074413 -0.15993 -0.093822 0.80501 -0.25757 0.36868 0.67651 -0.22553 -0.23391 0.12568 -0.027488 -0.073425 0.23153 0.18209 -0.23548 0.20821 -0.3399 -0.2728 0.08305 -0.28591 -0.32972 -0.15741 -0.10367 0.41279 0.34576 -0.59605 -0.44358 0.69937 -0.1672 0.49626 0.27567 0.040161 -0.17885 0.61992 0.18937 -0.34001 -0.40985
king -0.32307 -0.87616 0.21977 0.25268 0.22976 0.7388 -0.37954 -0.35307 -0.84369 -1.1113 -0.30266 0.33178 -0.25113 0.30448 -0.077491 -0.89815 0.092496 -1.1407 -0.58324 0.66869 -0.23122 -0.95855 0.28262 -0.078848 0.75315 0.26584 0.3422 -0.33949 0.95608 0.065641 0.45747 0.39835 0.57965 0.39267 -0.21851 0.58795 -0.55999 0.63368 -0.043983 -0.68731 -0.37841 0.38026 0.61641 -0.88269 -0.12346 -0.37928 -0.38318 0.23868 0.6685 -0.43321 -0.11065 0.081723 1.1569 0.78958 -0.21223 -2.3211 -0.67806 0.44561 0.65707 0.1045 0.46217 0.19912 0.25802 0.057194 0.53443 -0.43133 -0.34311 0.59789 -0.58417 0.068995 0.23944 -0.85181 0.30379 -0.34177 -0.25746 -0.031101 -0.16285 0.45169 -0.91627 0.64521 0.73281 -0.22752 0.30226 0.044801 -0.83741 0.55006 -0.52506 -1.7357 0.4751 -0.70487 0.056939 -0.7132 0.089623 0.41394 -1.3363 -0.61915 -0.33089 -0.52881 0.16483 -0.98878
lady 0.033642 -0.1903 0.52181 0.020304 0.088012 0.83019 0.20025 -0.13999 -0.21003 -0.82388 -0.20658 0.00018343 0.31272 0.98086 -0.60286 -0.38818 0.4368 0.21779 -0.37532 0.59201 -0.1255 -0.53249 -0.39419 0.010618 0.061809 0.72257 -0.80618 -0.71292 -0.18556 -0.37327 0.28527 0.098714 1.7025 0.46799 0.12015 0.74642 -0.71505 -0.062752 0.369 0.2254 -0.56784 -0.17365 0.3862 -0.21529 0.23926 0.079219 -0.60443 -0.30324 0.73144 -0.29571 -0.10141 0.25456 0.95187 0.57168 -0.29077 -2.1136 -0.34992 0.11021 -0.34117 -0.42272 -0.41724 0.30956 -0.55005 0.20334 0.13672 0.15826 0.0092713 0.43212 0.66511 0.081605 0.48882 -0.080258 -0.29249 -0.097632 0.21177 0.66681 0.39776 0.37578 -0.0011149 -0.55894 -0.015051 0.4664 0.57335 0.49287 -1.2565 -0.99424 -0.11561 -0.25404 0.94861 -0.73772 0.24383 -0.60748 0.75784 0.78414 -0.83169 -0.59836 -1.1687 -0.58112 -0.18023 -0.22852
latino 0.92222 0.74404 0.2754 -0.74383 0.11983 0.79549 -0.072682 -0.040801 0.6485 0.89466 -0.7812 -0.78108 -0.22724 -0.9162 0.24455 -0.32249 0.10545 0.042484 0.67507 0.99084 0.36224 -0.25423 -0.004254 -0.40303 -0.072693 -0.77227 0.85528 -0.69821 0.31948 -0.21416 0.13634 -0.057074 0.22181 0.95721 0.55131 -0.060455 0.41651 0.87771 0.82629 1.235 -1.0618 -1.0615 -0.68438 0.051741 -0.29211 -0.71731 0.13822 -0.06833 -0.81849 -0.42339 -1.5054 -0.40386 -0.54383 -0.44262 -0.49051 -0.65989 -0.046552 0.30412 1.4806 0.40279 -0.31843 0.27082 0.25762 -0.96196 0.62769 -0.1916 -0.067566 0.073376 1.2819 0.18144 0.4993 0.60193 -0.65612 -0.0075804 0.028661 -0.2375 -0.82773 -0.15713 -0.37033 -0.60312 -1.0049 -0.48076 -0.18575 0.61909 -0.60896 -0.96044 -0.83204 0.24703 -0.1731 -0.91864 -0.39757 0.2165 -0.079913 -0.16074 -0.52408 -0.24819 -0.66885 0.024262 0.74211 0.11211
lawyer 0.35732 -0.62995 -0.42629 -0.30804 0.10198 0.39621 -0.010956 -0.41009 -0.6538 0.15322 -0.11027 -0.24405 -0.16205 -0.10533 -0.72101 -0.58995 0.18692 -0.4328 -0.7796 0.53632 0.15043 0.30958 0.48051 -0.13196 0.10641 0.097321 0.12076 -1.4796 -0.20624 0.34627 0.31061 0.83241 0.1118 -0.0072984 -0.61353 -0.093742 -0.15163 0.35221 0.93905 0.12002 -0.4852 -0.10457 0.67429 -0.73877 -0.27031 -1.0385 -0.36606 -0.58402 0.15979 -0.013703 0.88269 -0.81227 0.67153 0.49514 -0.18025 -0.92657 -1.0446 -0.23578 1.2594 0.65004 0.044537 -0.25197 0.074836 -0.56637 0.95957 -1.0725 0.95209 1.116 -0.57097 0.60866 -0.26226 0.32286 -0.1513 -0.63239 0.35556 -0.39295 0.13156 -0.29489 -0.49436 -0.24595 0.93257 0.012559 0.49992 -0.29784 -0.94073 -0.70739 -0.14737 0.72665 0.26456 -0.93877 0.70269 -0.84055 0.53197 0.11361 0.87732 0.88564 0.0030293 -0.2214 -0.28501 -0.053822
leader -0.49836 -0.27801 0.39627 -0.41396 0.70402 0.14032 0.43346 -1.1983 -0.95671 -0.038478 -0.28464 0.18806 0.19842 -0.21125 -0.3499 0.22547 -0.032453 -1.1016 -0.75139 0.28205 0.42114 -0.36627 0.3832 0.10133 -0.67561 -0.22014 -0.51753 -0.14292 1.059 -0.093145 0.27168 0.55971 0.10272 0.45266 0.099852 0.38444 0.52184 0.47497 -0.2343 -0.07264 -1.0863 0.22677 2.2985 -0.29561 0.019693 -0.43689 0.028076 0.1375 -0.18682 0.071916 0.063439 -0.28891 0.38208 1.405 0.21763 -2.0493 -0.7992 1.077 1.3541 0.516 0.17677 -0.81121 -0.012365 -0.33191 0.85635 0.45458 1.1976 0.73583 0.37302 0.49759 0.28357 -0.77003 -1.2792 -1.0339 -0.20781 0.11494 -0.27192 -0.27769 -0.53308 -0.17263 0.039993 -0.32425 -0.45642 0.10197 -0.79481 -0.15234 0.17336 0.63675 0.71648 -0.41337 0.75454 -0.37919 -0.21141 1.1725 -0.91646 -0.17005 0.18729 -0.63447 0.45342 -0.17292
lecturer -0.31748 -0.15751 -0.94257 0.25481 0.92328 0.16098 0.34807 -0.43545 -0.27226 0.47452 -0.55962 -0.76877 0.43676 1.2897 -0.2753 -0.21754 0.32674 -0.53021 -0.29644 0.1057 -0.57268 0.18169 0.61803 -0.46971 0.63148 -1.0649 0.33903 -0.65738 0.21854 0.39248 -1.5995 0.60277 -0.41356 0.17996 -1.4752 0.39904 -1.2151 0.25834 -0.22945 -0.46731 -1.1584 0.3347 -0.12039 -0.29664 0.64161 0.11908 0.43007 0.059151 -0.10678 0.24864 0.34466 -0.5641 0.40479 0.25299 -0.1195 -0.6873 -0.33924 -0.44853 -0.059487 -0.28301 0.10542 -0.19704 -0.42052 -0.55969 0.2979 -0.074439 0.70634 0.29506 0.97232 1.4082 -0.28889 0.4112 0.64859 0.14558 -0.98552 -0.4868 0.43743 -0.11167 0.21782 -0.96881 -0.13128 -0.25069 0.21101 -0.52773 -0.61374 0.23912 -0.083316 -0.077569 0.2351 -1.1658 0.3683 -0.18612 0.80365 0.83318 0.24104 0.75902 0.1528 -0.030309 -0.008025 0.21249
librarian 0.38943 -0.09035 0.097752 -0.11878 0.64483 0.74117 -0.20315 -0.11597 0.063774 -0.049204 -0.20034 -1.1182 0.18263 0.59752 -0.42548 0.12312 0.73269 0.1958 -0.44428 -0.039595 -0.94751 0.51303 -0.013377 -0.25882 0.15662 -0.6299 -0.19347 -0.82626 0.0039323 0.0084493 -0.37551 0.11218 0.24915 0.26545 -0.96829 0.4023 -1.2107 -0.10545 0.96721 -0.58229 -0.30655 0.22713 -0.56133 -0.010306 0.47935 -0.066718 0.0040032 -0.29916 0.24516 0.31291 0.49365 -0.62361 0.36837 0.15677 -0.095254 -0.43328 -0.093187 -0.64669 0.021343 -0.035722 0.71891 -0.047798 -0.057222 0.39792 0.22042 -0.40311 0.60419 0.50953 0.94842 0.95633 0.57689 0.18392 0.54881 -0.14244 -0.43626 0.011663 0.1329 -0.027187 -0.19202 -0.96412 -0.59943 0.10362 0.21878 -0.054865 -0.54439 0.041604 0.34447 -0.11558 0.25527 -0.6582 0.36494 0.049031 0.78513 0.47685 -0.16277 -0.063102 0.53199 -0.37961 -0.86438 -0.10789
logical 0.23638 0.13885 0.018244 0.53849 0.088827 -0.2763 0.39375 -0.12136 0.43388 -0.0034413 0.086663 0.17507 0.28781 -0.37905 0.49292 0.29355 -0.65672 0.866 0.035337 0.52117 0.13258 -0.12966 -0.087506 -0.44983 -0.12479 -0.1045 0.45635 0.049566 -0.20523 0.0018625 -0.22926 0.020515 -0.48263 -1.0837 0.3824 0.45726 -0.14779 -0.37681 0.28602 -0.91954 0.43992 0.38901 0.38768 -0.43102 -0.82083 -0.13861 0.86208 0.48762 -0.92697 0.24765 0.60149 -0.17731 0.23153 0.16561 0.1905 -0.98637 0.61109 -0.26789 1.0837 -0.053973 -0.32299 -0.54534 -0.45741 0.18525 1.3648 -0.54791 -0.49125 0.46192 -0.50933 -0.39437 -0.62349 0.049614 0.613 -0.70174 0.30457 -0.31086 0.29832 -0.27267 0.074102 -0.30283 -0.32393 0.087156 -0.82316 0.14286 -1.3461 0.46832 0.16781 0.025965 -0.20683 -0.69742 -0.16393 0.7726 -0.23441 0.28307 0.25876 -0.3872 -0.23607 -1.0811 -0.22062 1.2066
lord -0.4242 -0.69824 0.48373 -0.27245 0.035841 0.41512 -0.70346 -0.35306 -1.0123 -0.91632 0.24346 -0.24402 0.23016 1.008 0.15546 -1.1499 -0.068507 -0.084095 -1.3307 0.79342 0.73093 -1.6357 0.28325 -1.0823 0.49324 0.53489 -0.060069 -0.27151 0.39119 -0.046727 0.5159 -0.22726 0.34468 -0.62194 0.59717 0.91442 -1.134 -0.28361 0.58264 -0.30888 0.034751 0.79774 0.72097 -0.9889 0.59457 0.23982 -0.37091 -0.92289 0.30657 -0.051822 0.56651 -0.11734 1.0755 0.37715 -0.54779 -1.9277 -0.72366 0.027058 -0.21797 -0.40212 0.24908 -0.014986 -0.50707 0.21931 -0.06995 -0.015559 -0.013944 0.37736 0.97784 -0.19584 0.809 0.32179 0.010868 -1.1681 -0.40908 -0.37871 -0.40759 -0.5116 -0.99383 0.30825 -0.13871 0.6901 -0.21251 0.40093 -0.60948 0.011964 -0.49079 -1.0276 0.842 -0.2572 0.018452 -1.2009 0.71948 1.0142 -0.3401 -0.39015 0.036268 -0.35168 -0.42308 -0.4433
loser 0.037418 0.9602 1.2866 -0.13517 -0.17424 -0.0029124 0.20962 -0.26919 -0.026863 -0.63635 0.081394 0.1742 -0.19535 -0.32085 0.23511 -0.24055 0.0033901 0.14071 1.2336 0.67333 0.16238 0.41346 -0.29283 0.82825 1.0767 0.13213 0.43269 0.12159 0.1881 -0.51837 -0.38649 0.18459 0.87768 -0.1415 0.33848 0.026748 -0.71664 -0.12699 -0.22294 -0.43422 0.22694 0.1954 0.31592 -0.49594 -0.038362 -0.35114 -0.20692 0.28049 -0.87135 -0.3932 -0.72603 -0.059782 0.43267 0.59223 0.055026 -0.72303 0.022579 0.55919 0.68805 0.6091 -0.31813 -0.71182 -1.1012 0.14076 0.62487 -0.32625 0.43584 0.4507 -0.29034 -0.15109 -0.78785 -0.22888 -0.73851 0.38774 -0.052937 0.31534 -0.32585 -0.5336 0.3606 0.24509 0.30141 -0.10014 -0.55914 -0.1255 -0.58997 -0.94826 -0.95381 0.23156 0.16817 -0.39392 -0.55374 0.1519 0.41087 0.65733 -0.72576 0.52485 0.88792 0.37245 -0.040353 -0.028118
lower -0.088882 0.26117 0.81251 0.77629 -0.20479 -0.95662 -1.4262 0.45971 -0.70796 -0.036256 -0.4978 0.17364 -0.1941 -0.094466 0.37198 -0.54693 -1.1208 -0.57504 0.53081 -0.052736 0.6179 -0.26722 0.27504 0.39357 0.047437 -0.63956 -0.083913 -1.1289 -0.23707 0.39723 0.95817 0.14849 -0.44191 -0.25904 0.34549 0.58593 0.39996 -0.040776 0.05734 -0.0078011 -0.061508 -1.0789 -0.61532 -0.41869 0.068621 0.29188 0.39546 -0.13341 0.17113 -0.81406 -0.19805 -0.26698 0.13591 0.42587 -0.80255 -1.999 -0.14266 -0.7962 2.5558 0.24975 -0.0059138 0.36633 -0.2422 1.0255 0.026428 0.20786 0.20746 -0.15455 0.64974 -0.59793 0.13623 -0.0028868 0.2332 0.0055814 0.1615 -0.14931 -0.75833 0.03765 -0.046184 -0.42639 -0.074844 0.57331 -1.0478 -0.72133 -1.1764 -0.83841 -0.081934 -0.24725 0.49417 0.54533 -0.15835 -0.34102 -0.62277 0.72974 -1.0082 0.27712 0.47909 -0.42049 1.1008 -0.95919
male 0.88924 0.77025 0.98138 0.14247 -0.43655 1.2186 0.034853 -0.47738 -0.24154 0.48843 -0.61981 0.081619 1.0943 0.53658 0.66645 -0.28489 0.045154 -0.25505 0.34566 0.52022 0.0075956 -0.92474 -0.15582 0.29628 0.30844 -0.11879 0.044786 -0.94229 0.43043 0.11719 0.43296 0.1921 0.43254 -0.19025 0.95967 -0.11769 -0.1042 0.88955 -0.12904 0.64936 -0.31206 0.022897 -0.48255 0.11403 0.36657 -0.27815 -0.35235 0.1084 -0.76229 -0.5158 -0.75769 -1.0524 -0.20926 1.0052 0.30797 -1.4625 -0.98246 -0.71164 0.93356 -0.11291 0.24046 0.41601 0.29011 0.27082 1.0575 0.34331 0.46914 -0.20244 0.25996 0.3346 -0.17727 -0.16626 -0.043794 0.43798 -0.019706 0.023628 -0.46544 -0.59865 -0.0933 -1.2079 -0.37159 -0.18098 0.7113 0.14977 -1.7084 -0.58848 0.2836 0.1132 0.88013 -0.079443 0.16372 -0.14547 0.59923 -0.14037 0.08474 -0.13549 -2.1427 -0.45326 0.88776 -0.13272
man 0.37293 0.38503 0.71086 -0.65911 -0.0010128 0.92715 0.27615 -0.056203 -0.24294 0.24632 -0.18449 0.31398 0.48983 0.09256 0.32958 0.15056 0.57317 -0.18529 -0.52277 0.46191 0.92038 0.031001 -0.16246 -0.40567 0.78621 0.57722 -0.53501 -0.68228 0.16987 0.3631 -0.071773 0.47233 0.027806 -0.14951 0.17543 -0.37573 -0.78517 0.58171 0.86859 0.031445 -0.45897 -0.040917 0.95897 -0.16975 0.13045 0.27434 -0.069485 0.022402 0.24977 -0.21536 -0.32406 -0.39867 0.68613 1.7923 -0.37848 -2.2477 -0.77025 0.46582 1.2411 0.57756 0.41151 0.84328 -0.54259 -0.16715 0.73927 -0.093477 0.90278 0.50889 -0.50031 0.26451 0.15443 -0.29432 0.10906 -0.26667 0.35438 0.049079 0.18018 -0.5859 -0.55542 -0.28987 0.74278 0.3453 -0.028757 -0.22646 -1.3113 -0.5719 -0.52306 -0.1267 -0.098678 -0.53463 0.28607 -0.37501 0.45742 0.045975 -0.24675 0.045656 -0.38302 -0.93711 0.039138 -0.53911
manager 0.14024 -0.1865 0.19565 -0.91616 -0.071061 -0.44598 0.36605 -0.012751 -0.45876 -0.2328 0.16235 -0.6195 0.58428 -0.28212 0.19451 -0.97955 0.73128 0.10424 -0.20683 0.66479 -0.11284 0.258 -0.79496 -0.44744 -0.14626 -0.010699 0.35339 -0.31763 -0.11266 0.12718 -0.85551 1.3845 -0.36972 0.22339 -0.47727 0.41869 -0.66461 0.6197 0.41762 -1.3005 1.0075 -0.62002 0.70254 -0.078776 0.49277 0.97985 -0.13796 -0.39827 0.48762 -0.76665 0.29608 -0.61457 -0.47012 0.53916 0.43595 -2.2328 -0.78793 0.16327 0.5532 0.75369 0.11096 -0.25683 -0.48061 0.21908 0.59698 -0.38691 0.9954 0.84731 0.51657 0.63422 -0.29145 0.32014 -0.68682 -1.5089 0.33207 -0.15034 -0.25706 0.45708 -1.1419 0.20653 0.8394 0.053851 -0.56898 -0.35537 -0.49581 -0.06044 -0.52215 0.28946 -0.16602 -0.40245 0.2059 -0.0035898 0.49096 0.66654 0.45047 0.77126 -0.33691 0.81654 0.09251 -0.040469
manual -0.44742 0.35299 0.17219 0.10173 0.060432 0.41539 0.61346 1.0853 -0.038952 0.19346 0.13498 -0.36585 -0.051781 0.1091 0.27834 0.53504 0.49463 -0.069901 0.60539 -0.10637 0.3588 -0.54504 0.052283 -0.10748 0.20186 -0.5431 -0.71597 -0.90135 -0.23601 0.48722 0.033727 -0.35342 -0.60537 -0.0773 -0.038432 0.35684 -0.48209 -0.44364 0.69991 0.05174 -0.45387 0.23417 -0.19652 -0.48398 -1.21 -0.61425 -0.14716 -1.3248 -0.039813 -0.19348 -0.34592 0.59847 -0.86133 0.80662 0.73702 -0.20737 0.40546 0.035588 1.2967 -0.077654 0.001634 -0.59348 0.16694 -0.32149 0.65553 -0.28303 -0.69688 -0.39571 -0.2741 0.73515 -0.57797 0.6221 0.45891 -0.092488 0.62561 0.22139 -0.31017 0.82441 -0.60822 -0.60559 0.030775 -0.68412 -0.89865 -0.098893 -1.4372 0.40497 0.94809 -1.0819 -0.18053 -0.1957 0.23893 -0.07332 0.593 0.42142 0.80488 -0.32227 -0.08274 -0.67748 1.359 -0.39496
masculine 0.14561 0.81381 0.65935 0.57075 -0.73107 0.91018 -0.55978 -0.56036 0.46232 0.55913 -0.74587 -0.64443 0.87777 0.70694 0.41911 0.20815 0.34253 -0.25833 0.073204 0.38205 1.021 -0.47815 -0.55109 0.64526 -0.18631 -0.44968 -0.16556 -1.0525 0.12776 -0.032995 -0.22459 0.32623 -0.92435 -1.32 1.0287 -0.058986 -0.019419 0.53386 0.17229 0.42094 0.87691 -0.46778 -0.012452 0.034277 -0.50704 0.073725 0.54853 0.29336 -0.29553 0.27853 0.40597 0.18595 0.3869 0.26324 -0.25328 0.0014885 0.58082 0.28359 -0.12491 -0.36616 0.44324 0.33393 -0.84125 0.35984 0.33084 -0.32758 0.63611 -0.73215 -0.14393 -0.63177 -0.068604 0.083215 -0.349 -0.21784 0.66893 0.33347 -0.90294 -0.20824 -0.23683 -1.1879 -1.207 -1.0323 0.29864 0.15798 -0.69497 -0.1396 -0.40893 -0.20021 0.86785 -0.8779 -0.50399 0.11711 0.40724 0.25424 0.44966 -0.15006 -1.5858 -0.92785 0.14541 0.24484
mechanic 0.092167 -0.019761 0.1813 -0.50002 0.058457 -0.58594 0.48234 0.2431 0.074173 0.58317 -0.12075 -0.66516 0.38314 -0.2446 -0.16116 -0.26394 0.33944 -0.29907 0.032936 0.76142 -0.071226 0.20826 0.35741 -0.83341 0.52941 -0.67963 -0.9745 -0.39467 -0.081891 0.18699 -0.93819 0.52726 -0.5678 -0.1547 -0.29825 0.62389 -0.3733 -0.16246 1.4281 -0.37095 0.020044 0.1696 0.62212 -0.43805 -0.36631 0.58691 -0.47203 0.010555 0.093671 -0.15955 -0.62805 -0.58127 -0.30387 0.8791 0.45412 0.16492 -0.43138 -0.0033008 0.8786 0.8076 0.75746 0.068688 0.08175 0.60248 -0.25404 -0.18585 0.50407 -0.27367 -0.45843 0.65639 -0.65284 0.13322 -0.28345 -0.12066 0.29284 -0.0048897 0.9532 0.059093 -0.33417 -0.30051 -0.14563 -0.050825 0.068796 -0.36855 -0.24938 0.25144 -0.055576 -0.10691 -0.59013 -0.51452 0.098763 -0.0077841 0.67562 0.35162 0.28043 0.28957 0.49104 -0.42394 0.26333 -0.82537
men 0.92508 0.49343 -0.053259 -0.2788 -0.36762 1.0179 0.25543 0.50571 -0.72731 0.39231 0.60123 0.23257 0.71127 0.11146 -0.1101 -0.070188 -0.027965 -0.10344 -1.2736 -0.29982 1.108 -0.15707 0.64281 0.31294 -0.12107 -0.0072911 0.10496 -1.0617 0.64642 -0.02892 0.22464 -0.095795 -0.56932 -0.81811 1.0645 -0.50897 -0.35844 1.3345 0.087079 0.84503 -0.45696 -0.27341 0.1486 -0.40005 0.073584 0.027856 -0.019284 0.10275 0.045384 -0.51425 -0.37088 -0.39773 0.11357 1.6347 -0.062116 -1.67 -0.016011 -0.12335 1.1064 0.73959 -0.39408 0.82737 0.3472 -0.074331 0.74837 -0.11377 0.39867 0.59619 0.035678 0.18488 0.039027 -0.81542 -0.10443 0.088339 0.13617 0.65268 0.2379 -0.11969 -0.35055 -0.64359 0.98397 0.18078 -0.12198 0.05973 -1.4614 -0.90258 -0.50609 -0.24964 0.35258 0.22657 0.081261 -0.21083 0.68108 0.066849 -0.64089 -0.43327 -1.2146 0.022083 0.50997 0.12191
middle -0.26575 0.45267 0.59462 0.36321 -0.21605 -0.47443 -0.036211 -0.012384 -0.030554 0.19347 -0.53423 -0.33193 0.29201 0.61472 0.17656 -0.39999 -0.53377 -0.78873 -0.55347 -0.49126 -0.22989 0.36819 0.32259 -0.32981 0.61724 -0.10849 -0.46202 -0.41454 0.023757 0.31687 -0.11358 0.12631 0.29691 -0.21985 0.030647 0.091482 -0.42852 0.45257 0.44565 0.55523 -1.0185 -0.19585 -0.18803 0.16384 0.1693 -0.41275 0.64005 0.53199 -0.0412 -0.16514 -0.45349 0.065822 -0.12573 0.41512 -0.23364 -2.6257 -0.52797 -0.49048 1.6513 0.5279 -0.18552 0.7091 0.17759 -0.77791 0.83884 -0.14361 0.51097 0.17035 -0.091782 -0.3586 0.51333 -0.11651 -0.31712 -0.61613 0.20069 -0.033919 -0.44274 0.5157 -0.21967 -0.73383 0.35983 0.83896 -0.34831 -0.2848 -0.5114 0.33866 -0.6572 -0.7268 0.17034 -0.37781 -0.72172 0.3001 -0.18773 -0.14153 -1.2313 0.22629 0.068528 0.049339 0.65069 0.25881
modest 0.036457 0.4319 -0.12603 0.72838 -0.045818 -0.28173 -0.45165 0.39792 -0.45003 0.21918 -0.24966 -0.282 -0.40718 -0.84288 0.24681 0.4152 -0.64462 0.044241 0.78825 0.47979 0.80491 0.21579 -0.5066 0.14055 -0.19725 -0.48967 -0.77812 -0.62456 -0.91344 -0.44121 -0.29495 -0.3039 0.022525 -0.010199 0.60042 0.61625 0.1818 -0.27171 -0.35699 0.041772 0.2728 -0.37315 0.37955 0.42288 0.44814 -0.71257 0.44531 0.40201 0.24569 -0.96685 0.12447 -0.29144 0.3889 0.35967 -0.010809 -2.0896 0.18678 -0.60441 0.8964 -0.038233 -0.1643 0.058883 -1.0289 0.065982 0.20443 -0.30392 0.21355 -0.075145 0.56887 -0.30918 0.2583 0.33398 -0.37078 -0.37962 0.25796 0.25547 -0.28667 -0.48919 -0.035843 -0.076874 0.15207 0.56665 0.1646 -0.53025 -0.7097 -0.74625 0.63877 -0.45361 -0.59777 -0.21428 0.21814 -0.096373 0.34256 -0.22623 -1.0647 -0.41031 -0.013921 -0.2035 0.49784 -0.16078
monarch -0.34713 -0.31649 1.0909 0.46085 0.25943 0.51844 -0.78516 -0.086534 -1.0542 -0.80906 -0.66156 0.43271 0.34413 0.11767 -0.024951 -0.57162 0.11419 -0.5768 -0.035516 -0.031875 -0.61739 -0.32768 0.3753 0.25568 0.58204 0.087558 0.052207 -0.070013 0.7727 0.22773 0.49414 0.1561 0.53963 -0.2304 0.24868 0.79502 -0.72513 0.58891 -0.24308 -0.57867 -0.69848 0.30287 0.80706 -0.42238 0.34506 0.23564 0.36704 0.36204 0.22119 -0.15898 -0.36805 -0.29796 0.97609 0.66702 -0.016433 -0.73712 -0.64425 0.59528 0.72613 0.1932 0.27881 -0.28542 0.55788 -0.13758 0.49317 0.18403 -0.56057 -0.39202 -0.18561 -0.58669 0.19506 -0.96574 0.32745 0.22333 -0.21103 -0.44003 -0.36828 -0.19951 -0.40932 -0.025952 0.47057 -1.1108 1.1384 0.63256 -0.41283 0.0036948 0.55985 -0.56554 0.69192 -0.80172 -0.075321 -0.74017 0.47 0.081087 -1.0726 -0.26196 -0.12489 -0.85771 -0.23041 -0.2641
mother 0.60587 0.027989 0.018495 -0.018674 -0.39562 1.0309 -0.35793 0.20527 0.3293 0.035267 -0.38475 0.31452 0.32538 0.70024 0.13935 -0.58923 0.36985 -0.080566 -0.59721 1.0215 -0.55154 0.042073 0.34687 0.86511 0.63521 0.52616 -0.92199 -1.4634 0.34517 0.58921 0.12295 0.7323 1.0468 0.065458 -0.27033 -0.095179 0.20613 0.22589 0.90409 -0.11252 -0.58059 0.036599 0.32003 -0.53638 0.19297 0.035694 -0.56487 0.1527 0.70196 -0.24191 0.10476 -0.23424 1.212 1.1612 -0.033677 -1.9996 -0.79448 -0.087088 0.51475 0.44601 0.638 0.89893 0.17408 -0.32006 0.41652 0.23289 0.50642 0.26938 -0.1453 0.1207 -0.26246 0.16991 0.16702 -0.042041 0.64841 0.9827 -0.092602 -0.56797 -0.63854 -0.38415 -0.13816 0.43137 0.44748 0.24486 -1.5669 -0.80245 -0.15123 -0.18795 -0.4888 -0.67834 0.27133 -0.36768 1.1268 0.44722 -0.91335 -0.055973 -0.38328 -0.62756 -0.24055 -0.22544
musician -0.12419 0.29282 0.21877 -0.4791 0.78195 0.49053 -0.023807 -0.95937 -0.42655 0.17032 -0.2468 -0.69149 -0.047348 -0.2841 -0.065363 -0.42826 0.64099 -0.79534 -0.010583 1.2821 -0.34233 0.25027 0.46265 -0.62644 0.40127 -0.10246 -0.10435 -0.96128 1.2596 0.49102 -1.1836 0.78051 0.17278 0.73307 -0.35057 -0.56079 0.31914 0.21305 0.61482 -0.64015 0.16399 1.0694 0.36695 0.38601 0.062603 -0.68485 -0.86191 -0.68964 0.30474 -0.48188 -0.60161 -0.35278 0.46266 0.14205 0.05779 -1.6038 -1.3089 -0.098509 0.01273 0.81801 1.1602 0.76075 -0.53548 -0.25325 0.32318 -0.40446 1.1331 -0.076434 0.37455 -0.028418 -0.44173 0.50069 -0.48436 0.56499 -0.09413 -0.33994 0.56124 -0.39806 0.97942 -0.66514 0.050003 0.13842 0.7056 -0.1265 -0.65295 0.35278 0.035142 -0.36106 -0.65538 -0.37696 -0.24338 -0.25236 -0.16574 -0.093513 -0.13384 0.71483 -0.89129 -0.47453 0.044123 -0.75364
native 0.033754 0.88866 0.6735 -0.20147 0.43491 0.31463 -0.0064628 -0.19243 -0.2676 0.32748 -1.203 -0.49618 0.17182 -0.377 0.020477 -0.31109 0.81086 -0.45084 -0.55742 0.83185 -0.11812 0.28083 0.64184 0.63855 0.55058 -0.42677 -0.22821 -0.99325 0.12406 0.27432 -0.86643 0.32258 0.25396 0.0060892 0.51241 -0.15287 0.20252 0.33277 0.58844 0.11594 -1.384 -0.96667 0.15837 -0.052196 0.0075888 0.077123 0.45179 0.022437 0.15159 -0.38233 -0.54123 0.081073 0.79582 -0.15436 -0.09294 -0.85331 -0.81189 -1.0847 1.4225 0.44221 0.057697 1.0146 0.15519 -0.64057 0.85929 -0.37911 0.35417 -0.17055 0.99735 0.19434 -0.68802 0.49713 -0.48927 -0.046955 0.38859 0.031745 -0.34141 -0.17852 -0.48747 0.15421 -0.31235 -0.45369 -0.53354 0.4489 -0.39781 0.20642 -0.25696 0.10333 0.58728 0.2174 -0.076122 -1.068 0.45417 0.46539 -1.2617 -0.26425 -1.6987 -0.32057 0.089827 -0.26391
nephew 0.60233 -0.75386 0.25289 -0.17663 0.38302 0.41848 0.069786 -0.63907 -0.49775 0.090021 0.07972 0.41921 0.11856 -0.13827 0.21205 -0.65303 0.091863 -0.58331 -0.63835 0.7094 -0.13061 -0.3333 0.2189 0.33095 0.26796 -0.15523 -0.77784 -0.36752 0.3388 0.6573 0.17095 0.21393 0.47794 -0.20871 -0.38061 0.49174 0.18059 0.1591 0.38497 0.087603 0.26248 0.57486 1.0805 -1.0511 0.13201 0.37106 -0.46279 0.22252 0.29408 -0.16119 -0.3602 -0.095225 0.45837 0.42959 0.23795 -0.93165 -0.86962 0.25303 -0.55028 0.16208 0.34252 0.4015 0.60082 0.020064 0.461 -0.40591 0.27773 0.83761 -0.17205 0.33754 -0.024534 0.012147 -0.023917 -0.52168 -0.24879 -0.025732 -0.087976 -0.16232 -0.48728 -0.062985 0.41476 0.18312 0.5161 -0.3029 -0.60056 -0.10655 -0.34608 -0.70155 0.13108 -0.89836 0.234 -0.16077 0.93336 0.43755 -0.79815 -0.15667 -0.20578 -0.62334 -0.50641 -1.0326
niece 0.45601 -0.45849 0.20054 0.037433 0.16433 0.61571 -0.015299 -0.061173 0.14723 0.21378 -0.026032 0.7282 -0.091235 0.33174 0.23942 -0.53372 0.21361 -0.28172 -0.59238 0.96127 -0.66675 -0.0036984 0.18542 0.81471 0.73418 0.15098 -0.8115 -0.95759 0.01263 0.52082 0.27724 0.077231 1.1285 -0.31312 -0.3101 0.30702 0.24027 -0.14869 0.67095 0.16665 0.13789 0.47508 0.59811 -0.72113 0.064573 0.25796 -0.49014 0.14015 0.46594 0.14864 -0.12416 -0.02618 0.68972 0.41246 0.058873 -0.57969 -0.38713 0.21046 -0.76966 0.047832 0.1784 0.7109 0.36476 0.031806 0.14641 -0.29571 -0.055122 0.59737 0.052162 0.083525 0.062843 -0.094484 0.1633 -0.17318 -0.050941 0.32381 -0.062008 -0.3407 -0.3708 -0.36303 -0.057467 0.33984 1.0788 -0.046173 -0.8604 -0.72666 0.001837 -0.2637 0.0019473 -1.0629 0.31315 0.066191 1.3068 0.27241 -0.84348 -0.22182 -0.39522 -0.63814 -0.74446 -0.35189
nurse -0.15155 -0.038731 -0.70683 0.097425 -0.60126 0.62618 0.15681 0.39293 -0.51859 -0.29025 -0.5468 -0.074473 0.77545 1.1754 0.15161 -0.32347 0.54243 -0.13072 -0.32554 0.71007 -0.4801 0.13149 -0.059871 0.22516 -0.056198 0.36354 -0.088423 -1.4507 -0.31132 0.35604 -0.40428 0.15283 0.17375 0.35724 -0.43462 0.24307 -0.99451 0.52199 1.2654 -0.22539 -0.31815 0.21469 0.0058457 -0.43577 0.54145 0.26815 -0.85202 0.021473 -0.086122 -0.15521 -0.43926 -0.48613 0.045739 1.1542 0.153 -0.68778 -0.39247 -0.7818 0.52165 0.49527 0.89004 0.12084 0.075502 -0.21966 -0.32433 0.056092 0.248 0.1765 0.14009 1.0468 -0.56437 -0.23054 -0.43982 0.3944 0.73835 0.75009 0.36353 0.075609 0.03994 -0.95534 -0.17513 0.21632 0.23453 0.4122 -2.0037 -0.47197 0.5441 0.71529 -0.30512 -0.2306 0.63665 -0.23862 0.88673 0.13067 0.16831 0.71566 0.36982 -0.018923 -0.58836 -0.32689
nurturing 0.19666 0.57034 0.011426 0.50025 -0.012703 0.28891 -0.86775 -0.57088 -0.35535 0.48208 -0.21342 -0.59963 0.50678 -0.42519 0.34555 -0.53086 0.050825 -0.27734 0.29792 0.86153 -1.1161 -0.092798 -0.030987 -0.20944 -0.15856 0.66729 -0.36514 -0.13514 -0.83174 0.57996 -0.4042 0.40194 0.67246 -0.21891 0.1892 -0.55702 -0.36786 0.0039046 -0.38192 -0.26043 -0.035077 0.11594 0.087008 0.14433 -0.23489 -0.065483 0.25525 0.31008 0.069343 -0.44628 -0.57833 -0.4978 -0.46359 0.78372 0.10771 -0.15247 0.57214 -0.56735 -0.078567 -0.26513 0.16766 0.59358 -0.31572 -0.037511 0.12194 0.13227 0.32405 -0.26443 0.5642 -0.60677 0.8519 -0.22175 -0.20799 -0.52965 0.009374 0.35226 -0.098686 -0.72033 0.10723 -0.28609 -0.14324 0.93482 0.005789 0.74605 -0.43181 0.6787 0.18427 0.84624 -0.75234 -0.64929 0.02327 0.070005 0.76801 -0.12512 -0.10305 -0.26276 -0.5208 -0.62871 -0.039795 0.88053
