accountant -0.40879 -0.32942 0.041137 -0.31932 0.65569 -0.26569 -0.63322 0.5608 0.033678 -0.59294 0.023595 0.60666 -0.38691 0.35095 0.40242 -0.51159 -0.29284 0.74736 0.6352 0.37313 0.50038 0.84203 -0.15315 0.53365 -0.60789 -1.4036 -0.33521 -0.65206 -0.5724 0.39258 0.38531 -0.85871 0.022102 -0.036013 0.60254 0.20031 -0.59057 0.72709 1.7248 -0.67941 0.0045453 0.099737 0.39192 0.93585 -0.38387 -1.0794 -0.3503 0.072287 0.75891 0.83452
actor -0.66174 1.02 -0.17757 -0.31617 0.6497 1.2123 -0.29988 -0.29923 -0.98751 1.0128 -0.034051 0.84036 -0.27772 0.88494 1.1328 -0.53964 0.73731 0.78316 -1.0973 0.28425 -0.072976 1.3213 0.092697 0.52691 0.45766 -1.3744 -0.40462 -0.46926 -0.71024 0.25893 1.6228 -0.32048 0.62823 -0.44291 0.81836 0.51277 0.23652 -0.01136 -0.47835 -0.91881 0.099026 2.2304 -0.3455 -1.1817 -0.64932 -0.71242 -0.27322 -1.0892 -0.32238 1.3101
actress -0.50281 1.3602 -0.79567 0.17978 0.30326 2.0034 -0.29183 -0.13314 -0.22833 0.74604 0.29479 0.058113 0.080724 0.60262 1.3897 -0.49205 -0.1202 0.46184 -0.25282 0.60568 0.1024 2.1639 0.52841 0.73382 0.68283 -1.2 -0.59849 -0.15926 -1.1145 -0.49408 1.1492 0.2328 0.85071 -0.28973 0.60732 -0.051936 -0.14617 0.34957 -0.50612 -1.5682 -0.078745 1.7379 0.46563 -1.991 -0.69053 -1.0609 -0.37481 -1.713 -0.14678 0.94823
advanced -0.30097 -0.11429 0.66853 0.64321 -0.14672 -0.018312 0.0031759 -0.36049 -0.21488 0.3139 1.0819 -0.64605 -0.10957 -0.10472 -1.0134 -0.024284 -0.60112 -0.0031167 -0.78 -0.082632 -0.025979 -0.17382 -0.31434 -0.36288 -0.0048828 -0.76511 0.44488 -1.4067 -0.22119 0.030238 3.2227 -0.11966 0.13937 -0.42278 0.75567 -0.16133 -0.28605 1.6096 -0.037266 -0.66141 0.76708 -0.83861 1.2993 0.0050273 0.70487 0.24845 1.0509 0.14306 -0.34708 0.23042
african -0.40253 -0.16832 -1.2731 0.3717 0.47055 -0.094645 -0.67975 -0.9823 0.20803 -0.54781 0.72342 -0.19041 0.48002 -0.366 0.10517 -0.027328 0.82707 -0.061242 -0.42713 -0.3893 -0.66778 1.118 0.051591 0.13598 0.01337 -0.79305 0.40787 -0.76886 -1.2476 0.9837 3.1401 0.4212 -0.84241 0.065442 0.15264 -0.22553 -0.93922 -0.58294 -0.64352 -0.37126 -0.50493 0.369 0.98831 -0.76297 0.68617 0.87108 -0.57782 0.025938 0.015696 -1.2043
aggressive 0.16319 -1.1764 -0.36296 -0.50348 -0.37326 0.32185 -0.074032 -0.26442 -0.12408 0.83591 -0.29885 0.1739 -0.46696 0.33799 -0.73861 -0.39508 0.34277 -0.13673 -0.42193 -0.44131 -0.36209 0.1587 -0.24161 -0.16189 -0.16048 -1.6529 0.6309 -0.056496 0.6454 0.23375 2.6257 0.51042 0.27491 -0.56573 -0.251 -0.1482 -0.51148 0.45485 -1.1083 -0.8891 -0.31287 -0.10492 -0.011285 0.82372 1.2533 -0.87422 0.11357 0.51019 0.27751 1.3657
ambitious 1.0876 -0.12244 -0.035471 -0.81341 -0.24177 0.24957 -0.5325 -0.70729 -0.24114 1.0801 -0.78982 -0.035588 -0.35521 0.88799 -0.21113 -0.40105 1.1035 0.57714 0.42619 0.18766 0.41471 0.010391 -0.9664 -0.35922 0.55366 -1.0143 -0.10792 0.0085924 -0.083096 0.41777 2.0109 0.043734 -0.58888 -0.20497 -0.011138 -0.097349 -0.43259 1.1648 -1.2547 -1.1231 -0.75744 -0.40635 0.20799 -0.50649 -0.22981 -0.12368 -0.12707 0.56572 0.3385 0.88388
american -1.0988 0.48544 -0.5004 0.1491 0.41042 0.32605 -1.4592 -0.52025 -0.088054 -0.2384 0.43632 -0.14949 0.12491 0.71661 0.037183 -0.60692 0.034298 0.017432 -0.87692 -0.21223 0.10612 0.61057 -0.44873 -0.03961 -0.23466 -2.0954 -0.85982 -0.97872 0.068549 0.2635 3.0317 -0.38539 -0.17444 -0.47553 -0.083736 -0.65646 -0.768 -0.30997 -0.44042 -0.34611 -0.15336 0.0090824 1.2306 -0.35248 0.87702 0.31172 -0.54675 -0.10366 -0.86998 0.42675
analyst -0.34903 0.75611 0.68763 1.1225 0.75698 -0.88449 -0.52926 -0.4733 -0.61115 -0.16952 0.068816 0.93806 -1.3354 -0.33275 -0.21603 0.72169 1.0335 -0.46829 -0.57032 -0.080464 0.81193 0.25482 -0.16933 -0.23993 -0.15317 -0.93622 -0.076739 -0.16103 -1.0013 0.50897 1.7167 -0.80768 1.6717 -0.33192 -0.28683 -1.4175 -1.0222 -0.19375 1.613 0.021398 0.54483 1.0526 0.068551 -0.77125 1.0344 -0.75659 0.18606 0.92708 0.45355 1.9656
architect 0.37578 0.69275 -0.33284 -0.71191 0.29763 0.12407 -1.4788 -0.72528 -1.589 -0.062871 -0.08914 0.4417 -0.68631 0.1974 -0.33298 -0.33057 0.85533 0.34258 0.14991 0.24238 0.48492 0.084239 -2.271 -0.54 0.30173 -0.90284 -0.43704 -1.001 -0.628 0.71697 1.1256 -1.771 -0.44355 -1.0161 0.51912 0.34723 0.3906 1.4876 0.12501 0.5176 0.33563 0.19121 0.017863 -0.79298 -0.065521 0.21073 -0.85075 -0.68991 0.079467 0.46651
artist -0.91093 0.99808 -0.71439 -0.23005 0.60838 0.59341 -1.4852 -0.52983 -0.4031 1.3029 0.84146 0.32296 0.26409 0.75852 0.68207 -0.7824 0.51879 -0.10479 -0.048727 -0.052309 0.43649 0.81105 -0.72338 0.17004 0.51888 -0.61165 -1.4415 -0.82572 -0.48894 -0.54114 1.9321 -1.3069 0.2494 -0.94673 -0.056785 0.6197 0.2248 0.59579 -0.23152 -0.64833 0.79133 0.5048 -0.035264 -1.298 0.30394 -0.57075 -0.25141 -1.3414 -0.33598 0.37173
asian -0.74074 0.20735 -0.81685 1.2563 0.37723 -0.6095 -0.23429 -0.77283 -0.086403 -0.12798 0.65701 -0.51443 0.48983 0.58207 0.39869 0.42873 0.2217 -0.0092483 -0.90612 0.20228 0.56265 -0.18388 0.19612 0.20051 0.046845 -1.0698 0.22858 -0.60669 -0.88606 0.59733 3.3827 1.0895 0.71806 0.22366 -0.16809 -0.47253 -1.4069 0.047839 -0.95122 -0.82203 -1.2957 -0.21759 1.2672 -0.34606 1.5529 0.49754 0.092275 0.15742 0.38467 -0.77751
assertive -0.19875 -0.73577 -1.0996 -0.53669 0.68883 -0.0090165 0.99017 0.032399 -0.71247 0.82465 0.23702 -0.221 0.5041 1.136 -1.0759 0.23687 -0.0663 0.52805 0.96554 -0.050841 -0.50651 0.35674 -0.3678 0.14056 0.07564 -0.87482 0.51893 0.63817 0.31912 0.50533 0.52908 0.5763 0.1147 -0.4057 -0.33739 -0.33172 -0.98412 0.83974 -1.4388 -1.0142 -0.25919 -0.1155 0.47299 -0.27586 0.92302 0.46979 0.0047496 0.68723 -0.43413 0.94879
assistant -1.1453 0.35973 -0.77082 0.023133 0.59523 -0.80477 -1.2182 0.070484 -0.2934 -1.767 0.46365 1.2107 -0.78048 -0.080696 0.28928 -0.093388 -0.30316 0.74663 -0.075706 0.34656 0.027788 0.56972 -0.082096 -0.15734 -0.6096 -1.81 0.73415 -0.41556 -1.0881 0.06216 1.8189 -0.36865 -0.072859 -1.3569 0.37075 0.7292 0.080541 0.80372 1.172 0.086435 -0.37322 0.91535 -0.36493 -0.37147 0.12733 -0.16291 -0.18144 0.22021 -0.351 1.4706
astronaut 0.70548 0.89998 0.86932 0.25747 0.25858 0.2705 -1.4568 0.31689 0.81837 -0.965 0.88684 0.85152 -0.2163 2.3655 0.40989 -0.056612 -0.095401 0.47743 -0.76166 0.081934 -0.5019 1.0336 -0.41069 -0.42394 1.0585 -0.97359 0.47825 -0.72747 -0.54711 0.42601 -0.24619 -0.22244 -0.84691 0.010312 0.6408 0.21717 0.45416 0.81396 -0.026589 0.24263 -0.11506 0.56541 0.60488 -0.39878 0.5993 -0.63243 0.39133 -0.57873 -0.72247 1.0132
aunt 0.7072 1.0924 -0.45604 -0.50895 0.34313 1.1648 -0.90664 0.68657 -0.09165 0.0092483 -0.30478 1.112 0.61669 -0.43795 0.71693 0.13566 -1.0872 -0.078036 0.90382 0.55606 -0.020368 1.199 0.26578 0.39756 1.2038 -1.1218 -0.822 -0.13808 0.57074 -0.53226 0.54479 0.16153 -0.031224 0.74007 0.42081 -0.0019822 -0.38907 0.13462 0.86096 -0.45056 -0.13653 0.66556 -0.15616 -0.65146 0.25354 -0.14762 -0.28118 -1.9549 0.41035 0.40421
babysitter 0.4043 -0.0078923 -0.13337 -0.60455 0.12313 0.75944 -0.17186 0.41431 -0.020361 0.28581 -0.10387 0.51862 -0.045109 0.56905 0.98815 -0.38494 -0.7859 0.82675 0.90658 0.5501 -0.065228 0.81833 -0.33333 1.1504 0.063499 -0.32846 -0.22318 -0.39952 0.35993 -0.038743 -0.46507 0.62231 -0.15598 0.58069 0.19093 0.99176 0.077286 -0.47322 0.41175 -1.0554 0.0014243 -0.043912 -0.53563 0.60754 0.45469 -1.0695 0.29706 -0.56278 0.51108 0.63258
baker -0.52804 0.7722 0.028723 0.20636 0.49009 0.38704 -1.1973 0.29402 -0.17887 -0.58485 -0.51364 0.53581 -0.63159 -0.33058 0.073754 0.013677 0.50875 -0.39744 -0.23955 -0.33057 0.2316 0.69236 0.38942 -0.20604 -0.031757 -0.78823 -0.14731 -0.22689 0.044103 -0.13759 1.2017 -0.82715 -0.21205 -0.34301 0.531 -0.46622 0.054948 0.36294 0.89062 0.1117 0.12133 0.64037 -0.50504 -0.5993 0.16621 0.15705 -0.51697 -0.4264 -0.41657 1.2988
banker 0.23999 0.29049 0.020189 -0.33724 1.1723 -0.16462 -0.99857 0.20108 -1.2577 0.056422 -0.26569 0.85617 -0.22374 0.369 0.31228 -0.39918 0.11073 0.11721 0.11704 0.51063 0.93423 0.00047685 -0.95851 0.39226 -0.7551 -1.6294 0.097701 -0.49256 -0.65178 0.82273 0.52911 -0.76213 0.5522 0.087783 0.27733 -0.52493 -1.3004 0.336 1.0075 -0.73056 0.06204 0.57158 0.50556 0.060374 0.45723 -0.70177 -0.79324 -0.075173 1.0229 0.62149
basic -0.48588 0.16089 -0.32655 -0.26712 0.59907 0.38267 0.43342 -1.3476 0.35885 -0.12187 0.30909 0.40993 0.19436 -0.26784 -0.31419 0.13188 -0.33691 0.29029 1.1462 -0.5796 0.23996 0.35578 -0.20923 -0.37543 0.30968 -0.62288 -0.63116 -0.69781 0.76179 0.09462 3.6721 0.15891 -0.79073 -0.28564 0.4737 0.66212 0.25606 0.11691 0.044648 0.3761 0.12279 -0.72721 0.40206 0.72597 -0.45253 0.50563 0.52041 1.0357 0.13555 0.2637
beautiful 0.54623 1.2042 -1.1288 -0.1325 0.95529 0.040524 -0.47863 -0.3397 -0.28056 0.71761 -0.53691 -0.0045698 0.73217 0.12101 0.28093 -0.088097 0.59733 0.55264 0.056646 -0.50247 -0.63204 1.1439 -0.31053 0.1263 1.3155 -0.52444 -1.5041 1.158 0.68795 -0.85051 2.3236 -0.41789 0.44519 -0.019216 0.28969 0.53258 -0.023008 0.58958 -0.72397 -0.85216 -0.17761 0.14432 0.40658 -0.52003 0.09081 0.082961 -0.021975 -1.6214 0.34579 -0.010919
beauty -0.012686 1.336 -1.3519 0.54438 0.74377 0.28115 0.089383 -0.60219 0.75085 0.97483 0.2297 -0.21842 0.32404 -0.28096 0.39359 0.20824 -0.067886 0.51774 -0.075264 -0.4713 0.044102 1.5126 -0.45145 0.22013 0.32478 -0.81322 -2.0166 0.41673 0.51563 -0.12415 1.8261 0.47714 0.17215 -0.47939 0.20828 0.39292 -0.62873 0.50522 -0.20665 -0.97681 0.26309 0.34751 0.30612 -0.14228 -0.205 0.17755 0.11181 -1.188 0.26604 -0.35572
black -0.96256 0.65329 -0.55152 -0.41065 0.80223 0.9833 -0.96007 -1.029 -0.47013 -0.6812 0.071232 -0.25591 0.60577 0.29845 -0.1837 -0.26064 -0.038707 0.11412 -0.72028 -1.2694 -0.73858 0.3357 0.44293 0.02566 -0.97692 -1.6867 -0.88665 0.75824 0.18836 -0.6932 2.6144 0.11718 -0.45564 -0.42953 -0.052095 0.11656 -0.66685 -0.86056 -0.093886 -0.74592 -0.062858 0.54547 0.28987 -0.26887 0.71881 -0.074307 -0.18512 -1.2621 -0.3246 -0.56563
boss 0.62377 -0.094498 -0.36719 0.15357 0.66679 -0.23123 -0.43261 0.68284 -1.1715 -0.12727 0.013227 1.5783 -1.7588 -0.18562 0.79639 -0.43081 0.44854 0.94437 -0.15228 -0.37984 -0.46878 -0.06988 -0.38808 0.66335 -0.88264 -1.8028 0.42261 0.43866 -0.37379 0.17953 1.3727 0.093216 -0.089935 -0.0057132 -0.063064 0.44856 -0.080217 -0.40833 0.21452 -1.2595 0.46209 0.56379 -1.0728 -0.16167 0.85446 -0.15255 -0.88881 0.064066 0.87014 0.3964
boy -0.32345 0.23332 -0.20082 -0.52848 1.0926 0.62445 -0.99859 0.28085 0.088326 0.36919 0.32199 0.3499 0.067459 0.24211 0.92565 -0.32581 -0.99134 0.80767 -0.22845 0.40076 -0.8577 1.3836 0.056439 0.76561 0.3608 -2.0692 -0.46679 0.12359 0.35127 -0.77092 2.2064 -0.42605 -0.24279 0.3832 0.6069 0.62835 0.31825 -0.8851 0.38329 -1.146 -0.41949 0.2606 -0.6568 -0.11511 1.0591 -0.61148 0.32152 -1.3182 0.31744 0.02527
brave 0.069929 -0.15274 -0.14799 -0.65283 0.70298 -0.48995 0.24277 0.73451 -0.42055 0.24397 -0.49868 0.37132 0.18415 0.376 -0.33693 -0.67199 0.77152 0.41481 -0.63876 -0.30583 -1.0345 0.91073 -0.13056 -0.33042 1.059 -0.84863 -1.1689 -0.67992 0.57297 0.034103 1.3177 0.5374 -0.44759 0.41386 -0.13286 0.23591 0.029926 -0.66976 -0.86629 -1.0792 0.064472 -0.45528 0.32587 -0.051338 0.83625 0.14991 -0.40908 -0.617 -0.10296 0.4387
brother 0.38241 0.56538 0.17174 -0.32832 1.1811 0.64141 -0.75489 0.76061 -0.84549 0.067996 0.40488 1.3168 -1.039 -0.36122 0.74153 -0.20821 -0.46036 0.030236 -0.2302 0.59638 -0.48645 0.69894 0.16648 0.21533 0.2518 -2.0648 -0.20365 -1.1691 -0.1263 0.1645 1.5242 -0.32779 -0.42933 -0.11819 0.77706 0.26428 -0.0004162 0.41256 0.34926 0.24193 -0.09411 1.1235 -0.8575 -0.47789 0.45681 -0.23303 -0.93793 -1.7232 0.091327 0.19521
carpenter -0.40113 0.34556 -0.16958 -0.31563 0.43649 0.73803 -1.4601 -0.17469 -0.50287 -0.64173 -0.34035 0.81383 -0.33496 0.19708 0.19648 -0.36923 0.033677 0.23772 -0.27331 0.011753 -0.16372 0.36234 -0.6789 0.0040443 0.59298 -0.4446 -0.0064932 -0.69935 0.30552 -0.17028 0.74195 -0.7166 0.34049 0.048253 0.43094 0.25094 0.24609 0.16783 0.93942 0.12462 0.15838 0.1585 -0.27267 -0.059985 0.47719 -0.023181 0.055971 -0.96829 -0.09278 1.2504
cashier 0.01958 -0.62157 0.30474 -0.3876 1.1311 -0.69266 -0.4303 0.34195 0.090861 -0.47093 -0.059274 0.092302 0.31946 -0.057376 0.691 0.11387 -1.1913 0.57708 1.0389 0.011832 1.1448 -0.3492 -0.84715 0.54943 -0.41683 -0.92967 -0.09308 0.30124 0.020268 -0.79548 0.10489 0.16158 0.42154 1.027 0.052025 0.52181 0.16199 0.49463 1.0816 0.058768 0.50333 0.58674 -0.54373 0.48826 -0.0051578 -1.3369 -0.0089487 -0.14142 0.72509 0.4455
ceo 0.67636 0.06078 0.50385 1.2582 0.39611 -0.15419 -1.0362 -0.32055 0.016323 -0.59007 0.38707 1.4189 -1.8317 0.089236 0.59134 0.38318 -0.5545 0.62362 0.073258 -0.71297 0.3435 -0.1555 -0.38808 -0.52752 -0.68305 -0.98448 0.093479 -0.35737 -1.1415 0.87973 1.4582 -0.097267 0.092916 0.28226 -0.39682 -1.0955 -0.43341 0.18056 0.76698 -0.55104 -0.082715 0.41231 -1.0851 -0.2948 -0.080774 0.18396 -0.79341 0.03662 -0.51708 1.511
chef -0.12078 0.59621 -1.4258 0.16769 0.69497 -0.53062 -1.1042 0.23265 0.038536 -0.25446 -0.20499 0.7866 -0.015504 1.5218 0.55851 -0.76826 0.61582 0.7947 -0.080983 -0.67131 0.58647 0.56145 -0.060759 1.2045 -0.35077 -0.51305 -0.96863 -0.087795 -0.27738 0.28311 0.75157 -0.0030994 -0.29025 0.77906 0.37232 0.54878 -0.58784 1.3789 0.88692 -0.23302 0.76172 1.1604 -0.01578 -0.51563 0.61592 0.20999 -0.23671 -0.70038 0.37353 1.5011
citizen -0.85767 0.33779 -0.018793 -0.15108 1.1587 0.20349 -0.26486 0.37087 0.40329 -0.073607 0.73035 -0.0691 0.68379 0.36699 0.45671 -0.68922 0.076172 0.34406 0.097231 0.75011 0.059842 0.81061 -0.17766 0.78086 -0.10119 -2.2399 -0.20245 -1.1283 -0.076997 0.45273 1.4275 -0.36878 -0.90426 -0.7696 -0.16707 -0.47867 -0.074143 -0.2467 -0.27341 -0.26309 0.33859 0.12802 1.1083 -0.0007791 -0.27782 -0.60426 -1.2395 0.028606 0.3948 0.34327
clerk -0.82525 -0.62773 -0.36696 -0.50131 1.4594 -0.23033 -0.74533 0.90974 0.027523 -1.3112 -0.18398 0.33365 0.27566 0.042247 0.30156 -0.32916 -1.3598 -0.0057485 0.8656 -0.52236 1.5009 0.11245 -0.77468 0.92835 -0.27624 -1.669 -0.15043 -0.1637 -0.078265 -0.19316 1.0609 -1.0267 0.13271 -0.30545 0.52648 -0.067962 0.46284 0.49097 1.0813 0.075299 0.47156 0.66385 -0.40154 0.55276 -1.1544 -0.4634 -0.40305 -0.65827 0.84478 0.7204
compassionate 0.2633 -0.15059 -1.0469 -1.5211 0.85995 -0.30013 0.16784 -0.40716 0.49362 1.315 -0.64132 0.41541 1.465 0.33269 -0.78488 -0.38321 0.19605 0.032686 0.75207 0.91394 -1.1332 1.6139 0.049699 -0.54052 0.40221 -1.0464 0.050441 0.077223 0.03741 0.47085 1.2773 -0.10001 -0.81428 -0.15244 -0.463 -0.32856 0.49781 -0.057167 -0.1347 -1.2318 0.085994 -0.36336 -0.29933 1.0317 0.16465 0.35427 -1.2095 -0.011202 0.52105 1.0728
competitive -0.81014 -0.28234 -0.28727 0.6359 -0.27351 -0.071608 -0.14112 0.076825 0.26304 0.41609 0.46557 -0.12236 -0.60515 0.1737 -0.047067 0.15722 0.61511 0.81469 -0.25682 -1.2257 0.20692 -0.40369 -0.41984 0.46277 -0.063259 -1.0457 0.18055 -0.30216 0.4177 0.66108 2.887 1.1282 0.51252 -0.57985 0.16743 -0.24078 -0.63805 1.2851 -0.74262 -1.3115 -0.49869 -0.76 0.16423 0.8013 0.019521 -0.1467 -0.0069646 0.38835 0.28754 0.96041
confident 0.084214 -0.65096 -0.11952 0.10536 0.82624 -0.7803 -0.18447 0.85901 -0.33289 0.38877 0.23055 0.07364 -0.93052 0.1091 0.16731 0.56636 0.70054 -0.041797 0.17954 -0.82754 -0.80506 0.88826 -0.09696 -0.313 0.86149 -1.2931 0.13432 0.43053 -0.051664 0.33688 2.363 0.61458 -0.0055687 -0.28957 0.12709 -0.78254 0.15729 0.90604 -0.65888 -1.3419 -0.34247 -0.36817 0.084872 -0.048714 0.14816 0.26095 -0.56544 0.69289 0.34053 0.69395
cooperative 0.25636 0.064066 -1.1875 0.64829 0.21175 -0.072334 -0.81647 -0.26738 0.44492 0.13684 0.39832 -0.044628 0.50761 0.22012 -1.2696 -0.29228 0.30773 0.88064 1.2633 0.31657 0.57498 0.17475 -0.33957 -0.0018439 -0.23546 -0.18403 0.79576 -0.16608 0.23468 -0.30898 2.5115 -0.24874 -0.464 -0.38944 -0.21645 -0.5039 -1.0062 0.6448 -0.21837 0.078305 -0.397 -1.7212 0.28713 -0.34688 0.46689 -0.081941 -0.64584 0.89131 -0.097509 0.75855
daughter 0.37648 1.2426 -0.39739 -0.53184 1.187 1.5091 -0.84171 0.67881 -0.25809 -0.47984 0.17823 0.74667 -0.13473 -0.92361 0.95622 0.20569 -1.2239 -0.055043 0.56182 0.78077 -0.04409 1.5692 -0.066821 0.2514 1.0403 -2.1412 -0.31986 -0.77169 -0.029177 0.047146 1.4145 -0.23272 -0.34426 0.22699 0.88573 -0.20184 -0.15168 0.3621 0.6495 -0.68719 -0.068208 0.53595 -0.15289 -0.90156 0.38965 -0.523 -0.32187 -2.4262 0.30053 0.33888
decisive 0.20378 -0.69343 -0.17452 0.049095 0.4255 0.073796 0.90025 1.3941 -0.43241 0.40517 -0.61247 -0.78656 -0.84055 0.096408 -0.67195 -0.73803 0.95983 -1.4192 -0.87611 -0.031136 -0.58076 -0.69291 -0.40863 -0.76543 0.62776 -1.0923 -0.1326 -0.51736 0.51124 0.37475 2.1453 0.63635 -0.85019 -0.28642 0.014028 -0.24047 0.16404 0.94136 -0.9258 -0.58882 -0.17407 -0.23212 -0.37814 -0.56206 -0.39569 0.63696 0.37128 0.72823 0.5434 0.20641
dentist -0.12397 0.096074 -0.65106 -0.62471 0.2922 0.33463 -0.58039 0.82543 0.11945 -0.48402 0.079284 -0.0063876 0.77833 0.55503 0.14639 0.13994 -0.73196 0.63432 0.54587 0.59562 -0.19714 0.84568 -0.33191 0.27147 -0.10649 -1.3143 -0.34446 -0.3064 0.0075475 -0.37172 0.29097 -0.19578 -0.28038 0.077996 0.37196 0.79165 0.32678 0.86095 1.8101 -0.168 0.066184 0.29318 -0.082475 1.089 0.74332 -0.088699 0.16048 -0.18911 -0.21758 0.86882
dependent 0.50034 -0.27754 0.090585 -0.27222 0.51673 0.64958 0.35656 0.07106 0.67248 0.62296 1.2489 0.20128 1.0846 -0.060017 0.0024023 0.676 0.52706 0.37964 1.0654 0.015996 -0.22566 -0.55733 -0.088425 0.70373 0.30223 -0.45923 -0.017455 -0.1197 1.0013 1.2432 2.712 0.010999 0.87404 -0.2861 0.048312 -0.071993 -0.40912 0.208 -0.41485 -0.077442 -0.32116 -0.28595 0.58781 0.29841 -0.70419 -0.075173 -0.6788 0.35446 0.093807 0.44795
designer -0.20271 0.55573 -0.54477 0.16951 0.59136 0.43829 -1.6767 -1.602 -0.28422 0.37402 0.72392 0.35014 -0.76342 0.35044 0.74147 0.13958 -0.39087 0.43042 0.24282 -1.0073 0.47221 0.63385 -1.4404 -0.033654 -0.3101 -0.89735 -1.0823 0.1036 -0.0055388 -0.34104 1.0774 -0.34867 0.34332 -0.39691 0.61323 0.66558 0.041931 1.7249 -0.4226 -0.20457 1.0929 1.1348 0.40848 -1.0468 0.93943 -0.5448 -0.047294 -1.0264 -0.0216 0.92326
destitute 0.78587 -0.73658 0.052203 -1.7315 0.23744 0.14012 -0.37704 0.73209 0.39996 0.068306 -0.032179 -0.69886 1.5493 -0.54297 0.7459 -0.25361 0.55003 0.43001 1.2159 1.0918 -0.60383 0.88054 -0.33457 0.50672 0.87742 0.072552 -0.02878 -0.54015 0.52722 0.27246 0.68612 0.65348 0.55811 0.25626 -0.66153 1.0643 -0.31489 -0.096362 0.3409 -0.70907 -0.79792 -0.53448 1.1305 -0.071388 -0.027461 0.32787 -1.2374 -0.85323 -0.071358 -0.79697
developer 0.59813 0.1905 0.83774 1.7461 0.46719 -0.0045266 -1.5652 -0.96272 -0.44842 1.1813 0.028847 0.529 -0.1095 -0.20599 0.047983 0.56283 0.30393 0.46421 0.20309 0.3696 0.85287 0.0053506 -1.6315 -0.19555 -0.46616 -0.37966 0.44135 -0.74648 -0.029705 0.10022 1.5944 -1.3346 0.22778 -0.40074 0.11058 -0.1431 -0.24328 0.23429 0.5234 -0.64446 0.30567 -0.2341 -0.51324 0.4056 0.17081 0.00042994 -0.8855 -0.4398 0.66537 0.61202
director -0.17574 0.36446 -0.78658 0.68581 0.15354 -0.54165 -0.71137 -1.102 0.73644 -0.57403 0.50802 1.0613 -1.0983 0.45701 0.50121 -0.38451 0.73134 0.77346 -0.1525 0.30996 0.36702 0.76823 -0.29839 -0.49547 -0.098021 -1.6303 -0.35459 -0.49011 -1.7226 0.036723 2.3858 -0.26516 0.27235 -1.0307 -0.7692 0.041911 0.087943 0.52414 1.1209 0.37174 -0.21624 1.3086 -0.17844 -1.2298 0.12696 -0.37488 -0.70278 -0.10767 -0.11742 1.7628
disadvantaged -0.41066 -0.79564 -0.041752 -0.93408 0.42366 0.74465 -0.22803 -0.27098 0.0842 0.25801 0.31181 -0.78538 1.2856 -0.73748 -0.61464 -0.16116 0.9597 0.75507 1.755 0.21241 -0.60224 0.72205 -0.37071 1.2189 0.13475 0.34878 0.39975 -1.1289 -0.24109 -0.5589 1.6655 1.4553 0.90071 -1.1127 0.16221 0.51358 -0.48442 -0.015988 -0.51523 -0.87021 -1.1642 -0.87648 1.0512 0.25524 0.17949 -0.44266 -0.9067 -0.017051 0.34021 0.76849
doctor 0.66999 0.11698 -0.46322 -0.90012 0.5656 0.4898 -0.26031 0.71268 0.62338 0.02785 0.68012 0.76745 -0.020365 0.52097 0.80622 -0.20537 -0.88263 0.25707 -0.18035 0.80969 -0.24148 1.1617 0.30834 0.65495 0.32863 -2.2849 -0.69219 -0.71241 -0.50242 -0.076541 1.8624 -0.20323 -0.64749 -0.51617 0.50273 0.78918 0.62624 0.37496 1.2855 -0.20581 0.4103 0.71996 -0.16293 0.29106 0.47188 -0.15121 0.36688 -0.089993 0.37778 0.59818
dominant -0.40803 -0.3396 -0.087798 1.0314 0.8685 0.90401 -0.31333 -0.37811 -0.54335 0.35281 1.1169 -0.5434 -0.27452 0.3268 -0.84094 0.39583 -0.013255 0.056678 0.062904 -0.089464 -1.5387 -0.49906 -0.47845 0.90827 -0.13832 -0.86231 -0.47707 -0.46831 0.34399 0.89511 2.7453 -0.23663 0.40024 -0.097019 -0.037896 -0.5184 -1.0277 0.21064 -0.9811 -0.063079 -0.14776 -0.2138 -0.59113 0.914 -0.028679 0.45855 -0.40312 -0.067911 -0.13919 -0.4245
driver -0.40904 0.024573 1.2501 0.20486 0.5359 0.6029 -1.2128 0.58529 0.48695 -0.51136 0.97168 -0.26567 -1.6645 0.14853 0.68673 -0.60375 -0.50094 0.60496 -0.27815 -1.6282 -0.53855 0.72757 -1.0502 1.1589 0.79192 -1.6818 0.088348 -0.087112 0.59607 0.40682 1.9141 -0.16015 -0.57913 0.22346 1.5329 0.058707 0.60988 0.18236 0.045903 0.45169 0.1289 0.53618 -0.21911 -0.27558 0.30205 -1.1929 0.18097 -0.34861 1.7032 -0.14054
duchess 0.81698 1.1578 -1.3499 -0.034598 0.026887 1.086 0.28304 1.6355 -0.61884 -0.9445 -0.13862 0.52165 0.033502 -1.1382 0.019635 0.10698 -1.5332 -0.42745 0.54814 0.32453 0.45865 0.30087 -0.040159 0.6767 -0.14895 -1.3724 -1.4103 0.22799 -0.53642 -0.60656 -0.036673 0.45572 0.91398 0.50522 0.79496 -0.63039 -0.055376 1.0322 -0.14873 -1.0206 0.64079 -0.06556 0.62107 -0.80438 -0.51977 0.17824 -0.66372 -1.9129 0.44836 0.18127
duke -0.042095 0.71422 -0.48936 0.19312 0.18834 0.48497 0.10697 1.3271 -1.2453 -0.49678 0.24391 0.61254 -0.45625 -1.5955 -0.36425 0.044264 -0.74614 -0.37306 -0.58378 0.55822 -0.16268 -0.6367 -0.23533 -0.38469 -0.39796 -1.8397 -1.2889 -1.3515 -0.73443 -0.75515 1.0167 0.54986 -0.038429 -0.23122 1.3907 0.045184 -0.37027 1.294 0.8056 -0.083884 0.34922 0.41813 -0.38471 -0.37796 -0.42443 0.54016 0.10868 -1.3084 -0.52852 0.31535
dumb -0.50578 -0.69265 -0.019215 -0.62411 0.2218 0.4589 0.3598 -0.71224 -1.2021 0.81237 -0.71109 1.1141 -0.0081467 0.63739 0.37285 0.16493 0.62563 1.2656 -0.071614 -0.22088 -0.071549 0.5851 0.15531 0.79637 1.1118 -1.3115 -0.7694 0.70862 1.4785 -1.2291 0.94624 0.25398 0.44926 0.31991 0.30786 0.39901 0.38909 -0.44259 -0.18133 -0.26765 -0.30712 0.34618 0.52472 0.75486 0.20978 0.3054 0.063189 0.16984 0.9853 1.026
educated -0.4819 0.28579 -0.65838 -2.3218 0.83852 -0.25499 -0.97332 0.17174 -1.2763 -0.16731 0.58829 0.13335 0.88033 -1.3029 -0.76582 0.49812 0.4471 0.97332 0.073932 0.39649 0.018471 1.0836 0.10952 1.3051 0.36249 -1.5494 -0.095349 -0.94697 -1.0102 0.77559 1.5224 0.21858 0.56483 -1.2082 1.226 -0.43915 -0.66037 1.097 0.40142 -0.51097 0.0026257 -0.18092 0.31973 0.65193 0.18516 0.1868 -0.76281 -0.81181 0.44069 0.14794
electrician -0.61912 0.050925 0.61873 -0.85228 -0.059749 0.096708 -0.88943 0.57989 -0.813 0.17357 1.1646 0.050737 0.14719 1.0112 -0.10685 -0.35645 -0.57255 1.6422 0.17085 0.12539 0.10682 0.72514 -1.4968 0.096542 0.259 -1.1898 0.20128 -0.38331 0.3647 0.72657 -0.39468 -0.37381 -0.77566 0.4525 0.49035 0.21562 0.29712 0.50533 1.6564 0.43979 -0.08126 0.03527 0.34293 0.25983 0.21667 -0.86654 -0.49956 -0.051807 0.5521 0.089867
elite -0.60786 0.22274 -0.023408 -0.40832 0.5087 -1.0236 -0.024566 0.14036 -0.56035 -0.6663 0.53893 -0.52465 -0.36982 0.78699 -0.73473 -0.36733 0.29457 1.084 -0.64975 -0.085062 -0.53865 0.14159 -0.29977 0.79774 -1.2614 -1.5637 -0.80872 -0.89761 -0.84255 0.52535 1.8316 0.88889 -0.1671 -0.65192 0.33701 0.5777 -0.87342 0.14512 -0.88571 -0.55667 -0.2374 -0.40147 0.6682 0.77426 0.3693 -0.37538 -0.35716 0.13005 -0.31658 -0.36218
emotional 0.45068 1.1269 -0.62691 0.4699 0.5267 0.95357 1.0896 0.89963 -0.10172 0.96085 -0.54507 -0.22253 -0.26144 -0.12612 0.14422 -0.48547 -0.50265 -0.15212 0.0090597 -0.77772 -0.29212 1.4613 -0.5403 -0.66858 1.1866 -0.76308 -0.47969 0.087108 0.9975 0.66719 2.5144 0.83765 0.53132 -1.1173 -0.41992 0.37677 -0.10779 -0.55983 0.081243 -0.50178 -0.019546 0.11549 -0.62467 0.6528 0.30278 0.15079 0.50186 0.27362 -0.22301 0.35649
emperor 1.464 0.18484 -0.57001 -0.59857 0.72614 -0.45042 1.214 0.61759 -1.5151 -0.17134 0.053987 1.8301 0.25114 -1.1647 0.49792 -0.11643 -1.4075 -0.26132 -0.2813 1.0727 -0.36927 -1.0292 -0.18019 -1.5731 1.1414 -2.132 -0.56386 -1.4818 -0.99964 0.021425 1.5484 -0.23418 -0.11485 0.90584 -0.30452 -0.10035 0.52953 0.53407 -1.6465 0.19331 -0.23248 0.16079 -0.077548 0.21012 0.09428 -0.34906 -1.0324 -2.0958 -0.79985 -0.77468
employee 0.23666 0.18914 0.4051 0.084121 0.79485 0.24362 -0.75882 0.39081 0.67731 -0.60095 0.36774 0.030937 -0.25487 -0.37063 0.57514 -0.39748 -0.92277 0.77213 0.69639 -0.44781 0.51802 0.50076 -0.95403 0.18261 -0.91081 -1.5448 0.059238 -0.25646 0.091397 0.13902 2.0347 -0.0022858 0.13005 -0.21161 0.19615 -0.0024776 0.077975 -0.40218 1.0372 -0.15382 0.17604 -0.23392 -0.021668 0.79639 -0.11123 -1.4084 -0.68147 0.84508 0.22588 1.1423
empress 1.6217 1.0509 -0.7833 0.64542 -0.022575 0.19099 1.1609 1.4514 -0.88546 -0.34792 0.25892 1.209 0.50283 -0.29962 0.08216 -0.24485 -1.5871 0.38859 0.18443 0.52741 0.14933 -0.022001 0.16752 -0.68643 1.2464 -1.4166 -0.7752 -0.49268 -0.76329 -0.061348 0.36988 0.18282 0.15449 0.67018 -0.1164 -0.53905 0.1464 0.69585 -1.0347 -0.33723 -0.23912 -0.48561 0.73765 -0.31733 -0.12508 -0.58055 -1.3977 -2.6537 0.38885 -0.81422
engineer -0.33544 -0.35016 0.80945 -0.23327 0.26666 -0.068086 -1.3204 0.3766 0.298 -0.46514 1.1607 0.49188 -0.60777 0.73809 -0.9487 -0.57985 -0.27424 1.0944 -0.32907 -0.13868 0.47979 0.51727 -0.95685 -0.29688 0.44799 -1.4785 -0.42531 -1.1683 -0.21844 0.88458 1.6344 -1.4764 -0.2618 -0.54559 0.964 0.34457 0.10426 1.1358 0.889 0.40868 0.35245 0.095294 0.066522 -0.87314 0.22044 -0.13312 -0.32725 -0.29683 0.072698 0.67634
european -0.0080185 0.41827 -0.68371 0.01923 -0.33277 0.16856 -0.65487 -0.47132 -0.33454 -0.48188 1.2215 0.043931 -0.60405 0.96154 0.615 0.33789 0.89919 -0.61214 -0.56839 -0.71452 0.39191 -0.58471 -0.6241 0.35325 -0.33529 -1.3378 -0.032167 -0.25649 -1.2263 0.97411 3.4508 0.67662 -0.27501 0.01842 -0.7447 -0.76181 -0.32961 0.53117 -0.85266 -0.67651 0.10604 -0.40192 1.6095 -0.51078 0.26835 0.78402 -0.33166 1.06 -0.045851 -0.90621
executive 0.23636 -0.093664 -0.24729 1.1486 0.66526 -0.21669 -0.88273 -0.67876 0.45906 -1.2011 0.324 1.4067 -1.5239 0.18451 0.52918 0.37282 0.039823 0.3012 0.39206 -0.72828 0.51169 0.15891 -0.41615 -0.49706 -0.98049 -1.4511 -0.012456 -0.35786 -1.6706 0.64447 2.3042 -0.10636 -0.020121 -0.26607 -0.45422 -0.87213 -0.018578 0.002061 0.71411 -0.20785 -0.32028 0.76318 -0.71661 -0.060271 -0.39169 0.049528 -1.1676 0.16172 -0.42703 1.6548
failure 0.76823 0.012338 0.41389 -0.19967 -0.76365 0.84618 0.76541 1.0695 0.24749 0.27741 0.15816 0.16881 -0.94863 -0.18966 0.35848 0.43418 -0.10532 -0.39256 0.21738 -0.30648 -0.040435 -0.1475 -0.30315 -0.65461 0.28801 -1.7572 -0.56245 -0.3111 0.39202 0.72803 2.741 0.30841 -0.50163 -0.88559 -0.047009 -0.081202 0.8546 -0.44169 0.43791 -0.31866 -0.4334 -0.44479 0.042634 0.11827 0.18194 0.39984 -0.29042 0.8082 0.3473 -0.091213
farmer -1.0158 -0.2854 -0.22406 -0.36795 0.84668 0.74828 -1.5094 0.11967 0.10012 -0.36039 -0.091821 -0.20519 1.0259 -0.61905 0.4601 -0.33848 0.39626 0.63933 0.44242 0.30884 -0.17635 -0.045025 -0.097803 0.4771 0.49402 -1.2968 0.1249 -0.53423 0.46468 0.37836 1.6029 -1.133 -0.27637 0.78663 0.4145 0.12545 -0.81842 0.39918 1.2016 -0.020055 -0.56326 0.44658 -0.50352 -0.3867 1.0212 -0.35038 -0.90324 -0.73264 0.54527 0.41079
father 0.095496 0.70418 -0.40777 -0.80844 1.256 0.77071 -1.0695 0.76847 -0.87813 -0.0080954 0.43884 1.0476 -0.45071 -0.58931 0.83246 -0.038442 -0.73533 0.26389 0.12617 0.57623 -0.23866 1.0922 -0.3367 0.081537 0.84798 -2.4795 -0.40351 -0.84087 0.12034 0.29074 1.9711 -0.50886 -0.45977 -0.13617 0.55613 0.22924 -0.18947 0.43544 0.65151 0.043537 -0.1162 0.72196 -0.66163 -0.17272 0.27367 -0.28169 -0.82025 -1.5089 0.052787 -0.035579
female -0.31575 0.74461 -0.11566 -0.30607 1.524 1.9137 -0.392 -0.67556 -0.1051 -0.17457 1.0692 -0.68617 1.2178 1.0286 0.35633 -0.40842 -0.34413 0.67533 -0.5443 -0.21132 -0.61226 0.95619 0.43981 0.59639 0.02958 -1.1064 -0.48996 -0.82416 -0.97248 -0.059594 2.396 0.74269 -0.16044 -0.69316 0.55892 0.22892 0.013605 -0.44858 -0.52965 -0.96282 -0.54444 0.18284 0.16551 0.33446 0.53432 -1.4824 -0.34574 -0.82834 0.10107 0.024414
feminine -0.17137 1.0625 -1.8608 -0.43977 1.1755 1.4374 1.2383 -1.2293 -1.4138 0.57393 1.1496 0.3826 0.56106 -0.1493 -0.2412 0.34507 -0.96528 0.061297 0.91111 -0.33355 -1.352 0.32849 -0.21019 0.8279 0.093659 -0.25416 -1.6183 0.58597 0.58938 -0.24263 1.2724 0.47069 0.030726 0.27596 0.53396 0.016137 -0.31603 0.28136 -1.0737 -0.4567 1.0085 -0.14113 0.70881 0.24641 0.38975 -0.37503 0.69267 -0.073121 0.71311 0.018344
firefighter -0.15974 0.0089011 0.31791 -0.6799 0.51511 0.24624 -0.76413 0.66078 0.27973 -1.0762 0.12922 -0.18304 -0.1102 0.37609 0.21268 -1.1516 -0.65329 0.79206 -0.37871 -0.26242 -0.98965 0.89226 -1.0233 -0.14843 -0.26791 -0.57018 0.021888 -0.25656 0.2577 0.35067 0.30519 0.18414 0.1505 -0.32304 0.14676 1.0965 0.44815 -0.87872 1.7715 0.078146 -0.38039 0.30485 0.056017 0.026468 0.6572 -0.49934 -0.34455 -0.43595 0.30654 0.6474
follower 0.081535 0.33081 0.24887 -0.90533 1.39 -0.058208 0.20298 -0.12798 -0.3469 1.3407 0.44585 -0.10163 -0.30561 0.14516 -0.34362 -0.11538 -0.07168 0.76631 -0.041909 0.65881 -0.65871 0.097929 -0.26258 0.88282 0.27222 -1.3149 0.019202 -0.52679 -0.34104 0.71892 0.26315 -0.68238 -0.22536 -0.24603 -0.35582 -0.4276 0.036093 0.27491 -0.45497 0.24581 0.74247 -0.026987 -1.6044 1.1517 1.1321 -0.795 -0.48741 -1.0385 0.14302 -0.22466
foolish 0.11706 -0.8636 -0.54643 -1.0673 0.47951 0.039207 0.52063 0.26481 -1.0157 0.83037 -0.85336 0.97847 0.052635 -0.056995 0.36063 0.09105 1.1275 0.2328 -0.21751 -0.3271 -0.44468 0.49072 0.33004 -0.058028 0.98904 -1.0875 -0.75151 0.46564 1.2965 -0.32225 0.53782 0.44638 -0.19514 0.34842 0.013032 -0.45791 0.11741 -0.12736 -0.45766 -1.0196 -0.18441 -0.57349 0.61178 1.0059 0.39081 -0.1325 -0.52137 0.76095 1.0734 0.86197
gentle 0.13119 0.4349 -1.208 -0.89292 0.29285 0.24003 0.34387 0.29356 -0.24239 0.91869 -0.65248 0.32779 1.024 0.11373 -0.98324 -0.036959 0.36983 0.17845 -0.41456 -0.9938 -0.5709 1.4421 0.022227 -0.39523 1.5407 -0.42815 -0.17577 0.97536 0.79553 0.52302 2.0521 -0.17319 0.13591 0.51054 -0.025097 -0.19238 -0.82423 -0.26551 0.079851 -0.78053 0.30259 0.46857 -0.43513 0.43552 0.61826 -0.31382 1.0742 -0.80905 0.1406 0.35253
gentleman -0.66491 0.41396 -1.3552 -0.82429 1.4088 -0.38086 -0.38028 0.49503 -0.69622 -0.18045 -0.18925 0.95667 0.63839 0.19412 0.13415 -0.58126 0.13656 0.88562 -0.16176 -0.29194 -0.43187 0.80947 -0.31417 0.66707 0.62183 -1.1464 -1.0595 0.076359 0.38323 0.29515 0.72939 -0.74574 -0.4306 0.63424 0.66589 0.038862 0.029357 -0.19845 -0.23169 -0.88965 0.42383 -0.10711 -0.25381 0.61824 0.018498 -0.61668 -0.4513 -0.47707 0.58959 0.51281
girl -0.34471 0.69563 -0.78086 -0.58482 1.2263 1.2544 -0.76466 0.40575 0.18862 0.098834 0.32557 -0.31816 0.23869 0.33554 1.0592 -0.25266 -1.0308 0.70027 0.030457 0.53866 -0.30279 1.7515 0.3128 1.2103 0.41335 -1.9421 -0.93756 0.32453 0.52249 -0.86708 2.1258 -0.20377 -0.19061 0.37736 0.66205 0.50211 -0.12544 -0.83069 0.21155 -1.3091 -0.44973 -0.11648 0.033598 -0.68382 0.99419 -0.88262 0.56601 -1.327 0.37319 0.022389
grandfather -0.14316 0.78328 -0.24493 -0.87305 1.192 0.70666 -1.0837 0.31302 -0.75571 -0.27918 0.26249 1.0306 0.062973 -0.55576 0.29815 -0.097794 -0.46782 0.31958 0.059863 0.37454 -0.26092 0.3539 -0.60546 -0.070445 1.1385 -1.7394 -0.67253 -0.90136 0.3375 0.2935 0.91406 -0.54894 -0.17171 0.36273 0.53623 0.19177 -0.3197 0.74335 0.4194 0.55504 -0.10795 0.51879 -0.49659 0.0080671 0.39344 0.046335 -0.51796 -1.6487 -0.086218 -0.16458
grandmother 0.28381 1.0405 -0.57754 -0.82747 0.90042 0.98823 -0.97134 0.68643 -0.21003 -0.1498 -0.16771 0.42678 0.6272 -0.30746 0.77654 -0.076715 -1.2859 0.11945 0.8295 0.41858 -0.33774 1.3274 -0.18556 0.24014 1.2632 -1.5684 -0.63682 0.0018158 0.47901 -0.52371 0.91205 0.1257 -0.1632 0.66576 0.42016 0.21521 -0.17072 0.63735 0.80896 -0.24743 -0.21162 0.40895 0.034095 -0.16165 0.49529 0.045418 -0.30451 -1.639 0.12366 -0.082428
he -0.20092 -0.060271 -0.61766 -0.8444 0.5781 0.14671 -0.86098 0.6705 -0.86556 -0.18234 0.15856 0.45814 -1.0163 -0.35874 0.73869 -0.24048 -0.33893 0.25742 -0.78192 0.083528 0.1775 0.91773 0.64531 -0.19896 0.37416 -2.7525 -0.091586 0.040349 -0.064792 -0.31466 3.3944 0.044941 -0.55038 -0.65334 0.10436 0.016394 0.24388 1.0085 0.31412 -0.33806 -0.16925 0.10228 -0.62143 0.19829 -0.36147 -0.24769 -0.38989 -0.33317 -0.041659 -0.013171
her 0.13403 0.89178 -0.76761 -0.64184 0.86204 1.3122 -0.64018 0.82067 0.32783 0.021457 -0.095194 0.40825 -0.63602 -0.018275 0.69708 -0.29531 -1.1912 -0.23897 0.34341 -0.33196 0.23702 1.8364 0.12295 -0.18624 0.86503 -2.636 -0.7791 0.203 0.18985 -0.79897 2.9882 0.44336 -0.28367 -0.19588 0.061875 0.38558 -0.027622 0.71847 0.17156 -1.2168 0.081636 0.17293 -0.31718 -0.37039 0.18977 -0.89175 0.18492 -1.6251 0.039134 -0.10279
herself 0.31447 0.10151 -0.066704 -0.80305 0.89423 1.3251 -0.19217 0.60825 0.04408 0.19699 -0.01047 0.1115 -0.3566 0.19738 0.51883 0.095536 -0.40567 0.13349 0.65261 -0.079423 0.27023 1.4548 0.25115 0.36705 1.2269 -1.8877 -0.27451 0.25589 0.20663 -0.8249 1.8044 0.18337 -0.08148 -0.5448 -0.43868 0.26839 0.00047471 0.76837 -0.19776 -1.1183 0.24236 -0.086667 -0.10965 -0.44555 0.18206 -0.54624 -0.2093 -1.5462 0.40268 0.11407
himself 0.26672 -0.20723 0.071057 -1.0715 1.1178 0.48904 -0.45592 0.5182 -0.87917 0.31479 -0.063093 0.71834 -1.0115 0.069413 0.3061 -0.035464 0.13265 0.013419 -0.065832 -0.035541 -0.042574 0.72448 0.27434 -0.14834 0.68946 -2.4809 -0.30622 -0.074942 0.045173 -0.41012 2.2878 -0.2637 -0.50743 -0.65031 -0.15885 0.36169 0.17234 0.90324 -0.4235 -0.44363 0.2119 0.4647 -0.86723 0.037213 -0.086144 -0.31825 -0.53223 -1.0349 0.093597 -0.19409
his -0.033537 0.47537 -0.68746 -0.72661 0.84028 0.64304 -0.75975 0.63242 -0.54176 0.11632 -0.20254 0.63321 -1.2677 -0.17674 0.35284 -0.55096 -0.65025 -0.3405 -0.31658 -0.077908 -0.11085 0.97299 -0.016844 -0.73752 0.47852 -2.7069 -0.42417 -0.053489 0.018467 -0.11892 3.3082 0.17864 -0.50702 -0.22894 0.24178 0.5698 0.097113 0.95422 0.0076093 -0.54154 0.09828 0.41533 -1.116 0.0050954 -0.14975 -0.45133 -0.081188 -0.62173 -0.022628 -0.4383
hispanic -0.66351 -0.41365 0.045775 0.29015 1.4095 0.46006 -1.0722 -1.1676 -0.72517 0.36029 0.1164 -1.8283 1.8526 0.16026 0.11506 -1.1922 -0.54553 -0.13438 0.086281 -0.76047 -0.76466 0.053371 -0.38065 0.86741 -0.18396 -0.67858 -0.45157 -0.86255 -0.73127 -0.014525 2.2641 0.78341 -0.092688 -1.1649 -0.42941 -1.2226 -1.5319 -0.43865 0.071923 -0.21163 -1.0932 0.483 0.46532 0.53035 -0.14319 -0.19804 -0.61867 -0.23508 0.48544 0.62258
housekeeper 0.5491 0.00019419 -0.72152 -0.62224 0.4482 0.51491 -0.63648 0.38398 -0.51992 -0.4272 -0.3121 0.52457 0.58306 0.2016 0.81034 -0.69812 -0.80946 0.62621 1.1477 0.096251 -0.014158 1.3187 -0.41998 0.56728 0.14038 -0.63433 0.37557 0.13062 0.027431 0.1077 -0.090013 -0.12942 -0.42632 0.15757 0.20486 0.88726 -0.53137 0.1314 0.99804 -0.83494 0.15253 0.57791 0.18701 0.36117 -0.021357 -1.0451 -0.18114 -0.79033 0.71765 0.40836
husband 0.3966 0.59821 0.11068 -0.45436 1.2759 1.6052 -1.0662 0.1954 -0.60738 0.0081428 -0.07934 0.37204 -0.25451 -0.45528 1.2382 0.054297 -0.66169 0.0635 0.30669 0.37075 0.12926 1.7751 -0.06796 -0.26431 0.85356 -1.9176 0.074934 -0.3235 0.38055 0.02172 1.6803 0.14786 -0.15987 -0.087453 0.25015 0.030113 -0.12493 0.30738 0.69666 -0.40256 -0.16874 0.88117 -0.15934 -0.33762 -0.13911 -0.97545 -0.88182 -1.4575 0.29831 0.23416
immigrant -0.48977 -0.22623 -0.24562 -1.0266 0.5894 0.78544 -1.0324 -0.13365 -0.21945 0.25789 0.41394 -1.1829 1.2183 0.26038 0.27599 -0.96922 0.12392 -0.097382 0.43231 0.25774 -0.25085 0.50576 -1.3098 1.3017 0.043783 -1.7647 0.12909 -0.91253 0.37506 0.54119 1.5999 -0.072922 -0.4797 -0.5972 -0.336 -0.023869 -0.9945 -0.65032 0.17762 0.58884 -0.39256 0.92076 0.98973 -0.0034452 0.57763 -0.57502 -0.6665 -0.38664 0.5705 -0.41662
independent -0.45357 -0.61985 0.064357 0.15554 0.17757 0.022016 -0.57475 0.1447 0.48198 -0.30307 0.37627 -0.57294 -0.16392 0.67122 -0.4424 -0.19306 0.61665 0.13443 0.57637 -0.032723 0.49648 0.13686 0.23089 1.0634 -0.65168 -1.4258 -1.0136 -0.55498 -1.035 0.64364 3.1455 -1.0233 -0.35559 -1.0947 -0.42878 -0.49482 -0.17546 -0.14512 -0.091902 -0.27863 0.14371 -0.086698 -0.38285 0.06175 -1.1695 -0.090761 -1.1515 0.5309 -0.16925 0.36956
intelligence 0.8782 -0.45171 0.96737 0.040347 0.76235 -0.63825 0.18944 -0.26633 0.58874 -0.93608 -0.065201 0.5123 -0.69111 0.52807 -0.71195 -0.2834 -0.34591 0.014351 0.11763 0.59407 0.20703 0.69087 1.0855 -0.83158 -0.35967 -2.3939 -0.88375 -0.417 -0.36717 0.58897 2.4132 -0.74281 -0.3619 -1.9934 0.093133 0.86592 -0.75185 0.19073 -0.54284 -0.0084839 0.57554 0.4475 0.48515 0.054866 0.35842 -0.51698 -0.026014 1.9907 -0.11378 0.30127
intuitive 0.60302 -0.77383 -0.45699 -0.12066 1.0393 0.095191 0.77559 -0.87221 -0.18802 1.5083 0.33961 0.44626 0.42916 0.26727 -1.0803 0.029283 -0.38718 0.018435 0.3927 -0.51827 -0.75921 1.2534 -0.76902 -0.013019 1.301 0.037825 -0.42121 -0.21592 0.82857 -0.018715 1.2634 -0.16526 -0.10852 -0.41159 0.090601 0.062245 -0.3041 0.73713 -0.18596 -0.38479 1.1941 0.14464 -0.12789 1.5042 -0.18953 0.30501 1.1142 0.70691 0.54263 0.8815
janitor -0.26025 -0.36283 -0.017778 -1.1583 0.8203 -0.11994 -0.62744 0.29843 -0.3802 -0.11826 -0.03867 -0.038972 0.066938 0.72945 0.34888 -0.41074 -0.49097 1.3482 0.44315 0.36619 0.16013 0.85722 -0.83921 0.46183 -0.10768 -0.48757 0.32017 0.26411 0.24491 -0.18853 -0.1592 -0.19532 -0.030419 -0.15936 0.22392 1.1317 0.12926 0.23962 1.6529 -0.018513 -0.22059 0.15858 -0.47753 0.46269 0.013177 -0.52583 0.2867 -0.16362 0.22757 0.51012
king 0.50451 0.68607 -0.59517 -0.022801 0.60046 -0.13498 -0.08813 0.47377 -0.61798 -0.31012 -0.076666 1.493 -0.034189 -0.98173 0.68229 0.81722 -0.51874 -0.31503 -0.55809 0.66421 0.1961 -0.13495 -0.11476 -0.30344 0.41177 -2.223 -1.0756 -1.0783 -0.34354 0.33505 1.9927 -0.04234 -0.64319 0.71125 0.49159 0.16754 0.34344 -0.25663 -0.8523 0.1661 0.40102 1.1685 -1.0137 -0.21585 -0.15155 0.78321 -0.91241 -1.6106 -0.64426 -0.51042
lady 0.18218 1.2234 -0.91603 -0.3515 0.75482 0.20458 -0.81711 0.34323 -0.33949 -0.62392 -0.82288 0.90469 0.38058 -0.95189 -0.1329 -0.33621 -0.82074 -0.16053 -0.0021894 0.10776 -0.26327 0.66796 0.088637 -0.18426 0.72842 -1.4655 -0.93251 -0.14168 -0.41418 -0.80071 1.2465 0.46718 -0.28304 -0.12156 0.52759 -0.019988 -0.018037 -0.039563 -0.36726 -1.6139 -0.097836 -0.26634 -0.60497 -0.69658 0.49485 0.19295 -0.46325 -2.092 0.74963 0.031924
latino -0.75996 -0.65974 -0.25929 0.62654 1.1622 0.12057 -0.65871 -1.4526 -1.0247 0.71027 0.40248 -1.6645 1.6314 0.20203 0.17661 -1.2778 -0.27975 0.24605 -0.21607 -0.79386 -0.96847 0.16402 -0.57475 0.9878 -0.44496 -0.0066437 -0.49796 -0.67465 -0.70061 -0.020353 1.9768 0.92811 -0.39563 -0.86071 -0.92398 -1.2692 -1.4938 -1.0085 0.096453 -0.53841 -0.79028 0.038573 0.35591 0.1719 -0.35628 -0.29856 -0.50932 -0.47425 0.73318 0.78731
lawyer -0.48076 -0.024485 -0.56514 0.56811 1.0292 0.34197 -0.46104 0.79147 -0.30158 -0.059771 -0.37501 0.24412 -0.69369 -0.22583 0.6866 -0.50995 0.011649 -0.42465 0.4122 -0.043693 0.25033 1.4757 -0.55179 0.1705 -0.43683 -2.5606 0.25534 -0.69693 -0.8837 0.055147 1.3674 -1.4954 -0.49868 -0.65476 0.11807 -0.68195 0.079269 0.090491 1.0439 0.081198 0.53532 1.2153 0.17128 0.61743 0.21738 -0.7897 -1.1903 -0.093861 0.1252 0.99036
leader -0.1567 0.26117 0.78881 0.65207 1.2002 0.35401 -0.34298 0.31702 -1.1502 -0.16099 0.15798 -0.53502 -1.3468 0.51783 -0.46441 -0.19846 0.27475 -0.26154 0.25531 0.33388 -1.0413 0.52525 -0.35443 -0.19137 -0.08964 -2.3314 0.12433 -0.94405 -1.0233 1.3507 2.5524 -0.16897 -1.729 0.32548 -0.30914 -0.63057 -0.22211 -0.15589 -0.43598 0.0568 -0.090885 0.75028 -1.3153 -0.75359 0.82899 0.051397 -1.4805 -0.11134 0.2709 -0.48713
lecturer -1.3883 1.118 -1.5068 -0.80752 -0.10901 -0.44136 -0.41021 -0.26898 -0.49642 -0.27213 0.48366 0.21548 -0.031596 0.13667 -0.20701 -0.39301 -0.38737 1.1753 -0.13235 1.4631 0.98193 1.4662 0.018254 0.73109 0.307 -1.2031 0.47014 -0.76983 -1.6934 1.4007 1.0595 -0.79678 0.24402 -1.4978 0.14812 0.61185 -0.29501 1.2743 0.53736 0.35343 0.44955 0.33227 -0.51769 0.47692 -0.071165 -0.11943 0.23254 0.21873 -0.15523 0.36389
librarian -1.0177 0.43155 -0.72543 -1.1494 0.79012 -0.2432 -0.65194 -0.054379 0.033635 -0.8867 -0.080711 0.65338 0.60248 0.29322 0.073256 -0.51158 -0.69709 0.4941 0.74224 0.89694 0.53189 0.51406 -0.34118 0.4099 0.27395 -1.1129 -0.1959 -0.4609 -0.74783 -0.02043 0.24196 -0.8018 0.2753 -0.96288 -0.35006 0.69827 -0.021922 0.81431 0.87805 -0.51409 0.61357 0.1153 -0.23904 0.34394 -0.73274 0.23152 0.10279 -0.46722 -0.22816 0.65652
logical 1.2418 0.01715 -0.46979 0.32747 0.84087 0.33418 0.85557 -0.048155 -0.72357 0.74668 -0.19267 0.18196 -0.95114 -0.1102 -0.32286 0.40283 0.5917 -0.18006 0.51604 -0.5629 -0.24656 -0.37498 -0.71277 0.68099 0.99625 -0.39324 -0.7153 -0.017677 0.8469 0.13366 1.8216 -0.78695 -0.6602 -0.58127 0.3899 -0.87965 0.2204 0.83636 -0.59151 0.28709 0.58204 -0.86939 -0.49007 1.3653 -0.86571 0.28556 0.92431 1.4366 0.66042 0.69876
lord 0.54933 -0.10837 -1.0955 -0.47541 2.0872 -0.57409 0.23701 0.47555 0.004763 -0.76354 -0.71246 1.8315 -0.27094 -1.4849 -0.036377 0.25672 0.60525 -0.27187 -0.91206 0.032919 0.85587 0.18066 0.38097 0.10123 0.45287 -1.3344 -0.6031 -1.1351 -0.87775 0.30376 1.4215 -0.48462 -0.30674 -0.24264 0.93765 -0.081942 0.24684 -0.68954 -0.11685 -0.78254 0.1783 0.47414 -1.4938 -0.17657 -0.14473 1.0308 -0.65091 -1.8026 0.73279 -0.45704
loser -0.79297 0.16305 0.30819 1.0098 0.99815 0.15048 0.36436 1.1465 -0.58932 0.58372 -0.37425 -0.20003 -0.2729 0.23858 0.88477 -0.27243 0.41313 -0.36559 -0.43853 -0.043527 -0.8736 -0.49534 0.07049 0.51142 0.1594 -0.60558 -0.23214 0.057445 0.77836 0.11243 1.1796 0.8028 0.60034 1.1428 -0.38744 -0.50656 -0.053099 0.31502 0.20545 -1.8283 0.041014 -0.19025 -0.2694 0.21513 -0.14185 0.27891 -0.40218 -0.37374 0.87001 0.76955
lower -0.22492 -0.15599 0.33274 -0.75665 0.31325 0.2132 0.50755 -0.027856 -0.057906 -0.17188 0.37383 -0.70115 0.71375 -0.30271 -0.6462 1.1794 -0.38214 -0.8009 -0.3949 -0.96584 0.55352 -1.1825 -0.002944 -0.17211 -0.53418 -1.3003 0.14426 0.55481 -0.65616 0.57594 3.9183 0.22069 1.2892 0.3889 0.78073 -1.2605 -0.16506 0.061085 0.90305 -0.52317 -1.0507 0.15649 0.43754 0.50505 -0.50092 0.08064 0.59708 -0.53114 0.37657 -0.39513
male -0.23046 0.65937 -0.28411 -0.44366 1.5922 1.8564 -0.0054708 -0.58679 -0.1506 -0.021166 1.1029 -0.79502 1.1899 0.53535 0.25256 -0.15882 -0.31825 0.53609 -0.5944 -0.21288 -0.94989 0.91619 0.4879 0.77063 -0.16215 -1.0515 -0.70571 -0.79814 -0.79354 -0.086372 2.2497 0.68785 -0.085613 -0.68004 0.62212 -0.02536 0.10967 -0.38748 -0.62791 -1.0871 -0.37412 -0.061965 0.19225 0.89263 0.51763 -1.4791 -0.23219 -1.1589 0.066075 -0.038772
man -0.094386 0.43007 -0.17224 -0.45529 1.6447 0.40335 -0.37263 0.25071 -0.10588 0.10778 -0.10848 0.15181 -0.65396 0.55054 0.59591 -0.46278 0.11847 0.64448 -0.70948 0.23947 -0.82905 1.272 0.033021 0.2935 0.3911 -2.8094 -0.70745 0.4106 0.3894 -0.2913 2.6124 -0.34576 -0.16832 0.25154 0.31216 0.31639 0.12539 -0.012646 0.22297 -0.56585 -0.086264 0.62549 -0.0576 0.29375 0.66005 -0.53115 -0.48233 -0.97925 0.53135 -0.11725
manager -0.1344 0.26481 -0.29072 0.92514 0.57527 -0.88585 -1.9451 0.3927 -0.85374 -0.63413 0.65402 1.6947 -1.6364 -0.66441 0.61992 0.20232 0.40789 0.74426 -0.38899 -0.1671 -0.15473 0.0090774 -0.63692 -0.20714 -0.59436 -1.2637 0.69894 0.19126 -0.26967 -0.13159 2.313 0.25324 0.5813 -0.3288 0.065847 0.27977 0.18654 0.41425 1.1704 -0.6225 0.25412 0.13517 -1.2058 -0.25147 0.3275 -0.38814 -0.84137 0.51952 0.46038 1.4685
manual -0.32876 -1.0537 0.20566 -0.17325 -0.83833 0.44103 0.05372 -0.61021 0.65025 -0.64962 -0.17785 -0.27936 0.11455 -0.064173 0.0011811 -1.138 -1.4634 0.49568 0.71477 -1.2669 -0.34851 -0.25276 -0.31971 0.32591 0.58678 -0.69867 -0.48347 -0.69412 0.3667 0.36018 2.198 -1.0007 -1.5987 0.062704 0.64497 0.68462 0.85474 0.29585 0.13526 0.38759 0.49985 0.017594 -0.44791 0.7218 -0.34394 -0.20225 1.2638 0.4225 0.33378 0.5767
masculine -0.55825 0.81195 -1.5768 -0.37689 1.1969 1.3889 1.6179 -0.83126 -1.8477 0.29821 1.2659 0.43251 0.69397 -0.089357 -0.15786 -0.045752 -0.61497 0.28342 0.87986 -0.30747 -1.5843 -0.31704 -0.32561 1.2145 0.12898 -0.34322 -1.2979 0.081802 0.23042 -0.17331 1.2146 0.14051 0.29568 0.2355 0.61395 0.026719 -0.060696 -0.30671 -1.3246 -0.20016 0.85695 -0.032205 0.74342 0.5055 0.33905 -0.79746 0.77524 0.13335 0.51865 0.016729
mechanic -0.24992 -0.14835 0.36836 -0.23635 0.21756 0.24181 -0.96066 0.057067 0.057627 -0.45071 0.64581 0.40478 -0.60449 0.73224 -0.081558 -0.45301 -0.58275 1.8187 0.028008 -0.58413 0.19123 0.79314 -1.2989 0.55392 0.36736 -1.0035 -0.166 -0.34396 0.6776 0.67796 0.70341 -0.44847 -0.23275 0.35699 1.2905 0.60943 0.14624 0.52262 0.91076 0.39309 -0.034832 0.22151 0.023284 0.12708 0.18899 -0.58619 0.12277 -0.13449 0.54791 0.88274
men -0.41714 0.46493 0.13769 -0.19283 1.0112 0.14966 -0.020232 0.37339 -0.37315 -0.89002 0.15083 -0.93411 -0.78542 -0.34753 0.84648 -0.463 0.12469 0.31815 -1.0671 -0.70007 -0.69082 1.0479 0.79692 0.54943 -0.41094 -1.7671 -0.60518 -0.59613 -0.19805 -0.51482 2.6693 0.79256 -0.37652 -0.27977 0.44484 0.28957 0.064096 0.35282 -0.62789 -0.091884 -0.25639 -0.26261 1.0343 0.59887 1.0275 -0.70789 -0.39715 -0.94399 -0.28476 -0.75795
middle -0.15502 1.0436 -0.22143 -0.89604 0.49455 -0.19016 -0.81716 0.0041689 -0.2364 -0.57123 -0.49098 -0.28047 -0.079195 0.35637 -0.51791 0.54929 0.52272 -0.28428 0.0691 0.65768 -0.16627 -0.050854 -0.08086 0.61476 0.31824 -1.4969 0.14623 0.12803 0.21027 0.321 3.3359 -0.16002 0.36246 -0.041022 0.52764 -0.11887 -0.74305 0.15915 -0.26379 0.1731 -0.93935 0.04574 0.12269 -0.16843 0.16338 0.42665 0.5911 -0.19491 -0.67296 -0.24048
modest 0.11315 0.24959 -0.06028 -0.98856 0.8195 -0.24239 -0.62164 -0.2193 -0.30815 0.78228 -0.64386 -1.014 0.46303 -0.56358 0.21604 -0.12865 0.11587 -0.59201 0.1215 -0.65598 0.33272 -0.37137 -1.2254 -0.77157 -0.071311 -0.30027 -0.47118 0.54788 0.55082 0.84862 2.7508 0.39027 0.85929 0.24675 0.48175 -0.27898 0.021458 0.70588 -0.30417 -1.1077 -0.63962 -0.25433 -0.061262 -0.15203 -0.19643 -0.44846 0.074239 0.26281 0.4904 0.55175
monarch 0.52748 0.7944 -0.9015 0.018535 0.68097 -0.02934 0.15151 0.41934 0.18923 -0.34873 0.65188 0.84659 0.88169 0.81737 0.31812 1.0194 -0.74404 -0.056681 -0.075854 0.41239 -0.51992 0.17641 -0.37935 -0.053637 0.18367 -1.5343 -0.37996 -0.49472 -0.5653 1.634 1.048 0.38773 -0.74493 0.98336 0.4309 -0.095272 0.22378 0.1449 -1.2628 -0.25295 -0.21009 0.7109 -0.34765 0.79243 -0.38463 0.62687 -1.1777 -1.0875 -0.22916 -0.93826
mother 0.4336 1.0727 -0.6196 -0.80679 1.2519 1.3767 -0.93533 0.76088 -0.0056654 -0.063649 0.30297 0.52401 0.2843 -0.38162 0.98797 0.093184 -1.1464 0.070523 0.58012 0.50644 -0.24026 1.7344 0.020735 0.43704 1.2148 -2.2483 -0.41168 -0.24922 0.31225 -0.49464 2.0441 -0.012111 -0.19556 0.085665 0.27682 0.015702 0.0067683 0.12759 0.87008 -0.40641 -0.21057 0.41651 -0.021812 -0.53649 0.54095 -0.43442 -0.52489 -2.0277 0.13136 0.11704
musician -1.3565 0.66141 -0.46193 -0.56495 0.08688 0.79768 -1.4832 0.61977 -0.70475 1.5839 1.086 0.43045 0.40255 0.85173 0.27945 -0.82538 0.69985 0.58247 -0.22825 0.081204 -0.24675 1.3155 -0.13167 0.8259 0.56519 -0.31518 -0.66766 -1.0045 -0.45011 0.32634 1.8767 -1.2875 0.55124 0.11902 0.5913 0.19703 0.39711 -0.045702 0.43166 -0.042202 0.33576 0.85089 -0.66536 -1.0295 0.33217 -0.3151 -0.45464 -1.0107 -0.98699 0.81104
native -0.62222 0.3081 -1.1224 0.55351 0.74202 0.52399 -1.3528 -0.49925 -0.75532 -0.27378 0.63238 -0.64454 2.0288 -0.98171 -0.14758 -0.098716 0.12665 0.15187 -0.84544 0.11103 -0.92407 -0.14377 -0.26808 0.61 0.42525 -1.0735 0.2082 -0.70281 0.069528 -0.29644 2.5003 -0.80626 -0.16872 -0.46772 0.38786 -0.68372 -1.1278 -0.11814 -0.033518 0.16859 -0.12373 0.13096 0.81825 0.07711 0.53374 0.49979 -0.24328 -0.81605 -0.35339 -0.31288
nephew 0.571 0.63276 0.25641 -0.38769 1.1221 0.4681 -0.60813 0.68474 -0.82232 -0.0022033 -0.039096 1.1427 -0.69085 -0.56846 0.34279 -0.27186 -0.52559 -0.0014279 0.055748 0.68362 -0.35051 0.58132 -0.24227 -0.086013 0.30653 -1.5762 -0.24681 -1.1256 -0.30846 0.61764 0.436 -0.53329 -0.42679 0.32735 1.1429 0.19529 -0.070294 0.58115 0.1406 0.15376 0.17714 1.0474 -0.81261 -0.271 0.42968 -0.20878 -0.93069 -1.5233 0.3253 -0.011381
niece 0.64921 1.0824 -0.37714 -0.52423 0.85992 1.173 -0.49917 0.62601 -0.39527 -0.28115 -0.085819 0.79177 -0.039306 -0.38345 0.69961 -0.36064 -1.1219 -0.13003 0.74889 0.74821 -0.28196 1.0999 -0.37026 0.20918 0.71448 -1.3201 -0.51529 -0.54878 -0.093548 -0.0684 -0.085695 0.015073 -0.061573 0.50358 0.65985 0.077624 -0.32022 0.44208 0.39937 -0.3754 0.066006 0.69722 0.091393 -0.52 0.14379 -0.55694 -0.29798 -1.7896 0.30053 0.13736
nurse 0.36782 0.15792 -0.74678 -0.96598 0.65514 0.66296 -0.64188 0.743 0.83042 -0.8968 0.6507 0.28245 0.63245 0.45723 0.19308 -0.53689 -1.0466 0.59911 0.17347 0.38263 -0.36344 1.9267 0.14998 0.46042 -0.067341 -1.239 0.012827 -0.56977 -0.37873 -0.010404 1.4251 0.29083 -0.035939 -0.15908 0.60795 0.53441 0.36149 0.0092758 1.6148 -0.50486 -0.12611 0.22362 0.59278 0.067698 0.85947 -0.83988 0.030867 -0.63665 0.016348 1.4526
nurturing 0.20953 0.43246 -0.55881 -0.51582 0.99311 0.102 0.015907 -0.39449 0.6008 1.0849 0.37882 0.32533 0.38747 0.44069 -0.90314 -0.079346 0.43596 0.79556 1.386 0.31923 -0.41132 1.2042 -0.093098 -0.035358 0.58066 0.20154 0.19776 -0.48854 0.69224 0.48446 1.0673 1.059 0.065649 -0.96734 -0.07677 0.6701 -1.2333 0.74175 -0.38976 -0.59781 -0.52598 -0.95003 -0.11586 0.20261 0.72011 -0.30564 -0.044447 -0.22118 -0.18362 0.36107
officer 0.048403 -0.60703 0.19108 0.18007 1.2004 -0.38643 -0.34321 0.39655 0.1951 -2.0934 0.39803 0.72219 -1.3195 -0.25446 -0.12097 -0.65 -0.77295 0.78416 -0.68292 -0.12336 0.33054 0.85368 -0.19965 -0.35512 -0.70488 -2.1958 0.043192 -0.61629 -0.52754 0.50451 2.0258 -0.68392 -0.12524 -0.76935 0.4499 0.42726 0.0019608 -0.4774 0.70645 0.31818 0.16379 0.72187 -0.0033517 -0.42225 0.22137 -0.97757 -0.42858 -0.14924 0.22345 1.057
passive 0.17252 0.1239 0.50418 -0.49585 0.16655 0.49416 0.8955 -0.43951 -0.4243 0.73436 0.89411 -0.012412 0.86919 0.81026 -0.93238 0.24103 0.077307 0.4449 -0.27524 -0.77186 -0.37438 0.094795 -0.5363 0.025309 -0.052845 -0.56469 0.26582 0.10484 0.8531 0.58047 1.5916 -0.043035 0.092363 -1.3281 -0.67963 -0.04754 0.33456 -0.38687 -0.43537 -0.52811 0.73436 -0.14156 0.16794 1.569 0.13758 -1.1909 0.14232 0.18586 0.23521 0.824
pilot 0.71591 -0.1823 0.59495 -0.10324 -0.17107 0.28205 -0.89865 0.57488 0.69234 -0.79392 0.83707 0.56658 -0.23263 1.2802 0.078758 -0.47402 -0.76294 0.87332 -1.3297 -0.40187 -0.20272 0.82063 -0.29414 -0.17837 0.56437 -1.6316 -0.27048 -0.35347 0.11791 0.3656 1.8555 -0.37432 -0.46504 -0.13966 0.92002 0.13795 0.76497 -0.2693 -0.21149 -0.03237 -0.043753 0.29203 0.42256 -0.3509 -0.41912 -0.88538 0.1945 0.28401 -0.27501 1.1425
plumber -0.75342 -0.1719 0.68753 -1.0441 0.059783 0.25787 -0.83999 0.35012 -0.91175 0.017793 0.03051 0.36016 0.78585 0.64944 0.25156 -0.2608 -0.43827 1.5138 0.65704 0.14945 -0.21787 -0.29877 -0.89521 0.56098 0.67025 -1.3257 -0.26522 -0.081734 0.83351 0.13219 -0.49281 -0.26673 -0.77467 0.42764 0.21527 0.86877 -0.12306 0.50665 1.1813 -0.231 0.21027 0.55691 -0.6065 0.41793 0.27694 -0.082552 -0.065403 0.18556 0.66973 0.39286
poor -0.53819 -0.40788 -0.1963 -0.80821 0.077145 0.025785 -0.50482 -0.068887 0.13628 0.28619 0.08215 -0.26886 0.3935 -0.94845 0.21612 -0.19433 0.17588 -0.28373 0.53496 -0.26135 -0.54512 0.49143 -0.32752 -0.040662 0.41689 -1.0261 -0.056752 -0.43134 0.50692 0.69811 3.5451 0.79069 0.75455 -0.42825 0.075692 0.35466 -0.38997 -0.021445 0.55851 -0.56601 -0.79644 0.038788 0.79469 0.32506 0.20975 0.20248 -0.63181 0.05218 1.0731 0.035629
power 0.045752 0.061422 1.1936 0.38875 -0.16884 0.36553 0.51774 0.047422 -0.42848 0.69177 0.31957 0.28587 -0.45329 0.1207 -0.69699 0.57517 0.20169 0.74569 -0.027183 -0.61737 0.26269 -0.39027 -0.37649 -0.69831 -0.05726 -1.9656 0.095767 -0.52099 0.87712 0.88263 3.54 0.39965 -0.74971 -0.49914 -0.019178 0.2373 -0.4485 0.040627 -0.020372 0.18229 -0.24345 0.45404 -0.62969 0.13692 -1.0847 0.79392 -0.73323 -0.45858 -0.30716 -0.73481
powerful 0.64857 -0.77899 0.64121 0.22266 0.82489 0.32197 0.59513 0.047379 -0.34683 0.74122 -0.04147 0.041426 -0.027348 1.0791 -1.1548 -0.40567 0.053099 0.68891 -0.59627 -0.5632 -0.65273 -0.29639 -0.47823 -0.24038 0.0027852 -2.046 -0.49674 -0.24164 -0.22207 0.64763 2.9441 -0.079037 0.12473 -0.31313 0.015134 0.49468 -0.70878 0.1232 -0.51342 -0.14081 -0.090665 1.0404 -0.35993 0.31251 0.48902 0.93089 -0.61808 -0.13709 -0.13628 -0.55602
powerless 0.37203 -2.1767 0.05393 -0.84882 0.48048 -0.37334 0.78484 0.95195 -0.25142 0.038779 0.34041 0.13667 0.12458 0.55331 -0.034973 0.72845 0.60861 -0.19955 0.85758 -0.09478 -0.89522 0.66674 -0.1807 0.48228 0.43579 -0.65652 0.19872 0.22629 0.6581 0.61834 0.93328 0.11058 -0.059225 -0.53163 -0.64122 0.29982 0.19004 -0.43666 -0.53466 -0.79409 -0.55864 0.027004 0.27245 0.45096 -0.61115 0.51831 -0.95661 -0.34071 0.23353 -0.12357
prince 0.98846 1.4535 -0.53081 0.10509 0.84058 0.14018 0.066562 1.3341 -0.75813 -0.35223 0.16588 1.0016 0.019623 -0.66392 0.092825 0.25132 -0.16274 -0.11954 -0.50072 0.67374 0.66886 -0.038679 0.20223 -0.15211 0.12169 -1.8324 -0.85664 -0.62454 -0.31896 0.60221 1.411 0.50157 -0.11413 0.51808 0.847 0.17618 -0.035265 0.56405 -0.38524 0.6027 0.34331 1.1836 -0.37197 -1.1069 0.00012758 -0.18202 -1.3696 -1.497 0.40618 -0.42445
princess 1.4992 1.6053 -1.1699 0.69597 0.63491 1.0803 -0.15271 1.0974 -0.12842 -0.74608 0.59572 0.76493 0.18664 -0.47217 0.72322 0.48368 -1.4334 -0.032644 -0.1652 0.38196 0.71329 0.89524 -0.26091 0.44074 0.52343 -1.2422 -1.8396 -0.10232 -0.081415 -0.087913 0.91303 0.69385 0.26242 1.0921 0.66015 -0.19193 -0.028172 -0.13914 -0.54633 -0.75658 0.45368 0.066445 0.49774 -1.2702 0.10915 -0.46564 -0.65682 -2.0678 0.72255 -0.35506
principal 0.12325 1.1677 -0.44947 0.12933 0.91337 0.41124 -0.27185 0.20575 -0.19833 -0.15176 0.20875 0.87656 -0.26322 -0.086636 -0.44982 -0.33763 0.4496 0.38789 0.34126 -0.086454 0.40952 -0.27297 -0.57138 0.30929 -0.49367 -0.76571 0.11653 -0.71442 -0.60964 0.42151 2.4809 -0.61993 0.48601 -0.72205 0.76234 -0.019591 -0.059545 0.14071 0.48224 0.30796 -0.24592 0.17762 -0.21305 -0.15417 -0.27275 -0.47485 -0.44734 -0.063629 -0.022647 0.97729
privileged 0.045294 0.5957 -0.45838 -0.34224 1.2104 -0.073165 0.12647 0.44981 -0.60536 -0.085415 0.31444 0.030552 0.7966 0.12192 -0.40886 0.24052 -0.13112 0.28633 1.6062 0.12876 -0.32253 0.89453 -0.12015 1.0019 0.057136 -0.60196 -0.45161 -0.35571 0.45499 0.37555 1.3396 0.42729 0.24249 -0.6088 0.15906 0.073842 -0.95278 0.36274 -0.87364 -0.65804 0.20737 -0.62453 0.75654 1.2991 -0.61572 -0.52957 -0.69349 0.038351 -0.23155 0.21084
professor -1.271 1.0787 -1.12 -0.36538 0.32833 0.083115 -0.2667 -0.83122 -0.52564 -0.39055 0.4586 0.58634 -0.4012 -0.39088 -0.034969 -0.014775 0.1092 0.67148 -0.30927 1.2483 0.46131 1.0847 -0.0096554 -0.27795 0.54413 -2.1955 -0.052889 -0.956 -1.7369 0.21237 1.542 -1.2809 -0.074123 -1.7072 -0.26871 -0.20991 -0.50894 1.2134 2.0732 0.63703 -0.034836 0.5916 -0.11023 0.062066 0.57382 0.19572 0.64698 -0.12321 -0.13005 1.0478
programmer -0.3862 -0.40884 0.76598 0.58568 0.20243 0.14395 -0.9007 -0.46146 -0.35441 0.83979 0.95076 0.60185 -0.14842 0.9477 0.1942 0.023208 -0.21186 0.73511 0.45871 0.24664 -0.065208 0.35623 -1.0016 1.0114 0.46821 -0.55781 0.081836 -1.0325 -0.089152 -0.16504 0.9785 -1.0487 -0.003983 -0.60491 0.27616 0.4222 0.0011545 0.24724 0.50306 -0.17217 0.94921 0.38069 -0.65799 0.3953 -0.24985 -0.28053 0.71539 0.38399 -0.14162 1.1197
psychologist -0.16067 0.65732 -0.68332 -0.20727 0.22471 0.59361 -0.63583 -0.1922 0.10231 -0.31632 0.35748 0.18417 -0.30311 0.28333 0.39816 -0.31861 -0.16768 0.4174 0.25127 0.45615 -0.20872 1.5903 -0.43657 0.48436 0.40087 -1.0805 -0.2716 -1.1731 -0.96709 0.34006 0.55265 -0.94012 -0.028992 -1.8991 0.10784 0.12831 -0.309 0.51023 1.9159 0.43331 0.14494 0.3532 0.36216 0.63645 0.90137 -0.1804 0.71481 0.27854 -0.29734 1.6936
queen 0.37854 1.8233 -1.2648 -0.1043 0.35829 0.60029 -0.17538 0.83767 -0.056798 -0.75795 0.22681 0.98587 0.60587 -0.31419 0.28877 0.56013 -0.77456 0.071421 -0.5741 0.21342 0.57674 0.3868 -0.12574 0.28012 0.28135 -1.8053 -1.0421 -0.19255 -0.55375 -0.054526 1.5574 0.39296 -0.2475 0.34251 0.45365 0.16237 0.52464 -0.070272 -0.83744 -1.0326 0.45946 0.25302 -0.17837 -0.73398 -0.20025 0.2347 -0.56095 -2.2839 0.0092753 -0.60284
rational 0.56313 -0.45506 -0.58902 -0.057162 1.7109 -0.2678 1.3802 -0.65203 -0.55549 1.2036 0.23436 0.37961 -0.090538 0.082863 -0.47323 0.054553 0.78251 0.12342 0.4924 -0.9529 -0.15015 0.14817 -0.27387 0.25271 0.72461 -0.044354 0.092176 -0.2752 0.65384 0.73354 2.1138 -0.52297 -0.79734 -1.1889 -0.13755 -1.1885 -0.27404 0.30287 -0.058494 0.26124 0.17658 -1.0104 -0.11459 1.5948 -0.37872 -0.13824 0.65092 0.8523 0.81705 1.0167
receptionist 0.42457 0.03651 -0.23988 0.039054 0.66381 -0.35343 -0.56239 0.63249 -0.046585 -0.90682 -0.19322 -0.16468 0.19537 0.7122 0.18067 -0.010877 -1.269 0.88163 0.86126 0.3668 0.24915 1.6152 -0.61126 0.51472 0.47366 -0.45455 -0.047693 0.55947 -0.21052 -0.52759 -0.182 0.12898 0.31645 0.4431 0.37819 0.51422 0.47536 0.31163 0.97398 -0.076638 0.31017 0.30667 -0.13393 0.41523 -0.16776 -0.86361 -0.084041 -0.045056 0.52448 0.93277
researcher -0.15915 0.64368 0.081401 0.4025 0.037806 0.064515 -0.62787 -0.40838 1.1116 -0.12852 0.56703 0.10558 0.030658 0.011764 0.12401 -0.27049 -0.066166 0.07602 -0.1004 1.0429 0.042428 0.74411 0.51307 -0.23152 0.8501 -1.5137 -0.35412 -1.1809 -1.5275 0.31451 1.2057 -0.98208 0.40158 -1.709 -0.71251 -0.25582 -0.6088 0.92119 1.4574 0.13508 0.31765 0.39841 0.42538 -0.1663 1.4806 -0.4728 0.42297 0.18094 0.041738 0.97377
rich -0.13083 0.77821 -0.5807 0.63048 0.87534 0.13936 -0.60533 -0.13369 0.01771 0.82766 -0.22672 0.36959 0.81203 -0.19854 0.17068 0.25915 1.546 -0.068932 0.59658 -0.047905 -0.30648 0.12247 0.47389 0.080902 -0.29247 -0.85386 -0.38747 0.28026 0.83585 0.14103 2.6517 -0.36162 0.45547 -0.20459 0.30674 0.41884 -1.7608 0.55768 0.18353 -0.27859 -0.2256 0.95681 0.34589 -0.41274 0.0021254 0.30858 -0.80916 -0.27644 -0.47798 -0.073175
ruler 0.19657 0.059089 -0.27663 0.47725 1.052 -0.78805 1.2796 0.58969 -0.85448 0.22623 0.37946 0.83642 -0.13429 -0.056496 -0.1593 0.56764 -0.15282 -0.01465 0.048232 1.2575 -0.7272 -0.33403 -0.10723 -0.43123 -0.11487 -1.922 -0.67586 -0.81756 0.022359 1.5539 1.2423 -0.55764 -0.80599 0.85887 0.56551 0.30663 -0.41328 0.47797 -1.3091 -0.0099826 0.0040093 1.0739 -0.61957 0.16715 -1.0849 0.4209 -1.0403 -1.1034 -0.21083 -1.1342
scientist -0.1574 0.60965 0.33007 0.099683 0.48562 0.047824 -0.73879 -0.53599 0.32418 0.12761 0.59657 0.40019 0.04229 0.67915 0.17035 -0.0092601 0.5116 0.87818 -0.69902 0.89466 -0.12511 0.82933 0.12066 -0.27192 1.0609 -2.2313 -0.52398 -0.88116 -1.0067 0.65938 0.92674 -1.8196 -0.71182 -1.4838 -0.2425 -0.070873 -0.66168 0.93268 1.1923 0.10765 0.39583 0.60167 0.21796 0.021389 1.2813 -0.0055883 0.25846 0.45233 -0.11514 0.54043
secretary -0.14508 0.14645 -0.76128 0.38553 0.74353 -0.85069 -0.36512 -0.23606 -0.45598 -2.2532 -0.36514 1.2269 -0.4517 0.080076 0.35906 0.057693 0.0224 -0.30034 0.77982 -0.042606 -0.070339 0.17696 0.52656 -1.0707 0.39665 -1.8003 0.94531 -0.062871 -1.6083 0.76949 2.3832 -0.34606 -1.0622 -0.48185 -0.40752 -0.61545 -0.011299 0.15103 -0.13221 0.52839 -0.85786 1.1558 -0.35048 -1.3524 0.22705 0.29751 -1.3352 0.56035 0.27708 1.1954
sensitive 0.13587 -0.27435 0.088274 0.4532 0.71483 0.10369 0.42474 -0.1341 0.41129 0.36292 0.13239 -0.049227 0.71824 0.77295 -0.1024 1.0608 -0.1588 -0.28227 0.59049 -0.075441 0.55845 0.41001 0.33978 -0.10787 0.49432 -1.3862 0.22782 0.50691 0.92312 0.20025 2.7084 -0.82669 0.63983 -1.2317 -0.091686 0.10459 -0.38566 0.21824 -0.85244 -0.25893 -0.18512 -0.15021 0.96767 0.63292 0.58342 -0.093323 0.16352 0.89909 0.0053384 0.0043215
she 0.060382 0.37821 -0.75142 -0.72159 0.58648 0.79126 -0.72947 0.68248 -0.12999 -0.22988 0.11595 0.22427 -0.44679 -0.11515 1.0334 -0.088019 -0.78531 0.34305 -0.11457 -0.11905 0.45883 1.6333 0.68546 0.22308 1.0099 -2.6332 -0.52128 0.25665 0.023468 -0.82616 3.1084 0.27219 -0.29227 -0.47259 -0.12297 -0.13545 0.11192 0.86438 0.33121 -0.96616 -0.044785 -0.06674 0.0030367 -0.33905 0.017784 -0.58499 -0.005014 -1.257 -0.060723 0.42247
sister 0.73844 1.2935 -0.011455 0.092898 0.57597 1.2912 -1.0506 0.57835 -0.14364 -0.46163 0.48305 0.55707 -0.32888 -0.19178 0.31023 0.079763 -1.2981 0.18495 0.52382 0.66812 -0.075753 1.4345 0.1894 0.98617 0.67427 -1.4132 -0.33093 -0.36307 -0.14782 -0.61211 1.7107 0.17398 0.23408 0.026432 0.1582 -0.50177 -0.037997 -0.00063127 0.28831 -0.57345 0.13439 0.02288 0.069726 -0.96704 0.14316 -0.26588 -0.63387 -2.0158 0.024152 0.59217
skilled -0.79132 -0.71568 0.13341 -0.98752 0.6375 -0.37733 -0.37084 0.59413 -0.23946 0.08453 0.86387 0.0057082 1.0889 0.58049 -0.19588 -0.7252 1.0888 1.198 0.28997 -1.232 -0.24147 0.24553 -1.2275 0.31825 0.61008 -0.71372 -0.028779 -1.5985 0.1245 0.93552 2.0584 -0.036749 0.43033 -0.36359 0.72712 1.1629 -0.38755 0.88814 0.12069 -0.4521 -0.074166 0.3906 0.88052 0.96126 0.93589 -1.1222 -0.010834 0.51407 -0.32143 0.55836
smart -0.051342 -0.28753 0.82755 0.12722 0.46844 0.0038295 -0.4318 -1.1316 -0.28952 0.60025 -0.32302 0.3647 -0.26373 0.41625 -0.35763 0.36209 0.13728 1.1499 0.24038 -0.71581 0.093982 0.68847 -0.61259 0.65653 0.62681 -1.2954 -0.4377 -0.12567 0.76713 -0.61208 2.0342 0.2605 -0.19958 -0.1012 0.55044 0.13263 -0.086022 0.63799 -0.61907 -0.84927 0.71463 0.33314 0.082519 0.23978 0.6821 0.087969 0.36122 -0.043632 0.60344 1.5803
soft -0.29208 -0.30146 -0.64701 -0.083635 -0.027044 0.80033 -0.23971 -0.83227 0.049968 0.75226 -0.11204 -0.052022 0.70529 0.68667 -0.49238 0.43548 0.04577 -0.042975 0.10773 -1.274 -0.27802 0.18584 0.93145 -0.43046 -0.56604 -0.82544 -0.18668 1.4612 0.89465 0.033912 2.9115 -0.18999 -0.16145 0.78055 -0.32845 -0.18613 -0.58778 0.57453 -0.051598 -0.85 0.24428 0.49305 -0.21182 0.4119 0.70518 -0.021864 -0.23482 -0.22918 0.053951 0.11788
soldier -0.05888 -0.11433 0.09146 -0.77894 1.9506 0.21856 -0.1399 1.0741 0.033428 -1.5337 0.28216 -0.76785 -0.13984 0.1924 0.19225 -1.0372 -0.48361 0.5671 -0.87931 0.59897 -0.66722 1.2274 -0.19013 0.00091553 0.047809 -1.9535 -0.58352 -0.34564 0.61133 0.53076 1.8786 -0.88464 -0.79512 0.26986 0.45681 1.1192 0.21999 -0.96335 -0.19483 -0.22456 0.38594 0.099907 0.30191 -0.84675 1.0729 -0.90199 -0.18362 -0.19243 -0.044231 -0.12519
son 0.2771 0.97784 -0.1447 -0.48693 1.1714 0.67133 -0.86157 0.63143 -0.98881 -0.11358 0.2246 1.2442 -0.59939 -1.0432 0.67863 -0.10454 -0.62641 0.17461 -0.1696 0.95344 -0.46932 0.89562 -0.30832 0.10274 0.80234 -2.4357 -0.47613 -1.2526 0.1124 0.45486 1.7478 -0.45626 -0.63565 0.56231 1.0432 0.063764 0.10414 0.21323 0.56448 0.11494 -0.032541 0.75053 -0.71651 -0.50863 0.52775 -0.51207 -0.72506 -1.8436 0.38052 0.36673
strong -0.28486 0.15815 0.044641 0.074495 0.62572 0.32729 0.011979 0.054972 -0.23145 0.66981 0.30527 -0.28122 -0.1431 -0.12982 -0.73904 -0.025547 0.27519 -0.41614 -0.40354 -0.86711 -0.63341 -0.058841 -0.44273 -0.79434 0.27998 -1.4932 -0.15541 0.18691 0.12789 0.84641 3.8373 0.45602 0.76044 -0.54549 -0.32262 -0.59138 -0.68035 -0.20346 -0.50434 -0.72351 -0.15833 0.32317 -0.36685 -0.38641 0.59325 0.19611 -0.31782 0.53302 -0.15775 0.23456
submissive -0.13251 -0.69106 -0.76331 -0.27338 1.106 0.75945 0.95246 0.32301 -0.60729 -0.12009 0.65656 0.30211 0.75615 0.66015 -0.46358 0.46095 -0.44374 0.1847 1.0644 0.15752 -0.82787 0.61692 0.39517 0.93967 0.10651 0.073904 -0.10797 -0.16936 0.51557 0.67328 -0.22937 0.40173 0.4654 0.23577 -0.23402 -0.24186 -0.5144 -0.20724 -1.2939 -0.97359 -0.025204 -0.44233 0.0020661 0.94977 0.14582 -1.0437 -0.41759 -0.7593 0.013787 0.78186
success -0.09365 0.52359 -0.25771 -0.070594 -0.024704 0.15472 -0.71638 0.19921 0.37337 1.07 0.18652 0.14885 -0.90904 -0.29839 0.26002 -0.1573 0.62769 -0.054288 -0.45904 -0.11208 -0.038781 -0.01349 -0.029441 -0.29288 0.48665 -1.1699 -1.2364 -0.50309 0.28261 0.36255 3.0535 0.75565 0.058124 -0.6127 0.11773 -0.24694 -0.22847 0.58849 -0.78022 -0.95572 -0.46784 -0.54124 -0.67443 -0.50789 -0.2992 0.034926 -0.21086 0.28679 -0.099461 0.16039
surgeon 0.31462 0.0044402 -0.80809 -0.78141 0.22986 0.60042 -0.27203 0.91839 0.51617 -0.91246 0.67301 0.26002 0.4106 1.0857 -0.63832 0.088678 -1.0915 0.092535 -0.18965 0.444 -0.37377 0.65417 -0.285 -0.52242 -0.20594 -1.7577 -0.61303 -0.75945 -0.7113 0.70643 0.92767 -0.57082 -0.20808 -0.49124 0.58439 0.69078 0.73758 1.4494 1.5453 0.01451 0.26905 0.74402 -0.16282 0.25988 1.0436 0.30851 0.06195 -0.33605 -0.52644 1.4079
teacher -0.94921 0.98376 -0.57502 -1.3822 0.78417 0.32843 -0.43651 0.20278 -0.26856 0.29097 0.21552 -0.12359 0.18165 -0.20466 0.28223 -0.81792 -0.43124 1.0035 0.5199 0.51358 0.22949 1.3671 -0.49405 0.70599 0.63063 -1.7086 -0.070777 -1.0876 -0.8005 0.051295 2.3423 -0.29156 -0.24 -0.58339 0.76433 0.46498 0.19742 0.67336 1.105 0.13777 -0.18365 0.39083 -0.22634 0.094744 0.45203 -0.62911 0.52827 -0.26174 0.020753 0.9038
technician -0.56509 -0.223 0.83269 0.1923 -0.018455 -0.29718 -0.50163 0.35906 0.6497 -0.24027 1.1278 -0.11413 -0.012892 1.0392 -0.50893 0.10752 -1.0334 1.1852 0.053833 -0.17933 0.28381 1.2884 -0.82298 -0.34981 0.076709 -1.0031 -0.26973 -0.49239 0.053889 0.16624 1.1326 -0.89774 -0.1592 -0.53187 0.74071 0.96643 0.84749 0.58915 1.5843 0.12716 0.77856 0.21395 0.24201 0.353 0.71428 -0.43448 0.5574 0.23877 -0.016662 1.0362
therapist -0.037732 0.64631 -1.1295 -0.057846 0.078473 0.77255 -0.34444 0.27415 0.40395 0.42428 0.56492 0.39053 0.26854 0.55385 0.35787 0.072391 -0.92894 0.29235 0.67162 0.087947 -0.29733 2.0008 -0.30817 0.83271 0.42329 -0.73327 0.26855 -0.56263 -0.020327 -0.064637 0.80711 0.10392 -0.26806 -0.95315 -0.18967 0.22725 -0.0032478 0.42539 1.5954 -0.044196 0.57852 0.30616 -0.2181 1.34 0.57182 -0.39569 0.64053 -0.30934 -0.2226 1.543
tough -0.62506 -0.41594 -0.38828 -0.2393 -0.14216 0.031775 0.23745 0.23941 -0.55095 0.051646 -0.98923 -0.14361 -0.92158 0.57386 0.33701 -0.013238 0.86336 -0.28105 0.28156 -0.74946 -0.80004 0.29844 -0.35365 0.036641 0.14497 -2.0694 0.1724 0.52309 0.69278 -0.00092812 2.9257 0.43625 -0.50256 0.081334 0.023402 -0.012819 -0.092396 0.61191 -0.64909 -1.3195 -0.64253 0.24193 0.42437 0.17824 0.838 0.25057 0.24953 0.44416 0.2482 0.91655
uncle 0.30828 0.50937 -0.02286 -0.66421 0.95563 0.43608 -0.68614 0.73972 -0.88023 0.026364 -0.13174 1.5859 -0.12555 -0.40049 0.74548 -0.096073 -0.34112 0.29882 0.24039 0.43594 -0.22853 0.21569 -0.13658 0.27189 0.64196 -1.6696 -0.51955 -1.0778 0.4334 0.13731 0.97743 -0.27049 -0.3245 0.46832 0.57781 0.51137 -0.17575 0.21118 0.39055 0.10748 -0.054351 0.95589 -0.99623 -0.13569 0.4656 -0.085643 -0.64204 -1.8672 0.019242 0.38823
uneducated -0.76592 -1.2284 -0.057976 -1.6561 0.54423 0.10296 0.11526 0.059615 -0.77743 0.447 0.088813 -0.65465 1.5042 -0.39243 -0.10523 -0.48149 0.42501 0.76924 1.1682 -0.22503 -1.3155 0.83673 0.046889 1.1473 1.0885 -0.11296 -0.62656 -0.14256 0.64041 0.364 0.23093 -0.081088 0.38673 -0.088517 0.29813 0.42051 -0.47286 -0.058594 -0.11818 -0.33723 -0.49691 -0.052346 0.76891 0.71874 0.81759 -0.70714 -0.4744 -0.3167 1.039 -0.0042054
unskilled -1.1815 -1.1335 0.20275 -1.2736 -0.44252 -0.0017096 -0.22035 0.66083 -0.38492 -0.50766 0.75486 -0.85484 1.5387 0.03828 0.53439 -0.73062 0.8845 0.85806 1.3355 -1.4435 -0.18602 -0.53774 -1.0587 1.0424 0.69195 0.36623 0.47816 -1.184 0.64961 1.6151 1.094 0.063551 0.51618 0.48985 0.075668 0.66476 -0.50056 0.55211 0.19947 0.16406 -0.57262 -0.031002 1.1709 0.93195 0.88059 -1.7496 -0.26291 0.13535 0.3204 0.27698
upper 0.12799 0.62548 -0.14459 -1.0319 -0.08276 0.68185 0.2821 0.36912 0.0089649 -0.99278 0.11069 -0.60266 0.77258 0.46086 -1.6052 1.0376 0.016422 -0.24707 -0.14896 -0.012571 -0.47889 -0.64603 0.062036 0.43443 -0.53797 -1.1936 -0.4875 0.92416 -0.93303 0.024144 2.9732 -0.31154 0.84631 0.2219 0.77668 -0.24963 0.029139 0.038919 0.96168 -0.19648 -0.80976 0.25803 -0.082826 0.53999 -0.97106 0.23876 0.56675 -1.2796 -0.15478 -0.8253
waiter 0.0010186 0.15317 -0.63633 -0.90299 1.4728 -0.69947 -0.31038 0.6851 -0.77172 0.16982 -0.17791 0.46052 0.49981 0.97246 0.72712 -0.42105 -0.48167 0.92645 0.35002 -0.49734 0.69159 0.98602 -0.58876 1.1841 0.11512 -0.87345 0.014267 0.8042 0.4829 -0.14862 0.23879 0.1965 -0.21246 0.9186 0.51017 0.46474 -0.097612 0.24864 0.9647 0.1333 0.45416 0.95183 -0.058685 0.13567 0.2149 -0.60022 -0.015592 -0.15839 0.75954 0.52069
waitress -0.071998 0.14877 -0.97656 -0.41314 0.90367 0.062012 -0.72117 0.68329 -0.23448 0.26676 -0.26961 -0.14447 0.47145 0.81741 0.81491 -0.51165 -0.57859 1.0045 0.47708 -0.10698 0.44755 1.3578 -0.27112 1.3898 0.13703 -0.79167 -0.068445 0.5338 0.44303 -0.53202 0.27039 0.21561 -0.14019 0.6875 0.52253 0.18489 -0.33779 0.25334 1.0334 -0.34292 -0.024604 0.69373 -0.1769 -0.09989 0.42911 -0.7566 0.07826 -0.80378 0.63032 0.97174
weakness -0.12633 -0.27297 0.044661 -0.0077954 0.21376 0.17657 0.78715 0.23227 -0.25318 0.42208 0.42887 0.16349 -0.79281 -0.80975 -0.22733 0.69625 -0.84942 -1.0194 -0.042017 -0.47879 -0.12842 -0.48221 -0.33359 -1.0449 0.19547 -1.023 -0.80741 0.4734 0.91525 1.2816 2.3987 0.87261 1.7945 -0.51796 -0.5982 -0.38502 -0.93239 -0.41403 -0.016529 -0.59509 -0.40573 -5.6044e-05 -0.30274 0.25132 1.1698 -0.17808 0.39882 0.85382 0.3712 -0.16753
wealthy 0.61947 0.32216 -0.079381 -0.967 0.85085 0.45134 -1.1724 0.36317 -0.7928 0.52723 -0.43413 0.066337 1.1861 -0.12674 -0.028599 -0.050848 0.98822 0.43483 0.72043 0.15427 0.40836 -0.12086 -0.87069 1.0968 -0.59806 -1.6566 -0.29414 -0.86763 0.083115 0.5774 1.5112 0.25031 0.58804 -0.17866 0.64875 -0.23799 -1.7457 0.80708 -0.21331 -0.66782 -0.44904 0.614 1.0183 0.55372 0.24514 -0.33536 -1.8869 -0.95763 0.40618 0.078066
white -0.68652 0.80125 -0.6124 -0.1512 0.997 0.81749 -1.2089 -1.0221 -0.94054 -1.2689 -0.68195 -0.12212 0.6122 0.045025 -0.10808 0.12482 -0.17278 -0.45383 -0.37728 -1.4081 -0.42975 0.31746 0.61391 -0.76399 -0.75504 -1.5605 -0.14924 1.2023 0.36776 -0.49137 2.6151 -0.37237 -0.80641 -0.56119 0.028241 -0.20089 -0.36429 -0.51476 -0.23074 -0.72258 -0.086035 0.47341 -0.035288 -0.04892 0.85295 -0.25883 -0.48159 -0.79552 -0.12247 -0.098168
wife 0.57651 1.1396 -0.21861 -0.28966 1.1153 1.5722 -0.93256 0.64556 -0.46543 -0.51727 -0.15117 0.42836 -0.16713 -0.69901 1.1323 0.011065 -1.0741 -0.0339 0.69631 0.57713 0.18758 1.8321 0.18763 0.01924 0.79317 -2.219 -0.059368 -0.31341 -0.13352 -0.28548 1.6446 -0.10649 -0.17428 0.12541 0.35026 -0.21368 -0.060237 0.45354 0.62313 -0.5117 -0.093284 0.76768 0.068956 -0.73425 0.24843 -0.85864 -1.0081 -2.0724 0.232 0.37039
winner -0.7947 1.3491 0.35618 1.1359 0.2773 0.41597 -0.57895 0.97917 -0.01982 0.51328 -0.33508 -0.63775 -0.88386 -0.012587 1.3381 -0.93893 1.0081 -0.3931 -1.4919 -0.42658 -0.95814 -0.17075 -0.044237 -0.06052 0.38985 -1.536 -0.24375 -0.44012 -1.0374 -0.24263 1.732 0.43128 -0.71549 0.6709 0.28358 -0.51776 0.39477 1.438 -0.096459 -1.6725 0.38544 0.40399 -0.46937 -0.51862 -0.7792 0.079893 -0.010663 -0.5837 0.23932 -0.33589
wise -0.19843 0.26261 -0.31493 -0.70505 1.0853 -0.43422 -0.1732 -0.12752 -0.49894 0.13888 -0.27221 1.1532 0.24474 0.074336 -0.14856 0.069785 0.50749 0.0054832 -0.042577 -0.014136 -0.58156 0.45373 0.36331 -0.0071976 0.65179 -1.0061 -0.40919 -0.35964 0.35132 0.020769 1.5417 0.01391 -0.23353 -0.33854 0.30659 -0.23001 -0.06683 0.12929 0.10458 -0.73909 0.098422 0.0062996 -0.038803 0.30812 0.026377 0.0981 -0.13911 -0.014816 0.44125 1.4818
woman -0.18153 0.64827 -0.5821 -0.49451 1.5415 1.345 -0.43305 0.58059 0.35556 -0.25184 0.20254 -0.71643 0.3061 0.56127 0.83928 -0.38085 -0.90875 0.43326 -0.014436 0.23725 -0.53799 1.7773 -0.066433 0.69795 0.69291 -2.6739 -0.76805 0.33929 0.19695 -0.35245 2.292 -0.27411 -0.30169 0.00085286 0.16923 0.091433 -0.02361 0.036236 0.34488 -0.83947 -0.25174 0.42123 0.48616 0.022325 0.5576 -0.85223 -0.23073 -1.3138 0.48764 -0.10467
women -0.95897 0.86149 -0.53064 -0.19908 0.42945 0.93177 0.067319 -0.21413 0.39488 -0.53561 0.42881 -1.3334 -0.038192 -0.15667 0.94351 -0.21873 -0.15586 0.084439 -0.058604 -0.55145 -0.53281 1.2434 0.63441 0.79234 0.0097936 -1.7124 -0.77291 -1.0024 -0.69472 -0.50487 3.0517 1.4981 -0.32957 -0.53871 -0.21201 -0.14259 -0.02706 0.5858 -0.56642 -0.55984 -0.60905 -0.57062 1.3338 0.67097 1.0643 -0.4181 -0.44273 -1.0158 -0.35795 -0.31111
working 0.25792 -0.14413 -0.035634 -0.60551 0.11004 -0.058799 -1.2209 -0.031605 -0.023699 -0.37419 0.28924 0.12331 -0.31903 0.65017 0.28362 -0.20956 0.30423 0.75571 0.47964 -0.41976 0.68923 0.92026 0.070798 0.3948 0.24721 -1.4038 -0.14209 -0.6946 -0.035052 0.0041205 3.4024 0.036271 -0.58483 -0.72107 0.036996 0.33065 -0.27332 0.51897 0.3499 0.061199 -0.36178 -0.26534 0.4271 0.0081181 0.19844 -0.38564 -0.35535 0.032932 -0.50055 0.54358
writer -1.21 1.37 -0.47428 0.11 0.19885 0.046322 -1.4552 -0.31872 -0.37357 0.34674 -0.24556 0.75188 -0.38543 0.28268 1.2401 -0.90115 0.24726 -0.3151 0.029514 1.155 0.48686 1.1283 0.35129 1.1424 1.2789 -1.5428 -1.0867 -0.98924 -0.36251 0.52145 1.7248 -1.4641 0.83596 -0.99654 -0.62085 0.34529 -0.99507 0.511 0.2612 0.43872 1.2096 1.8496 -0.036029 -1.0227 0.29724 -0.023403 -0.17084 -0.19062 0.065723 0.68705
