accountant -0.15123 -0.11228 -0.0051207 0.38692 -0.11335 -0.24451 -0.49553 0.067083 -0.039806 0.067048 -0.30645 0.064626 -0.00015306 0.0052166 -0.0087405 0.27652 0.081652 -0.68696 0.11092 0.12938 0.18549 0.13785 -0.14508 -0.25375 -0.61358 0.3986 -0.035323 -0.041522 -0.2509 -0.094211 -0.53204 0.52503 0.24771 0.24702 -0.46682 0.38071 -0.15444 0.077307 -0.12129 -0.25905 0.39974 -0.0047311 0.0127 0.39538 0.63655 -0.29393 -0.068251 0.63259 -0.12805 -0.4498 0.14484 -0.074562 0.28635 0.44533 0.21274 -0.19609 -0.096646 0.050909 0.0043843 -0.21384 0.53299 0.0094123 0.17765 0.66748 -0.29845 -0.22528 -0.51398 -0.66074 -0.099812 -0.17384 -0.078572 0.22698 0.68363 0.20137 -0.53178 0.90809 -0.05063 0.26084 -0.21284 -0.0099372 -0.075408 0.39251 -0.022772 0.23688 0.49503 -0.014613 0.158 -0.085061 -0.40073 0.46642 -0.6022 0.72857 -0.18214 -0.63998 0.23764 0.65714 -0.36576 -0.42715 0.11809 -0.080917 -0.61459 0.18509 0.057402 -0.15879 0.12891 -0.33873 0.022434 0.24467 0.11476 -0.13294 0.082728 -0.00015902 -0.14694 -0.10086 0.069778 0.39074 -0.0403 -0.31769 -0.27272 0.46226 0.15354 1.0709 -0.50364 0.38285 0.33321 0.10768 0.1358 -0.19371 0.13603 -0.22333 0.10636 -0.74234 0.27804 -0.10541 -0.30843 0.15048 -0.32005 0.016757 0.18126 0.15136 0.2995 -0.027442 0.17553 0.28935 -0.10577 0.4286 0.23053 0.1195 0.022774 0.14215 0.54454 0.073272 0.14778 0.1689 -0.061999 0.55085 0.27916 -0.41307 0.9736 -0.26473 -0.43378 0.40551 0.15167 0.5197 0.16491 -0.06241 -0.0080784 0.096753 0.41896 0.21178 -0.50264 -0.068339 -0.34967 -0.1814 -0.011563 0.10828 0.4597 -0.84744 -0.048643 0.42638 0.21648 -0.030073 -0.16078 0.70878 0.35886 0.37052 -0.11836 0.27007 0.37853 -0.10728 0.20764 -0.21808 -0.21043 -0.1339 0.23241 -0.41515 -0.076985 -0.3435 0.18872 -0.077472 0.10875 0.23978 -0.13285 -0.068727 0.12531 -0.022068 -0.19913 0.32096 0.39628 -0.42903 -0.15033 -0.10154 -0.16235 -0.042613 0.26531 0.57176 -0.068662 0.035932 -0.28589 0.27718 -0.46185 -0.09123 -0.065534 0.19211 0.22361 -0.46254 -0.47996 -0.083847 -0.16688 -0.093145 0.6502 0.45672 0.29546 -0.4576 -0.28122 0.46261 -0.041505 0.1401 -0.41019 -0.092579 -0.11701 -0.55723 -0.0024038 -0.31213 0.61344 0.030252 0.14268 -0.73076 0.10654 -0.23576 0.093056 0.091264 -0.34138 -0.33548 0.55327 -0.34708 -0.3473 0.60877 0.17734 -0.040481 -0.79404 0.70207 -0.48175 0.19846 0.40436 0.55364 0.48123 -0.40098 0.049817 -0.27485 -0.6029 0.28131 0.27551 -0.067081 -0.41049 -0.39261 0.13621 -0.013524 -0.010431 -0.58888 0.3578 0.20391 -0.29119 0.0053564 -0.52336 0.29314 0.62303 0.53584 -0.2075 -0.31229 0.019003 0.33586 -0.58167 0.038582 -0.0017483 -0.13934 0.25159 0.0016669 -0.052569 0.2623
actor 0.083625 -0.23203 0.46504 -0.067155 -0.078414 0.030673 -0.47183 -0.56779 -0.44429 -0.10784 0.38258 0.12359 -0.31858 0.60319 -0.18057 -0.30795 -0.3598 -0.2423 -0.14547 0.16099 0.10119 0.1303 -0.20428 0.12414 -0.18947 0.11407 0.276 -0.96091 0.65979 0.16489 -0.89532 0.51253 -0.40716 0.071286 -1.2818 -0.54646 -0.054136 0.022776 0.53748 0.48346 -0.53118 -0.61719 0.38119 -0.054081 -0.17197 0.16456 0.013061 0.29687 0.22463 -0.37287 0.26628 -0.5304 -0.096467 0.39477 0.19652 0.0018393 0.21701 0.10433 0.22473 -0.64279 -0.17439 0.37735 0.30038 0.22865 0.13735 -0.16363 -0.14113 0.027962 0.44402 -0.28714 0.23174 0.28491 0.29665 0.24438 -0.2389 -0.13743 0.24515 0.46814 0.31813 -0.015911 0.071675 -0.24227 0.5306 0.39058 -0.13789 0.42613 -0.033113 -0.21318 0.034466 0.32786 -0.15554 0.17437 0.15342 0.0085157 -0.46914 0.54081 0.55263 -0.85611 0.011779 -0.76121 -0.13694 -0.30395 0.14207 -0.23808 0.26249 0.52642 -0.53272 0.33948 0.35476 -0.89526 -0.009553 0.51357 0.49236 -0.20924 0.51847 0.38113 -0.18137 -0.64293 -0.45321 -0.55199 0.12666 0.51605 -0.52624 0.12172 0.081644 -0.096331 0.26507 -0.19681 0.13892 -0.7105 -0.35553 -0.54562 -0.10968 0.1083 0.67254 0.13253 -0.25928 0.091168 -0.17087 0.43834 0.55593 -0.13142 0.024463 -0.053418 -0.62294 -0.16837 -0.0060276 -0.44942 -0.67026 -0.25534 0.56021 0.13233 -0.0072195 -0.27653 0.7747 0.19221 0.16185 0.00086982 0.17895 0.47092 0.45959 -0.42578 0.18941 -0.11625 -0.18108 0.70898 -0.57038 0.082814 0.30751 -0.028846 0.21055 -0.33207 -0.79721 0.30705 0.015078 -0.0051775 -0.22533 -0.84959 -0.056645 0.2742 -0.21545 0.19739 0.23371 0.34979 -0.11657 -0.18766 -0.85663 -0.11167 -0.13862 -0.19902 -0.23214 0.1611 -0.015748 -0.024803 -0.0049239 -0.3986 -0.1814 -0.097353 -0.022783 -0.65803 1.9747 0.012209 0.37599 -0.20041 0.53606 0.37307 0.38883 0.40937 -0.67728 -0.22611 0.063252 -0.11198 0.18074 -0.42202 0.32641 0.45559 0.024777 0.035902 -0.045794 0.28078 -0.86678 -0.076784 0.24805 -0.036682 -0.073502 0.46078 -0.35899 -0.58237 -0.077536 0.14037 0.6855 0.29597 0.21108 -0.31186 -0.036129 0.68238 -0.028339 0.25259 -0.78446 0.26644 0.44573 0.33772 -0.060125 0.24868 0.027559 0.33483 -0.71951 0.099134 -0.57948 -0.19261 0.084263 -0.32189 -0.2351 0.48035 1.0067 0.0025504 0.49137 -0.10287 0.57398 0.11497 0.21585 -0.072519 0.09768 0.34681 0.45629 -0.12909 0.48796 0.57646 0.48344 0.053789 0.32649 0.28019 -0.31356 -0.17718 0.15761 0.14656 -0.29209 -0.45284 0.099907 -0.23786 -0.22467 -0.90457 0.27193 0.072917 -0.42001 0.61479 -0.1412 0.18369 -0.12464 0.95513 0.23944 0.40686 0.23481 -0.51018 -0.5823 0.13686 -0.39267 0.15117 -0.58778 0.29188
actress -0.035235 0.037278 -0.16938 -0.072053 0.098443 -0.39672 -0.4677 -0.65349 -0.4833 -0.34278 0.65673 0.053373 -0.39136 0.62659 -0.028378 -0.47035 -0.30023 -0.25199 -0.15809 -0.22443 -0.61274 0.025636 -0.46864 0.17339 -0.056592 0.14468 0.017473 -0.854 0.59171 0.4287 -0.78731 0.27907 -0.24613 0.33987 -1.2717 -0.20142 -0.33486 0.080446 0.80513 0.04527 -0.31354 -0.84085 0.32148 0.37364 -0.00065524 -0.22637 0.29504 0.88843 0.44332 -0.46743 0.051546 -0.39056 0.20963 -0.40752 -0.23998 -0.49785 0.11771 -0.50157 0.48259 -0.87519 -0.47846 0.35759 0.66168 0.068849 0.12 -0.37519 0.029606 -0.18204 0.058943 -0.2744 0.079996 -0.2595 0.075804 -0.15543 -0.13527 0.13571 0.75313 -0.28437 -0.10956 -0.20507 -0.86573 -0.010392 0.65342 0.27383 0.085023 0.49032 -0.20903 -0.091666 0.50762 -0.11581 -0.4578 -0.10042 0.46999 -0.050464 -0.43589 0.55918 0.011258 -1.3617 0.049407 -0.60799 0.032461 -0.28587 0.14052 -0.19901 0.015943 0.72466 -0.27672 0.014186 0.5486 -0.49557 0.20951 0.85572 0.43482 -0.66112 0.65154 0.49056 -0.081084 -0.11489 -0.04277 -0.28586 0.35582 1.0729 -0.17559 -0.083018 -0.05186 -0.038065 0.23314 -0.27188 -0.13828 -0.74424 -0.26279 -0.56144 0.0042727 -0.12427 0.4545 0.21787 -0.58224 0.70853 -0.19769 0.81957 0.53226 -0.11519 -0.17516 -0.32769 -0.32444 -0.35557 0.32913 -0.2505 -0.17217 0.11716 0.57315 0.032511 0.064194 -0.16693 0.34536 0.47577 -0.10428 0.18889 0.03129 0.24084 0.39057 -0.11092 0.55598 -0.034483 -0.33702 1.2441 -0.7611 0.26084 -0.036571 0.06677 -0.15791 0.44593 -0.39391 0.15675 -0.19346 -0.26226 -0.61496 -0.83156 -0.039757 0.65557 -0.41974 0.15662 0.6719 -0.21532 0.0048103 0.035734 -0.88173 -0.4051 0.24947 -0.48999 -0.55523 -0.0064322 -0.77177 -0.52163 -0.41175 -0.096776 -0.042698 -0.2657 -0.17426 -0.89969 2.1389 -0.18424 0.4966 0.54839 0.50303 0.21862 0.6243 0.25851 -0.32381 0.31946 0.026979 0.073594 0.13389 0.25697 0.46758 -0.0064195 -0.20745 -0.56829 -0.27126 0.2734 -0.43474 -0.22541 0.11251 0.036356 -0.86653 0.99499 -0.18475 -0.76799 0.037304 0.212 0.90736 -0.34378 0.0075717 -0.22793 -0.43535 0.72652 -0.11039 0.65101 -0.46131 -0.084853 0.59295 0.12848 0.024788 0.36778 0.082929 0.57986 -0.44808 0.11807 0.18363 0.56362 -0.15172 -0.62057 -0.47163 0.34809 0.69164 -0.9237 0.21062 -0.43122 0.56251 0.22218 -0.19 0.055251 -0.34831 0.0085725 0.24186 -0.09429 0.11809 0.30457 0.90957 -0.08338 0.52552 -0.18635 -0.54058 -0.43046 0.029228 0.51307 0.26563 -0.41917 -0.22298 -0.12783 -0.1501 0.26327 0.0038631 -0.28798 -0.80569 0.65729 -0.053702 0.36537 -0.13927 0.99746 0.51442 0.14834 0.60478 -0.14226 -0.57183 0.12282 -0.48121 0.3032 -0.19472 0.37981
advanced -0.55056 0.32679 0.60407 -0.19498 -0.2385 0.17672 0.24748 -0.095349 0.32176 -1.576 0.70815 0.19152 -0.00075912 0.35396 0.37015 0.086348 -0.22745 -0.45785 -0.11555 -0.012835 -0.33016 -0.050398 -0.38312 0.44802 -0.0042787 -0.48166 0.48402 0.53676 -0.28109 0.35149 -0.020381 -0.024952 0.63571 0.12966 -0.60386 -0.022457 0.32705 0.16897 0.53901 -0.077448 -0.26531 0.16796 -0.18509 0.034048 0.041648 0.24963 0.2102 0.54596 0.44026 -0.13667 0.056587 0.019587 0.31252 0.24123 -0.36869 -0.41236 0.28098 -0.38698 0.23058 -0.016315 -0.27663 0.23458 0.30885 0.14434 -0.73999 0.50579 0.20981 0.13979 -0.14265 -0.13097 0.15281 0.27906 0.38896 -0.41788 -0.090791 0.035441 -0.4888 -0.057264 -0.089239 0.19281 0.25293 -0.4895 -0.45614 -0.6328 -0.35371 0.092438 0.23941 0.048945 -0.29151 -0.38388 0.43199 0.13248 -0.042605 0.10829 0.47397 0.23226 -1.0116 0.56508 -0.05089 -0.37139 -0.23397 0.053694 -0.014521 -0.163 0.18412 -0.022721 -0.11872 0.43166 -0.84864 -0.050184 0.023192 -0.30729 -0.054267 -0.040431 -0.099096 0.10441 -0.23277 -0.28906 -0.12165 0.93942 0.090714 -0.0020417 -0.40473 -0.1104 -0.42713 0.24817 -0.3223 0.1504 0.066338 0.097385 -0.13326 0.044761 0.0098642 0.66661 0.027519 -0.042935 0.3368 0.3419 0.1605 0.69388 0.50582 -0.33111 0.65554 0.022662 -0.1592 0.47233 -0.12815 -0.36406 -0.74504 -0.11606 0.45187 -0.12169 0.2972 0.27941 0.50948 -0.12334 -0.70301 -0.12335 -0.24576 -0.36635 0.083641 0.0062904 -0.40839 -0.54134 0.24088 -0.1783 -0.15965 -0.15466 0.046705 0.27951 -0.20552 -0.31582 0.030455 -0.14084 -0.54817 -0.493 0.079506 0.13901 -0.10598 0.58898 0.16166 0.23932 0.12541 -0.29246 0.012591 -0.20286 -0.63925 0.40321 -0.24207 0.048347 -0.41091 0.74192 0.48868 0.34397 -0.089514 -0.044028 -0.24151 0.58567 0.27895 0.082235 0.39785 -0.12231 -0.21126 0.3103 -0.7384 -0.0046111 -0.62716 -0.18594 -0.15463 0.11023 0.30747 0.23591 -0.37715 -0.20311 0.058141 -0.48404 0.35521 0.27236 0.30385 -0.017965 -0.20889 0.31235 -0.38849 -0.047888 -0.51207 -0.0080211 -0.20116 0.085089 -0.10942 0.6026 -0.38426 0.48396 0.20956 0.55996 0.21781 0.14113 -0.3333 0.21072 0.069957 0.57806 -0.10536 0.63169 0.46047 0.046656 -0.14365 -0.15 -0.67125 -0.25851 0.018896 0.16077 -0.098848 0.017377 -0.36769 0.14 -0.25126 0.23868 0.27169 0.1045 -0.063698 0.21085 -0.1386 -0.13184 -0.43815 -0.31381 0.31351 0.55748 -0.81857 -0.10456 0.28369 0.38648 0.26568 -0.15529 0.24012 -0.22249 -0.38628 0.2275 -1.3446 -0.20093 0.0048608 -0.17393 -0.26378 -0.32666 0.12005 -0.35604 0.38582 -0.19248 -0.65516 0.25487 -0.097844 -0.14219 -0.19479 -0.3254 -0.097562 0.19291 0.22623 1.163 -0.022733 -0.98079 0.44732 -0.20697
african 0.24476 0.2764 -0.25165 -0.029891 -0.23247 0.64222 -0.34061 0.4487 0.38111 -1.2693 -0.26211 0.37062 -0.27254 0.0037884 -0.045628 -0.73516 0.4629 0.074262 -0.38373 -0.97878 -0.20828 0.25425 0.56532 0.53097 0.0027348 0.38379 -0.00045847 0.43711 -0.091051 0.50867 -0.43861 0.25909 -0.55716 0.12613 -1.0022 -0.44503 0.45958 0.74134 -0.26 -0.095862 -0.40544 -0.44217 0.01402 -0.5524 0.8312 -0.13207 0.033304 -0.27544 0.0555 -0.79217 0.47828 0.12106 0.1147 0.63062 -0.11573 0.51964 0.53582 0.09267 0.26657 -0.038119 -0.19669 -0.1067 0.99508 0.25822 0.15773 0.41694 0.37489 0.2486 0.30567 -0.41905 0.41266 -0.13583 -0.25459 -0.25682 -0.20002 0.03829 0.48351 -0.16143 -0.059673 0.25487 0.1514 -0.29494 0.35003 -0.070528 -0.36879 -0.48382 0.18563 -0.26723 -0.070944 -0.23184 -0.24947 -0.66388 0.30921 0.56967 0.094709 -0.38927 1.0356 0.19583 -0.14171 0.22672 0.29008 -0.18171 1.0677 -0.58169 0.25369 0.28536 0.25561 -0.11628 0.17456 -0.10378 0.49582 -0.20672 -0.74209 -0.2934 0.77893 0.047637 0.13702 0.17413 0.51162 -0.20571 -0.094653 0.35333 -0.11403 -0.48656 -0.18484 0.33164 0.18632 0.62706 -0.0012473 0.10688 -0.62904 -0.52094 0.39411 -0.71949 -0.19839 0.03876 -0.34106 0.13554 -0.4998 0.10853 -0.38848 0.063743 -0.0026817 0.088651 -0.53696 0.39191 -0.2057 -0.12141 -0.59097 0.29936 0.41661 -0.33591 0.61048 -0.062062 0.43036 -0.17713 -0.82699 -0.22238 0.57104 0.18426 -0.042878 0.24011 0.2116 0.47366 -0.41239 -0.33808 0.1809 -0.02896 0.095061 -0.69529 0.42893 0.17779 -0.77715 -0.13596 0.43796 -0.32766 -0.48677 0.35429 -0.49211 1.1705 -0.017595 0.13019 0.046051 0.13999 0.069374 -0.26631 -0.95975 0.55586 -0.68866 -0.2663 0.32936 -0.17892 0.40224 0.32437 -0.1203 -0.020339 0.53611 -0.28963 -0.42548 -0.12378 0.71952 -0.32127 -0.3832 -0.57493 0.55054 -0.18731 0.26733 0.036406 0.28614 0.15443 0.44966 -0.60551 -0.12266 0.39299 0.5314 0.19068 0.47792 -0.34981 0.099674 -0.38977 0.45353 -0.68363 -0.19551 -0.20445 -0.24599 -0.75641 -0.32135 0.30292 -0.30067 0.57059 0.32272 -0.041965 -0.51647 1.0213 0.029357 0.5043 -0.53902 0.036482 0.21787 -0.7928 0.061168 0.31367 -0.42274 0.085963 -0.055543 0.31646 -0.30316 -0.28595 0.19979 -0.27502 -0.12052 0.088154 0.58395 -0.42058 0.28291 -0.22546 -0.17319 -0.31797 -0.32822 0.64325 0.20768 -0.063465 -0.34818 0.11115 0.23373 0.078184 -0.0051521 0.8403 -0.46669 0.75336 -0.13116 0.35033 -0.14562 0.10859 -0.020041 0.40935 -1.996 1.244 0.51744 -0.0010074 -0.61276 -0.13726 -0.010315 -0.19317 -0.081229 -0.08776 -0.11298 -0.079694 -0.57365 -0.58348 0.091714 -0.61226 -0.25445 -0.11684 -0.11596 1.0168 -0.049431 -0.24313 -0.36675 0.021129
aggressive -0.096623 0.19135 0.25834 0.0038563 0.76472 -0.32479 -0.20449 0.5663 -0.046775 -1.5874 0.10877 0.55716 -0.033211 0.073053 0.053721 -0.081327 -0.11368 -0.64528 0.026567 0.36962 0.22808 0.11419 0.49965 -0.19737 -0.045025 -0.17511 0.26138 -0.59298 -0.31695 0.019619 -0.33096 -0.42764 0.35982 -0.68335 -1.0816 0.35307 0.024803 -0.24798 -0.22926 0.21958 0.057433 0.57774 0.64903 -0.57282 -0.011433 0.28558 -0.093059 -0.16885 -0.29179 0.15364 -0.35377 -0.18287 0.35899 -0.052953 -0.032082 0.3524 -0.44905 0.21057 0.46443 -0.26297 0.54819 -0.23435 0.19604 -0.3296 -0.06719 0.42205 -0.016024 -0.50912 0.52749 0.18646 -0.55801 0.26368 0.50119 0.26904 0.26985 -0.11595 0.12335 0.34471 -0.056248 -0.025931 -0.13885 -0.022925 0.34568 -0.5163 -0.071815 0.13752 -0.28437 0.093932 0.22758 0.13212 -0.11163 0.19665 -0.041281 0.27897 -0.18908 -0.32072 -0.46689 0.0057329 -0.12716 -0.20571 -0.23833 -0.050943 -0.1301 -0.08901 -0.10786 0.21123 -0.19345 0.36083 0.43992 -0.11204 0.23456 -0.34161 -0.83282 0.14511 0.086873 -0.045294 0.1052 -0.22832 -0.40977 0.023933 0.12617 -0.16326 -0.35332 0.15879 0.17486 0.25216 -0.20104 0.01609 0.44295 -0.23422 0.67397 0.27646 -0.35817 -0.20354 -0.53352 0.45723 0.36921 -0.18639 0.17575 0.44103 -0.29647 -0.29325 0.12092 0.10075 -0.47855 0.065381 -0.51638 0.10903 0.35458 0.28305 0.078578 0.0036135 0.28488 0.32105 -0.19811 -0.13108 -0.067559 0.11607 -0.20533 0.29509 0.22856 0.36241 -0.096358 0.23564 0.058997 -0.75473 -0.26864 0.096196 0.43596 -0.11318 0.78171 0.33114 -0.24404 -0.10726 -0.25981 -0.16821 -0.27809 -0.033011 -0.29094 0.38407 -0.37813 -0.66024 -0.20112 0.017322 -0.34832 0.1949 0.071014 0.0483 -0.025088 -0.44035 -0.41553 -0.068006 0.43793 0.20063 0.39024 -0.12217 -0.40276 -0.37563 0.59207 -0.086512 0.69292 -0.3986 0.041522 0.2345 -0.1543 0.56776 -0.54324 0.36776 0.30032 0.47966 0.44341 0.30675 -0.070434 -0.07798 -0.27409 -0.17991 0.29988 0.21781 -0.15896 -0.40478 0.10946 0.62769 -0.11122 -0.16177 -0.37867 0.094905 -0.14829 -0.1343 -0.0365 -0.10233 -0.24098 0.08384 0.77292 0.62544 -0.60095 -0.075723 -0.76331 0.19905 -0.35068 0.27265 0.30219 -0.056275 0.079056 0.10552 -0.6596 -0.24305 0.33587 -0.28349 0.23477 0.65921 0.34185 -0.46373 -0.38086 0.22302 0.74933 0.36325 0.24369 0.0073918 -0.32376 0.091394 -0.14257 0.1764 -0.82403 0.22259 -0.038015 0.0015815 -0.28921 -0.025106 -0.32578 0.26924 0.7596 -0.092438 -0.64709 -0.55362 0.38085 0.068794 -1.3747 0.51344 -0.014302 -0.6399 0.012822 -0.10194 0.32498 0.79683 -0.30759 -0.32133 -0.28935 -0.17823 0.25542 -0.48874 -0.19226 0.08133 -0.32704 0.41473 0.40361 0.27551 0.29342 -0.30315 0.28195 -0.36386
ambitious -0.082237 6.1281e-05 0.20452 -0.11957 0.70794 0.30192 -0.049073 -0.10081 -0.18893 -0.78889 0.48012 0.18478 0.16322 0.46874 0.053981 -0.11104 -0.30332 -0.25368 0.3125 0.38056 -0.46956 0.45874 -0.095762 0.78959 0.042684 0.26505 0.14608 -0.23392 0.22433 0.14465 0.46346 0.16602 -0.20375 -0.019736 -0.49366 0.71545 -0.15943 0.067593 -0.0023909 -0.028471 -0.19938 0.091489 0.25704 -0.25539 -0.23865 0.27875 -0.11023 -0.22937 0.040648 -0.86994 0.42253 0.15815 0.19175 -0.054875 0.069173 0.34137 -0.012885 0.27574 0.19776 0.097535 -0.2325 -0.37081 0.0002929 -0.51985 -0.16295 0.96177 0.069813 0.078378 -0.12552 -0.16035 -0.23085 0.18603 0.41291 0.46499 0.91862 -0.010994 -0.46307 0.33044 -0.048784 0.7243 -0.40891 -0.06738 0.82216 -0.58092 0.10794 0.48747 -0.23505 0.20253 0.09104 -0.33039 -0.014026 0.13899 -0.17408 0.15172 -0.00033808 -0.9556 -0.27425 0.018456 -0.047593 -0.62689 -0.7538 -0.31584 0.1923 0.60757 0.0069213 -0.12325 -0.33261 0.028445 0.23693 -0.61348 0.085171 0.043216 -0.23627 0.2009 0.14408 -0.77542 0.2207 -0.59624 0.20122 0.036028 0.34866 0.29408 -0.29139 0.36199 0.40903 0.11591 -0.061132 0.44516 -0.2322 -0.01089 0.44997 0.20405 -0.30705 0.34374 -0.13253 -0.15593 0.46503 -0.18307 -0.2091 -0.22932 -0.068059 0.14802 0.26507 0.048218 -0.26021 0.10562 -0.02 0.38148 -0.042667 0.11897 0.28615 0.0051907 0.065273 -0.28221 0.046275 0.039824 -0.41183 0.1507 -0.61718 0.092807 -0.39443 0.46967 0.33614 0.39316 0.40961 -1.0398 -0.53813 0.034525 0.24854 0.23601 0.14501 -0.45092 -0.79053 -0.68472 0.042278 0.013112 -0.20438 0.009041 -0.50149 0.28714 -0.242 -0.27327 -0.22721 -0.09817 0.65121 0.042081 -0.082411 -0.39258 -0.099059 -0.39943 -0.18633 -0.26746 0.11912 0.18013 -0.15649 0.068432 -0.54067 0.1196 0.24765 0.030619 0.64757 0.21691 -0.17629 0.12769 -0.11811 -0.050785 0.12317 0.2805 0.78598 -0.077793 0.15689 -0.54624 -0.15864 0.3323 0.049842 0.34848 0.24514 0.08676 0.18126 0.073373 0.82233 0.33995 -0.11042 0.02823 -0.42283 0.03738 0.11673 -0.2287 -0.63607 -0.23465 0.027288 0.6748 0.069094 0.43375 -0.26112 0.21671 -0.24477 0.35958 -0.028177 -0.01704 0.43789 0.079136 0.022359 0.11683 -0.61257 0.3674 0.33394 0.12292 0.40974 0.44634 0.27017 -0.23389 -0.16907 0.37319 0.75046 -0.030194 0.039026 0.49427 -0.10139 0.54452 0.17187 0.49323 0.15439 0.081454 0.20727 0.274 0.048694 0.079335 0.65222 0.32331 0.50576 0.10744 -0.053217 0.20566 0.18776 -0.18038 -1.1163 0.033371 0.54157 -0.79095 0.5568 -0.235 0.27344 0.0075517 -0.19527 -0.13148 -0.0026841 -0.10323 -0.48545 -0.11769 -0.092669 0.085986 -0.32677 0.034692 0.58878 0.38158 -0.16143 -0.24188 -0.39469 0.47928
american 0.28417 0.11386 0.16274 0.21845 -0.21082 0.20196 -1.1563 0.23203 0.055472 -0.83833 0.33533 0.60247 0.035299 -0.091434 0.15617 0.043341 0.67526 -0.35714 -0.32082 -0.20723 -0.1396 -0.15849 0.65722 0.38362 -0.15108 -0.141 0.055185 0.08323 -0.12117 0.27025 -0.46298 0.31455 -0.1336 -0.16093 -0.95998 0.14907 -0.43954 -0.4891 -0.07121 0.34097 -0.17004 -0.37266 0.30109 0.46881 0.17679 0.29786 0.062796 0.20277 -0.2835 -0.0044214 0.20038 -0.60311 -0.0028443 0.90494 -0.71981 -0.072014 -0.55164 0.099198 0.3362 -0.0068546 0.13846 0.014831 1.0052 -0.36804 -0.58888 0.18206 -0.17654 0.23639 0.29911 0.097989 0.48207 0.13082 -0.25169 0.090804 -0.78673 0.47429 -0.37738 0.1975 -0.60928 -0.22498 -0.30041 -0.49985 0.045731 0.25946 0.033472 -0.37005 0.30921 0.23428 -0.017424 -0.44492 -0.25752 -0.33451 0.32377 0.4722 0.33593 -0.17245 -0.46831 0.35455 -0.74689 0.015 -0.012197 -0.23035 0.1642 -0.32749 0.063237 0.088868 -0.26736 -0.14623 0.35027 0.031927 -0.39283 -0.13372 -0.2669 -0.43437 0.47807 0.15028 -0.083413 -0.24744 -0.22045 0.1398 -0.027492 0.40559 -0.14225 0.22736 -0.16037 0.19709 -0.46329 0.15774 0.068368 0.51472 -0.48137 0.11538 0.5831 -0.65428 -0.43427 0.19623 -0.26974 0.41204 -0.35246 0.30729 -0.051742 -0.29116 0.13444 0.2397 -0.27908 0.33148 -0.25208 -0.30726 -0.99865 0.697 1.1421 -0.36844 0.34292 0.046055 0.3937 -0.14239 -0.83383 -0.15084 0.30323 -0.57997 0.62288 0.098218 0.016162 -0.10642 -0.27171 0.22947 -0.0077096 0.40343 0.27785 -0.37594 0.56498 -0.098378 -1.1495 0.44712 0.66886 0.011704 -0.17431 0.038538 0.047653 0.7799 0.11287 0.30037 0.023134 0.4389 0.030465 -0.31865 -0.4967 0.018223 0.50644 0.16287 -0.37328 0.12945 0.044764 0.0044949 -0.07136 0.35179 0.45736 -0.030282 -0.016881 0.16149 1.5172 0.11318 0.34142 -0.33939 -0.22799 -0.061016 0.22308 0.21491 -0.13399 0.16262 -0.14345 -0.2684 -0.25834 0.5994 0.428 0.0029062 0.24431 0.20987 -0.29928 0.46677 0.38875 -0.55468 -0.13911 -0.3496 -0.022574 0.67651 -0.12671 0.063169 0.23362 -0.75927 0.36474 0.38838 0.19844 0.93097 -0.22477 0.12018 0.04868 -0.038925 -0.54374 -0.14911 -0.33666 0.3812 0.52773 -0.1842 -0.61666 -0.40937 -0.73193 -0.41902 0.17107 0.21029 0.019464 -0.32565 -0.13796 0.14437 0.62215 -0.2273 -0.014208 -0.37339 0.19982 0.22852 0.0069712 -0.21148 -0.13884 0.19165 0.45992 0.052823 -0.21784 0.35099 -0.089621 0.2713 0.082754 -0.22671 0.15644 -0.20488 -0.036577 0.23666 -1.7804 0.36732 0.65826 0.012035 -0.35814 -0.44058 0.27423 -0.10178 -0.022158 0.41848 -0.033341 0.39561 0.42398 -0.073456 0.62862 -0.34031 -0.057031 0.2619 -0.18146 0.38114 0.20356 -0.025824 -0.79688 -0.36565
analyst -0.034626 0.3028 -0.33958 0.52084 0.76437 -0.57977 -0.49078 0.77217 -0.12336 -1.3893 0.87934 -0.21097 0.26715 0.17628 -0.12119 -0.64304 -0.22583 0.23624 -0.38824 -0.70909 -0.28184 -0.27434 0.59126 0.081631 0.44703 0.3061 0.53172 0.3504 0.15265 -0.38148 -0.32639 0.22597 0.1847 0.33022 -1.2899 0.37083 -0.35167 0.80649 0.59636 -0.29326 0.84918 -0.3269 0.34485 -0.16609 -0.050662 0.035829 -1.2065 0.010627 -0.072384 0.21728 -0.31486 -0.039189 -0.32415 -0.14998 0.30427 0.19867 -0.17742 0.021061 -0.45477 -0.40421 0.3468 -0.43025 0.35381 0.55579 -0.2156 -0.074168 0.34949 -0.79935 0.79665 -0.52847 -0.19918 0.38561 0.029074 -0.60561 -0.39545 -0.12522 -0.43433 -0.24407 -0.39076 0.019013 0.72578 0.2174 -0.41984 0.13881 0.78366 0.33228 0.046197 0.40655 0.11168 -0.054848 -0.096273 0.93996 -0.53572 -0.43885 -0.82668 1.0833 -0.32619 0.19313 0.23093 -0.18876 -0.87726 -0.34554 -0.45034 -0.26654 0.21599 0.4715 0.063346 -0.32 0.41482 0.48187 -0.67325 -0.92934 0.36493 0.11879 0.3694 -0.40954 -0.25067 -0.66685 0.16783 0.40103 -0.10079 -0.29808 0.62623 -0.032276 -0.25423 -0.94897 0.20402 0.092827 -1.2428 -0.094948 0.036751 -0.25458 -0.52498 -0.57905 0.33909 -0.056592 0.28668 -0.096598 0.11108 0.17151 0.2326 0.63727 1.3474 -0.42877 -0.23664 0.5849 -0.39576 -0.24683 0.29483 -0.19404 1.0047 0.35869 -0.14748 0.0020084 0.034518 0.34234 0.23352 -0.067313 -0.098867 -0.38331 0.18113 0.095934 -0.052562 -0.25877 -0.21606 0.28112 0.44797 -0.23725 -0.39946 0.22965 -0.48524 -0.49904 -0.45181 -0.51657 0.14584 0.070792 0.61937 -0.24815 -0.15167 -0.037996 0.078139 -0.021747 -0.0037945 0.21301 0.55036 -0.37695 -0.028903 -0.47097 -0.16489 0.3828 0.25052 0.1151 -0.16841 -0.37679 -0.69827 -0.24084 1.5653 -0.59284 0.094968 -0.063679 0.33313 -0.23375 -0.12945 0.10456 -0.076425 0.87829 -0.26601 1.0323 0.39111 -1.1062 0.54006 -0.88648 0.73277 0.11838 0.52934 -0.023663 0.35853 0.72639 -0.56202 -0.75904 0.32351 0.18388 -0.10198 -0.25211 -0.041419 0.55724 0.58419 -0.21394 0.43754 -0.068009 -0.059788 0.67464 0.45366 0.206 0.095145 -0.2101 -0.019684 -0.35332 -0.21912 0.60769 -0.29505 0.39453 0.55432 0.040471 0.17585 -0.55985 -0.76342 -0.51262 0.067883 -0.15859 0.014433 0.27411 -0.78365 -0.026851 0.26705 -0.10417 -0.19175 -0.3594 0.92676 -0.44674 -0.15815 0.65249 -0.18322 -0.17143 0.78882 0.2541 0.51861 0.57153 -0.82664 -0.15345 -0.34192 0.73205 -0.27776 -1.0231 0.030261 -0.28951 -0.22512 -0.67522 -0.39833 -0.9861 -0.46311 0.055574 -0.11204 -1.2595 0.55401 -0.22731 0.35173 0.35828 -0.16876 0.58785 0.3302 -0.014888 0.11918 0.85042 0.22684 0.28405 0.79308 0.41719 -1.0143 0.32481
architect 0.15235 -0.14157 -0.43222 -0.25858 0.35399 0.28403 -0.3254 -0.13875 -0.33199 -0.51013 0.11115 0.17991 0.1301 0.19447 0.46056 0.55171 0.13519 -0.44392 0.3026 0.60267 -0.20658 0.036966 0.42594 0.70322 -0.98326 -0.15957 -0.63802 -0.31308 -0.17302 -0.39298 0.31424 0.9454 -0.47653 0.5382 -6.6565e-05 0.55905 0.09988 -0.60784 0.16509 -0.38163 -0.19248 -0.029579 -0.10718 -0.050082 -0.42642 -0.37166 0.071386 0.55687 0.072749 -0.24236 0.11532 -0.29197 0.22011 0.56326 0.02458 0.13643 -0.1908 0.44669 0.24568 0.041679 0.31723 0.075527 0.15355 0.31271 -0.12097 0.066279 0.04599 -0.84652 -0.0063214 -0.87746 0.15837 0.12862 0.020877 0.39832 -0.5759 0.3077 0.095187 0.86902 -0.4519 0.24726 -0.31814 0.38976 -0.20747 0.326 0.71576 0.71898 -0.19311 -0.17898 0.11872 -0.36069 0.26424 -0.045974 0.26528 0.29277 0.45406 -0.6914 0.43864 -0.55421 0.35127 -0.3386 -0.92204 0.023276 -0.14237 -0.16313 -0.17208 -0.1304 -0.71932 0.074725 0.29968 -0.62989 0.38112 0.33512 -0.28618 -0.042045 -0.52873 -0.40475 -0.355 -0.12221 -0.67733 0.11517 0.67495 0.36684 -0.5635 -0.17868 0.53435 -0.5753 0.10196 -0.040495 -0.1176 0.23443 0.053197 0.042501 0.31309 -0.16648 -0.098879 0.50772 -0.33548 -0.54843 -0.1802 0.23604 0.389 0.096103 0.14982 0.90131 0.41523 -0.00594 0.42432 0.068978 -0.89654 -0.66385 1.0461 0.6534 -0.41124 -0.54394 0.16186 0.19617 -0.5994 0.47081 0.13309 -0.14392 -0.59496 0.44372 0.23591 0.022419 0.071964 -0.059179 0.093094 0.21475 0.52007 -0.0051089 0.29482 -0.90475 -0.3297 -0.3925 0.3731 0.77402 -0.32521 -0.73149 -0.1847 0.086046 -0.12791 0.23572 -0.13564 0.34972 0.32683 0.46771 -1.1312 -0.31302 0.30387 0.6395 0.65195 -0.16116 -0.25407 0.35169 -0.19361 -0.16797 0.10232 -0.03464 0.43901 -0.42559 0.43948 -0.040592 0.39138 -0.23661 0.25923 0.23664 -0.56155 0.12057 0.055599 0.42151 0.42059 -0.29524 0.33015 -0.43027 0.18638 0.51962 -0.21688 -0.0011165 -0.62689 -0.32122 0.24841 -0.34055 0.059206 0.13331 0.060909 -0.29767 0.069784 0.33532 0.056726 -0.28034 0.5131 0.68044 -0.021309 0.61905 -0.29766 0.40581 -0.38823 0.33159 -0.50504 0.44408 -0.013454 -0.32014 0.20323 0.21774 -0.016218 0.54864 -0.58912 -0.35944 0.088625 0.077324 0.25158 0.18288 -0.042658 0.087347 0.80464 0.13129 0.76882 0.10734 0.31885 -0.29183 -0.51767 0.10459 -0.12051 0.16386 -0.019534 -0.4189 0.16136 0.29676 0.6339 -0.8265 -0.51747 0.14686 0.5143 -0.57335 -0.54929 -0.24591 -0.36655 -0.39333 0.27253 -0.22531 0.51813 0.29657 0.29636 -0.46792 0.59832 0.093615 -0.33795 0.65723 -0.39994 -0.23225 0.13704 -0.3011 -0.068104 0.37584 0.28048 0.19362 0.2985 0.18259 -0.099931 0.67477
artist 0.38867 0.29733 -0.21198 0.24887 0.0090686 0.32193 -0.83791 -0.8095 -0.3689 -0.49986 0.37074 0.024159 0.019113 0.35839 0.30005 -0.093438 -0.089281 -0.4386 0.18526 0.19491 0.11797 0.63772 -0.14659 0.26393 -0.032655 -0.25175 -0.2355 -0.229 -0.026072 0.8215 -0.079701 0.5632 -0.48145 0.069439 -0.40327 0.21113 -0.13645 -0.075955 0.28069 0.088522 -0.35671 -0.37283 -0.23481 0.43644 -0.20322 0.64058 0.079008 -0.14976 -0.18458 -0.041262 0.21612 -0.087155 0.37688 0.71949 -0.32826 0.21426 -0.31326 0.04384 0.42483 -0.44279 -0.16759 0.20708 0.5034 0.30474 0.50854 0.27752 -0.19706 -0.43846 0.44806 -0.14116 -0.0052148 -0.66737 -0.4714 -0.17072 -0.82139 -0.27193 0.22739 0.30686 0.25972 -0.25947 -0.33341 -0.27399 -0.39194 -0.26159 -0.12273 0.032791 0.37537 0.06312 -0.027333 -0.019613 -0.36889 -0.19223 0.10732 -0.48101 0.28829 -0.47977 0.29136 -1.0292 0.39217 -0.73813 -0.37406 -0.70772 0.0013124 -0.39272 -0.31725 0.045007 -0.27533 -0.23267 0.30557 -0.22945 0.13031 0.42034 0.028791 0.14273 0.070089 0.26894 -0.53361 -0.1011 0.10339 -0.11084 0.26509 1.1971 -0.67879 -0.26206 0.67848 -0.34721 -0.47763 0.18539 0.32749 0.21842 0.108 -0.40022 0.43669 -0.24584 -0.32823 -0.23227 -0.312 0.48088 0.39474 0.31756 0.42109 0.062056 0.013227 -0.27236 0.34825 -0.020376 0.047193 0.078667 -0.53204 0.0034138 0.65399 0.28272 0.082638 -0.39343 -0.0099113 0.51368 -0.75305 0.095303 0.14685 -0.036268 -0.26215 -0.20211 0.33912 0.073771 -0.13758 0.10835 -0.0017102 0.3613 0.19191 -0.20619 0.6346 -0.13801 -0.65185 -0.3534 0.23855 0.29671 -0.17618 -0.67318 0.040407 0.54738 -0.36246 0.010437 -0.27922 0.25855 -0.043654 -0.059582 -0.30648 -0.16939 -0.54192 0.59383 0.044458 0.3477 -0.30476 0.04761 -0.18542 -0.072592 -0.50336 0.33421 -0.10458 -0.40927 1.8587 -0.30522 0.36691 -0.29949 0.81728 0.092912 -0.60038 0.83032 -0.47051 0.18886 0.063881 -0.20305 0.41797 0.23848 0.50555 0.43118 -0.063878 0.34347 -0.25931 0.82277 -0.13416 0.044267 -0.13772 -0.1412 -0.045288 -0.21018 -0.31281 -0.43829 0.16775 -0.033265 0.1171 0.21849 -0.042079 -0.34654 0.078265 0.41362 -0.68446 0.092343 -0.63647 -0.27089 0.15428 -0.26417 -0.40654 0.073954 -0.67411 0.38324 -0.78503 -0.256 -0.12514 0.39188 0.01726 -0.24908 -0.0089564 0.21915 1.0442 0.39874 0.28486 -0.15079 0.55187 0.10084 -0.056357 0.07931 0.15678 -0.21391 -0.36141 0.044908 -0.26454 0.74452 -0.14002 -0.45554 -0.021205 0.076552 0.43365 -0.83366 -0.1926 0.54449 -0.56233 -1.1293 -0.19657 -0.27373 -0.2929 -0.21278 -0.2378 0.22688 -0.46367 0.26027 -0.19472 0.6273 -0.44656 0.20204 0.39558 -0.58597 -0.15863 -0.3876 0.32326 0.43232 0.22651 0.59169 -0.09567 0.23484
asian -0.030735 0.070913 0.038299 -0.58339 0.10861 0.11874 -0.062297 1.0412 0.31994 -1.2919 0.66582 0.63943 -0.20576 0.075518 0.15064 -0.84633 0.18634 0.92589 -0.34267 -0.44664 -0.31661 -0.42345 0.13652 -0.22762 -0.40674 0.10894 0.066297 0.19122 -0.021247 -0.33871 0.23206 0.07136 0.12331 -0.31848 -1.026 0.33132 -0.1782 -0.41981 0.135 0.11073 0.15351 -0.49647 0.2805 -0.10636 0.69156 0.29942 0.081504 -0.016906 -0.85265 -0.22751 0.59285 -0.068943 0.36513 -0.47802 -0.30459 0.2275 0.26414 0.076715 0.19486 -0.42876 -0.0069037 0.2145 0.59306 -0.42265 0.19036 0.31236 -0.26366 0.66768 0.23415 -0.21556 -0.44969 0.079529 -0.87866 -0.29754 -0.21676 0.39155 0.32271 -0.15897 -0.04055 -0.012128 0.23972 -0.21734 -0.24483 0.083087 0.2704 -0.50486 -0.32952 -0.25832 0.1228 -0.42488 0.16623 -0.25616 0.092035 0.17008 0.52065 0.1143 0.18558 0.12012 0.13301 0.29977 0.20615 -0.51885 -0.001742 -0.45077 -0.07782 0.11862 0.24128 -0.33975 0.24366 0.19697 -0.031623 -0.42954 -0.6564 -0.22758 1.3314 0.082884 0.12327 -0.091769 -0.027424 -0.27056 -0.050329 -0.36255 -0.21582 -0.02118 -0.023353 1.251 -0.60911 0.21052 -0.19926 -0.41872 -0.74734 0.33746 0.55342 -0.067314 -0.072988 -0.19544 -0.10092 0.17772 -0.53534 0.4965 0.10774 0.12106 0.2281 -0.36517 -0.13748 0.0053321 -0.067797 -0.18554 -0.32282 0.28631 0.29086 0.1807 0.45638 -0.06359 0.14242 -0.30541 -1.2867 -0.20378 -0.17596 -0.33159 -0.055397 0.71755 -0.062365 -0.17422 0.11633 -0.036605 0.27796 -0.0057351 0.17665 -0.35042 0.23793 -0.52726 -1.0527 -0.32643 -0.013141 -0.16412 -0.019027 0.4497 0.7257 1.0361 -0.55043 -0.37909 -0.33064 0.37465 0.30386 0.10587 -0.52575 0.46486 -0.014182 -0.34919 0.033106 -0.1182 -0.42723 0.063256 -0.47732 -0.20848 1.0203 -0.28335 0.0056033 0.35685 1.1681 0.019501 -0.33165 -0.21548 -0.31987 0.76006 0.064661 -0.29399 -0.074489 0.12186 -0.14363 0.08691 0.13597 -0.051845 0.13708 -0.20009 0.18812 -0.32285 -0.41692 0.58925 0.39466 -0.54028 -0.5757 -0.53639 -0.047612 -0.34106 -0.32558 0.60792 -1.1165 0.32144 0.19611 -0.2489 -0.19613 0.42691 0.18852 0.30803 0.3011 0.058795 0.19033 0.23419 0.0015764 0.15343 -0.068232 0.83148 -0.4071 0.059945 -0.23236 0.23432 -0.25189 -0.098331 -0.016227 -0.3751 0.086225 0.31189 -0.44883 -0.63796 -0.38338 0.52396 0.0015974 1.2003 -0.10827 -0.12742 -0.077888 0.13946 0.34499 -0.39757 0.059639 0.58352 -0.37639 0.40404 -0.065159 0.71631 -0.10874 0.060696 -0.06885 0.11204 -1.4079 0.5027 0.18734 -0.50124 -0.80571 -0.68145 0.12211 0.028438 -0.18299 -0.24221 0.065697 0.33014 -0.27601 -0.21169 -0.059865 -0.15449 -0.61605 0.088173 0.33485 1.027 0.060052 -0.23872 -0.5365 -0.065612
assertive -0.55946 -0.065222 0.076647 -0.15101 0.60906 -0.46782 -0.79615 0.26052 0.39058 -0.59258 0.13446 0.30687 0.15086 0.047619 -0.22435 0.18358 -0.48658 -0.29608 0.30348 0.0967 0.20012 0.21189 0.28908 0.179 -0.51809 0.21582 0.4131 -0.16161 -0.58744 0.70266 -0.51959 -0.6816 -0.38426 -0.57245 0.03638 0.61232 0.39793 -0.68769 -0.0038524 -0.045597 0.6116 0.1553 0.72346 -0.93989 -0.080945 0.13981 -0.062262 -0.20117 -0.63969 0.18942 -0.065083 -0.22681 0.39706 -0.16304 -0.036863 -0.27308 0.020953 -0.18274 0.19301 -0.19661 0.68591 -0.16426 0.027651 -0.41739 0.12669 0.28882 -0.26967 0.076208 0.2665 0.061611 -0.48118 0.12706 -0.31266 -0.32322 0.72726 -0.067934 -0.050891 0.51758 -0.31075 -0.14451 -0.42641 0.2408 -0.23931 -0.33994 0.30348 -0.36663 -0.5878 0.42268 0.2638 -0.36493 -0.24032 -0.26978 0.14228 0.77831 -0.85534 -0.45271 -0.40678 0.1253 -0.40349 0.36767 -0.40474 -0.4378 -0.1639 0.055313 -0.08412 0.40262 0.143 0.60791 0.003277 -0.38278 0.62347 0.50141 -0.4854 0.31337 -0.08006 -0.10984 0.35016 0.061127 0.23 0.1715 -0.37445 0.098616 0.11225 0.059605 -0.39828 -0.014881 -0.30756 -0.19811 0.26398 -0.31493 0.13393 0.15601 -0.41226 0.038226 -0.32628 0.60074 0.12262 -0.12876 0.075698 0.0025106 0.0056254 0.15301 0.26638 0.22106 -0.072589 -0.35992 -0.3377 0.46346 0.084694 0.026909 -0.23017 -0.23744 0.50306 0.59279 -0.28504 0.29033 -0.033938 -0.16361 -0.16461 -0.045248 -0.12971 0.062677 0.040293 -0.21399 0.21502 -0.88047 -0.28942 0.056088 0.58518 -0.55685 0.52409 0.19254 -0.34908 -0.31767 0.29717 -0.31186 0.070743 0.096714 -0.17391 -0.045511 -0.38888 -0.25386 0.040931 -0.04382 0.155 0.79868 0.081907 0.28046 -0.21151 -0.71177 -0.42289 -0.51147 0.58571 -0.20809 0.43353 -0.088323 -0.4697 -0.29602 0.23928 0.17384 0.23637 -0.20636 -0.094234 -0.32681 0.039372 0.65866 0.11146 0.37134 0.2578 0.89149 0.20476 0.28913 -0.20635 0.24775 -0.15498 -0.22548 0.72103 -0.13701 -0.45506 0.13174 -0.26128 0.59278 -0.36383 0.42709 -0.29274 -0.083635 -0.43494 0.32949 -0.81411 0.11022 0.031222 0.25141 0.33545 0.44381 -0.45326 0.19645 0.35205 0.07819 -0.65682 0.14858 0.064015 -0.070369 -0.05105 0.54198 0.15477 -0.077514 -0.035018 0.26021 0.43777 0.25922 0.5338 -0.8119 0.27733 0.66624 -0.098497 -0.30011 -0.13554 -0.14231 0.13287 0.2616 -0.44745 -0.16711 -0.53993 0.21182 0.1435 -0.58486 -0.048106 0.29926 0.38916 0.17604 0.18054 -0.41862 -0.4493 -0.64382 0.41177 0.28943 0.20974 0.7876 0.015751 -0.4368 0.67134 -0.29656 0.013453 0.3688 -0.070009 -0.33734 -0.019677 0.92463 -0.1122 -0.36862 -0.10119 0.0084394 0.40325 -0.029656 0.21782 -0.16957 0.22944 -0.20621 -0.1513 -0.12905
assistant -0.29347 0.083295 0.02435 -0.30216 -0.10676 -0.44829 -0.08864 -0.015042 0.13068 -0.54223 -0.32681 0.21624 -0.34974 -0.21913 -0.056607 0.54349 0.23409 -0.4875 -0.47358 0.27831 0.26182 -0.15185 0.22248 0.1609 -0.11629 0.50149 -0.28867 -0.40618 0.37019 -0.5383 -0.1988 -0.54786 0.11998 0.43994 -1.2023 0.43205 0.21798 -0.079081 0.30859 -0.27558 0.37501 -0.53518 -0.76262 0.33266 0.088803 -0.48227 -0.28765 0.49138 -0.090701 -0.50264 -0.095633 -0.044291 -0.41107 0.58047 0.034087 0.44252 0.053316 0.079441 -0.17422 -0.15457 -0.28921 0.045184 0.74939 0.34756 0.18561 -0.73645 -0.32875 -0.31465 0.086454 -0.95974 -0.32865 -0.22535 0.067309 0.0018232 -0.46741 0.31859 0.13925 0.63033 0.056898 -0.19817 0.3938 0.17115 -0.38127 -0.020992 -0.058016 0.09449 0.10756 0.19354 -0.22946 -0.44736 -0.27887 0.14515 -0.20648 -0.38175 -0.43524 0.18951 -0.30605 -0.46902 0.20099 -0.26422 -0.24932 -0.73065 0.3236 -0.19128 -0.10652 -0.40372 0.29589 0.63226 0.15421 0.65231 -0.10899 0.34378 -0.20457 0.036479 0.17232 0.32039 -0.11093 -0.44052 0.08151 0.27035 0.46652 0.54994 -0.19287 -0.39457 -0.16911 -0.24979 -0.19985 0.17558 0.39243 0.25487 0.48764 -0.24989 0.32346 -0.31743 -0.27893 -0.25432 0.23092 0.51277 -0.64311 0.35876 0.10875 -0.76011 0.48743 -0.15849 -0.087442 0.49332 0.6508 0.10318 -0.36349 -0.57334 1.5108 0.060118 0.57233 0.18161 -0.20094 -0.25748 -0.34689 -0.6147 0.25386 0.061712 0.1667 0.16054 0.58615 -0.20558 0.2741 0.054412 -0.28016 -0.39682 -0.1429 0.42424 0.019454 -0.3051 -0.89836 -0.1995 -0.087299 0.64496 0.010867 -0.050684 -0.33319 -0.070894 0.3754 0.31897 -0.42681 0.23642 0.37572 -0.42009 -1.0237 -0.017511 -0.15916 -0.41619 0.40606 0.18651 -0.3013 -0.37798 0.097235 0.0032779 0.18356 -0.11056 0.56506 -0.049959 0.72794 0.55079 -0.4382 -0.056272 0.3234 -0.09318 0.30953 0.28084 0.73733 -0.11207 0.57299 0.053463 0.30885 -0.054955 0.36363 -0.28565 -0.34376 0.1673 -0.1709 -0.49745 -0.58754 -0.27314 -0.78595 0.6087 0.49886 -0.20951 -0.10146 0.12492 -0.18695 -0.086359 0.76663 -0.0036464 0.6393 -0.72487 -0.30672 0.11515 0.0054276 0.31202 -0.44991 0.51238 -0.41095 0.28115 0.13118 -0.072682 0.43883 0.09979 -0.017685 -0.66537 0.22378 0.20067 0.37011 0.19341 -0.0047637 0.18943 0.72933 -0.3724 -0.13595 0.30943 -0.11274 0.10185 -0.99893 0.22361 0.13587 0.16439 0.06549 -0.4814 -0.1601 0.75045 -0.78438 0.041146 -0.42861 -0.065118 -0.21743 0.028029 0.14755 -0.16719 -0.71299 0.56748 -0.0089631 0.03626 -0.21276 0.43765 0.2532 -0.050149 0.58331 0.33417 0.096279 0.22249 -0.33126 -0.5328 -0.32089 -0.33278 -0.22857 -0.4091 0.072577 0.26515 -0.069664 0.041237 -0.49081 0.49669
astronaut 0.24368 -0.89996 0.3843 0.26626 -0.55245 -0.44348 -0.68154 -1.0566 0.28992 -0.055118 0.51573 -0.49101 0.24325 -0.32587 -0.51238 -0.010593 0.60402 0.1797 -0.29189 0.20667 -0.24859 -0.30743 -0.13251 0.72876 -0.0806 0.23461 -0.20226 0.19072 0.12899 -0.079264 0.10552 -0.097613 0.29218 -0.36506 -0.53034 0.42652 0.13013 -0.12365 0.061386 0.51983 0.0074021 -0.44206 0.80677 -0.3421 -0.52196 -0.25485 0.18963 -0.05667 -0.31929 -0.47125 -0.085315 -0.63337 -0.1809 0.96357 -0.25426 0.56221 0.55711 0.020811 -0.58035 -0.0352 -0.46085 -0.43433 0.35945 -0.60976 -0.69971 0.036729 0.25288 -0.6532 0.39012 -0.021784 0.22965 -0.18264 -0.13077 -0.071065 0.12032 -0.22377 0.40108 0.24419 -0.30747 0.1257 0.28265 -0.2519 -0.51108 0.3952 -0.073407 -0.081683 0.058262 0.72101 -0.18449 -0.4819 -0.498 0.31621 0.2677 -0.13867 -0.39758 -0.47144 -0.39712 0.11557 -0.6107 -0.17439 0.2001 0.021065 -0.09974 -0.3012 0.47357 -0.29532 -0.30953 -0.47 -0.16002 -0.10831 -0.56589 0.80755 0.1479 -0.59552 -0.80889 0.22287 0.0071384 -0.0105 -0.20181 0.11308 0.33758 0.74048 0.22067 0.077647 -0.66756 0.018159 -0.46139 -0.4942 0.83757 0.055925 -0.14307 0.060242 0.54224 -0.48978 0.25866 -0.3899 0.13113 0.5249 -0.26891 -0.65876 0.31217 -0.60964 1.0294 0.51759 0.26125 -0.14907 0.09887 0.54944 0.7095 0.058379 0.47351 -0.6567 0.46921 0.5495 0.60823 0.31911 -0.66321 0.27288 0.2847 0.55374 -0.16683 -0.42953 0.76129 0.61568 0.74587 -0.54155 -0.30136 0.098244 0.45359 -0.18682 -0.41568 -0.10824 0.28819 -0.07468 -0.43411 0.70167 -0.49892 0.25851 -0.52343 -0.44899 -0.28957 0.36617 -0.25011 0.35846 0.23288 -0.19405 -0.26999 -0.13635 0.319 -0.015655 -0.084385 -0.27973 -0.77905 0.4801 -0.25204 0.3049 0.54485 0.51814 -0.40661 -0.07961 0.76132 -0.10747 0.15018 0.65051 0.42206 0.19325 0.42847 0.49074 0.57179 0.75908 0.21596 -1.2886 -0.077999 -0.65394 0.18151 -0.8265 -0.2963 -0.012724 -0.58332 -0.4024 0.02122 0.13761 -0.023859 -0.046982 0.25115 0.63968 -0.78611 -0.21902 0.57004 0.17953 0.14306 -0.13281 -0.33161 -0.011924 -0.2096 1.1481 -0.48189 0.34487 0.017348 -0.037474 0.69182 0.42061 0.45581 0.075514 0.84887 0.12084 0.017809 0.25137 0.39812 -0.28456 0.36409 0.41899 -0.63658 0.076453 0.67276 0.60111 0.48347 -0.95493 0.81175 0.031891 0.46012 -0.25114 0.053952 -0.67497 -0.18411 0.22286 -0.49399 0.27601 0.27573 0.59129 0.14335 0.25901 0.42534 -0.1489 -0.61495 0.35454 -0.54521 -0.61501 -0.0040906 -0.6689 -0.12693 0.79576 0.32616 0.35959 -0.83093 0.27968 0.081736 0.11546 -0.1531 0.12243 0.99939 0.28367 0.093167 -0.43914 -0.25057 0.27011 -0.75626 0.42914 -0.85912 0.28111
aunt -0.27997 -0.01744 -0.56716 0.099257 0.22453 -0.10311 -0.31526 -0.49548 -0.26811 -0.46141 -0.19486 -0.023645 0.17204 -0.12107 -0.095237 0.1274 0.36359 -0.49963 -0.084708 -0.053215 0.30011 0.1852 -0.8311 -0.35074 0.0036459 0.28465 -0.23784 0.3873 -0.20383 -0.16876 -0.828 0.50692 -0.16932 0.29653 -0.4103 0.48307 -0.027624 0.43792 -0.077629 -0.070266 0.02911 -0.51365 0.1186 -0.19959 -0.018767 0.19391 0.54266 0.21232 -0.12299 -0.015181 0.29495 0.232 0.3132 -0.11036 -0.063146 -0.55894 0.15711 0.25636 0.429 -0.79297 -0.035236 -0.22516 0.3666 0.93196 0.060983 -0.41863 0.16447 -0.15605 -0.23754 -0.09183 -0.46553 -0.5402 -0.43886 -0.39016 0.0363 -0.2709 0.29364 -0.3373 -0.40525 0.19569 0.17334 0.645 0.32481 -0.14725 -0.074445 -0.21269 0.38227 0.46808 0.35369 -0.077468 -0.26065 0.043504 0.079564 0.30248 -0.048696 0.00185 -0.11939 -0.35323 0.52017 -0.13156 0.52384 -0.061334 -0.14613 0.25685 -0.21821 0.32582 0.27404 -0.11903 0.14273 0.22676 0.081023 0.64792 0.058925 0.098684 0.26644 -0.11003 -0.10975 0.50697 0.20335 0.017594 0.34148 0.44579 -0.28531 -0.36379 0.35781 0.053515 0.15196 -0.53369 0.34942 0.078341 0.027768 0.49357 -0.031896 0.8687 -0.048141 0.13207 -0.32195 0.20928 -0.53663 0.51928 0.73295 -0.043856 -0.15154 -0.03337 -0.42005 -0.61165 -0.38673 0.4855 -0.0082953 -0.017866 -0.42062 0.34682 -0.17597 0.088195 -0.44653 0.51458 0.38475 -0.41241 0.30456 -0.15207 0.67211 0.35834 0.50526 0.049182 -0.48089 0.25699 -0.22548 -0.093105 0.25264 -0.36922 -0.18957 0.50269 0.15159 0.21107 -0.090256 -0.33938 -0.15531 -0.66523 0.26123 0.23366 0.15007 0.15583 0.068641 0.048745 -0.35671 0.39532 -0.44724 -0.071849 0.26125 -0.28677 -0.37128 -0.27398 -0.33119 -0.038143 -0.9076 0.01905 -0.094528 -0.31508 -0.23913 -0.79104 0.98955 0.11629 0.36339 0.59449 0.46985 -0.2572 -0.0043729 0.16448 0.11251 -0.031559 -0.86609 0.12269 0.14487 -0.15822 0.058451 -0.062193 -0.091163 -0.45998 0.68293 -0.10944 0.15949 -0.15612 -0.37046 0.2077 -0.43157 0.39959 0.42005 -0.17619 -0.19393 -0.051377 -0.21754 0.032677 -0.33145 -0.017057 0.01103 -0.20336 -0.048261 0.23526 -0.1663 0.02407 0.094355 0.25229 -0.083471 0.76305 0.17177 -0.060306 -0.21476 -0.11515 0.38319 0.056629 -0.041043 0.24847 -0.10736 0.35618 0.96204 0.031652 0.21641 0.07949 0.018851 -0.45596 0.16796 0.032615 -0.24778 0.051253 -0.45753 0.08619 0.18338 -0.24745 0.121 0.18778 -0.056716 -0.11966 0.16921 -0.29867 0.26664 -0.47733 -0.39746 0.028909 -0.50349 0.031071 -0.48541 1.0884 -0.26788 -0.73312 -0.41075 0.47325 0.55828 0.41428 -0.18277 0.027875 0.35611 0.051198 0.72387 -0.27896 -0.66126 -0.94652 0.1919 0.12705 -0.1962 0.9471
babysitter 0.042897 0.19934 0.011822 0.22919 0.50268 0.20479 -0.094869 0.080423 0.082973 0.46496 -0.48307 0.030725 0.194 -0.2459 -0.22214 -0.21609 0.043143 -0.37261 0.090217 -0.017665 -0.089565 0.39553 -0.32762 -0.11278 0.36992 0.054471 0.026343 -0.093308 -0.0013773 -0.096738 -0.33077 0.010109 0.26191 0.27493 0.081866 0.17071 -0.15032 0.087121 0.099619 0.26691 0.93372 0.016496 0.023978 -0.22083 0.11763 -0.31634 0.33109 0.099713 -0.010152 -0.24105 0.40417 -0.50195 -0.077059 0.24418 -0.057833 -0.59193 0.35629 -0.074937 0.068048 -0.20949 0.024234 -0.2453 0.15626 0.47366 0.051842 0.16525 0.60776 -0.3215 0.10433 -0.073967 -0.18893 0.02417 -0.033932 -0.00875 0.036388 0.14987 -0.24693 -0.052319 0.23815 -0.39329 -0.20533 0.55116 0.76772 -0.44932 -0.10139 0.22601 -0.5337 -0.097384 0.052756 -0.058311 -0.2582 0.25382 -0.046183 0.0079873 -0.21006 -0.12714 0.007034 -0.41416 0.33518 0.30464 0.1962 -0.040623 0.38043 -0.30977 0.46255 -0.13186 0.42021 0.066179 0.082087 -0.27826 0.032597 0.48301 -0.040511 -0.00035473 0.31595 0.083544 0.30941 0.076099 -0.37383 -0.11864 0.10253 0.38727 0.00011803 -0.26473 0.27706 -0.0050009 0.17708 -0.11587 0.34444 -0.5788 0.26304 0.039614 0.29659 0.2694 0.24441 0.1863 0.24857 0.31291 -0.37611 0.17274 0.14651 0.044936 -0.16138 -0.23499 0.0072136 -0.46597 -0.12668 -0.019274 0.31387 -0.028946 -0.58469 -0.16909 0.012566 0.60549 -0.31345 -0.13903 0.041115 0.22339 0.38159 -0.10658 0.27058 0.058374 0.23847 -0.068533 0.30584 -0.080598 -0.13052 0.24331 0.3222 -0.39024 -0.62397 0.45279 -0.12481 0.21218 -0.37538 -0.21571 0.35571 0.14054 -0.35478 0.38486 0.22105 -0.25448 0.029716 0.4013 -0.38183 0.29776 0.38345 0.50504 0.53501 -0.49124 -0.18684 -0.14866 -0.28971 -0.43111 -0.08042 -0.012861 -0.3236 0.16304 0.3135 -0.61539 -0.22669 0.30985 0.36149 0.15501 0.13745 0.34056 0.14931 -0.63936 -0.29458 0.25352 -0.2665 0.028327 0.51678 0.47408 0.19085 -0.0099539 -0.20472 -0.45286 0.40381 0.38876 -0.57847 -0.13312 -0.061432 -0.17877 -0.12909 0.10499 -0.16184 -0.57707 -0.095203 0.23773 0.067059 -0.29201 -0.34107 -0.1745 0.0019559 0.2028 0.44546 0.85049 -0.054186 -0.0080274 0.52713 -0.26776 -0.094398 -0.27393 0.35178 0.12261 0.52277 -0.097879 -0.0091424 -0.403 -0.29847 0.65886 -0.10561 0.4667 0.079491 -0.29534 -0.14807 0.4008 0.17247 -0.19823 -0.25498 0.48711 -0.21164 0.15377 -0.25076 0.59228 0.41303 0.014921 0.33502 0.55542 0.13363 0.26405 -0.00082508 -0.43224 0.42413 -0.64096 0.36439 0.02385 -0.19155 -0.014294 -0.27317 0.27713 -0.25784 0.27884 -0.36023 0.22493 0.37634 0.11656 -0.29182 -0.45141 -0.50268 0.02111 -0.34495 -0.21752 -0.35618 -1.457 0.1095 0.48955 -0.29846 0.47949
baker 0.32049 -0.02206 -0.13095 -0.27143 0.11873 0.081262 0.01925 -0.16387 0.19678 -0.25828 0.19802 -0.092218 0.22358 -0.18916 0.54742 0.13092 0.060499 0.0034114 0.1754 -0.27966 0.12382 -0.13281 -0.11315 0.33483 0.017476 0.55844 -0.24588 -0.34264 0.061364 -0.26695 -0.24011 0.19531 -0.060894 -0.25335 -1.0759 0.095877 0.40885 0.032274 0.08426 -0.39268 0.2368 -0.040928 0.42064 0.08364 -0.25342 -0.15371 -0.25054 -0.22649 0.33059 -0.010313 0.23311 0.25054 -0.36278 0.30349 -0.15879 -0.17871 -0.33249 0.069647 -0.19918 -0.1919 0.14446 0.10363 0.1678 0.15255 0.027017 -0.76209 -0.11706 -0.37117 -0.36657 -0.35519 0.3196 -0.50389 0.35206 0.6523 -0.48785 0.16648 0.45299 0.54784 -0.23882 -0.61588 0.4596 0.50106 0.039933 0.31885 0.16557 -0.31763 0.084326 0.73713 0.34275 -0.41385 0.011656 0.010596 -0.36278 0.085766 -0.50107 0.16336 0.34427 -0.24792 0.34232 -0.35033 -0.33626 -0.056473 0.042225 0.081029 -0.1475 0.18189 0.26243 0.055386 0.22566 0.039229 0.098178 -0.0080924 -0.00607 0.36021 -0.052321 -0.25065 -0.39859 -0.012285 0.21314 0.28604 0.37779 0.31928 -0.17113 -0.65413 -0.10486 -0.47163 0.0067553 -0.15722 -0.19748 0.17193 0.083307 0.043845 -0.032472 -0.010517 -0.26338 0.16446 -0.02994 0.57652 -0.20846 -0.31118 0.16518 -0.10774 0.27528 -0.12149 -0.25716 0.078094 -0.40382 0.17347 -0.10239 -0.12693 0.4044 0.19781 0.53874 -0.13988 -0.18113 0.057026 -0.075824 -0.59823 0.19029 -0.22489 0.48083 -0.57593 0.1491 -0.12053 -0.39109 0.20179 -0.071553 0.064497 0.042185 0.1929 -0.054993 -0.22378 -0.22361 -0.41251 -0.29362 0.25053 -0.093295 -0.31738 -0.19517 0.10071 -0.011587 0.61843 -0.094754 0.18022 0.086011 -0.19991 -0.45565 -0.3067 -0.13162 0.35775 -0.0031843 0.37396 0.27379 -0.1264 -0.40493 0.24674 0.22292 0.13799 -0.32099 -0.23409 0.80822 -0.43865 0.34786 0.073131 -0.25982 0.35422 0.12521 -0.0072212 0.34464 -0.43294 -0.42762 0.21575 0.14134 -0.39444 -0.076436 0.26242 -0.0067443 0.089786 -0.23346 -0.71253 0.12948 0.28313 -0.044078 0.00097617 0.46823 0.29946 0.19238 0.22776 -0.057329 -0.040657 -0.076634 0.19192 -0.15962 -0.32864 -0.15571 0.53147 0.0058953 0.16603 0.025526 0.12634 0.029945 0.07736 0.17396 -0.23609 0.16862 -0.33215 -0.0063258 -0.047612 0.0041527 -0.2847 0.19209 -0.71706 -0.20614 0.092457 0.67062 -0.10474 -0.21659 0.024813 -0.055105 0.49946 -0.21986 0.14789 -0.29486 0.12715 -0.010486 -0.31185 0.12699 -0.029579 -0.10951 -0.2696 -0.48271 0.082966 0.37056 -0.50257 -0.046457 -0.0071327 -0.61136 -0.014759 -0.29434 -0.39081 0.074152 -0.011329 0.31648 -0.37246 -0.19628 0.1522 -0.018765 0.33465 0.14092 0.29442 -0.3026 -0.11605 0.35258 0.34184 -0.29954 0.097465 0.060562 -0.072189 -0.77815 0.2522
banker 0.052883 -0.11554 0.038541 -0.12605 0.4323 -0.33552 -0.035791 -0.26195 -0.024897 -0.27227 0.20528 -0.16126 0.20875 0.099729 -0.17029 -0.1857 0.039605 -0.74766 -0.032193 -0.052966 -0.091112 -0.026298 0.48952 0.25729 -0.61186 -0.21043 -0.0093271 0.41477 -0.29623 -0.081072 -0.96766 0.81657 0.24217 -0.07197 -0.5536 0.062277 0.14337 -0.0069048 0.0021752 -0.11801 -0.060104 0.093638 -0.10154 -0.18945 0.20513 -0.032329 -0.063749 0.73343 -0.13122 -0.017148 -0.39676 -0.36733 0.44628 0.27595 0.3145 -0.23723 -0.29219 0.14067 0.011769 -0.76655 0.36127 -0.22258 -0.041747 -0.079861 0.18349 -0.06051 0.29425 -0.9169 0.042483 -0.43017 0.084391 0.33146 0.12154 0.078017 -0.16845 0.17064 0.084134 0.10518 -5.3144e-05 -0.079219 0.025494 0.29787 -0.19232 0.33138 0.42098 0.17059 -0.085853 -0.35038 -0.11136 -0.071653 -0.32272 0.3965 -0.62917 0.21278 0.023597 0.010367 -0.37233 0.17156 0.16928 -0.19546 -0.44156 0.52124 -0.090343 -0.050644 0.10348 -0.26817 -0.38595 -0.74776 0.36734 0.27007 -0.2032 -0.18828 -0.041153 0.10203 0.65528 0.17853 0.27501 -0.25667 -0.080006 -0.22704 0.611 0.38634 -0.042816 0.017833 0.032631 -0.14426 0.16652 -0.27201 -0.40104 -0.42272 -0.057502 -0.46452 -0.10957 -0.16932 -0.12508 0.55755 -0.40986 -0.16908 0.0066607 -0.39498 0.46313 0.18734 0.37881 0.63191 0.16942 0.65081 -0.026822 -0.079501 -0.59396 0.57866 0.30077 0.084859 -0.010246 0.41491 0.22769 0.17135 0.29975 -0.1942 0.32427 0.29145 -0.056162 0.76424 0.27698 0.46645 0.088797 -0.1314 0.83784 -0.023113 0.88057 0.013226 -0.50613 -0.51491 -0.71532 -0.21843 -0.072494 -0.099435 0.24306 -0.75511 0.089292 0.59118 0.29429 0.019072 0.10905 0.33579 0.65488 -0.081948 -0.60183 -0.17715 -0.16833 0.35846 0.44716 -0.4083 -0.31558 0.10772 -0.0045379 -0.70629 0.3704 -0.70356 0.02238 -0.44221 0.30925 0.32615 0.49764 -0.20522 0.030732 0.038822 -0.31301 0.61743 0.028259 -0.16198 0.13831 -0.41475 0.23306 -0.42988 0.1565 0.50076 -0.29972 -0.14805 -0.17831 -0.34886 0.05988 -0.32967 0.25244 -0.17235 -0.077925 0.064386 -0.49597 0.13734 0.48471 0.27968 -0.3703 0.56568 -0.0038305 0.39034 -0.012385 -0.062431 -0.089718 -0.40102 -0.080061 -0.25429 -0.0035988 -0.2491 -0.050541 -0.094511 0.67322 0.14293 -0.11135 -0.55986 0.15028 -0.42785 0.06898 -0.33142 -0.15403 0.30103 0.81096 0.07051 -0.2924 0.5586 0.19207 -0.063335 -0.21831 0.29408 -0.32171 0.42397 0.18512 -0.011146 0.67806 0.11874 0.19307 -0.11547 -0.33802 0.039327 0.037335 -0.23325 0.12066 -0.021449 -0.060767 -0.36755 -0.013467 -0.66908 0.2107 0.12041 0.035447 -0.064351 -0.1701 0.77041 0.48562 0.33589 -0.22213 -0.37552 -0.1257 0.11943 -0.49016 -0.11208 0.2698 0.058896 0.11266 0.33661 -0.42759 0.72576
basic -0.73136 -0.33524 -0.17842 -0.097045 -0.16522 0.098506 -0.20756 -0.040422 -0.23036 -1.899 -0.094132 -0.41375 -0.10235 0.19128 0.24501 0.23296 0.31209 -0.14478 -0.090418 -0.32128 0.07023 -0.16691 -0.34634 0.36275 0.30837 0.099846 0.38104 0.40953 -0.022247 -0.10614 0.11812 0.34225 -0.52809 0.2329 -0.33262 0.17021 0.099388 0.041892 0.29179 -0.039414 0.27154 -0.52068 0.031373 -0.16057 -0.1719 0.20031 -0.18176 0.39585 -0.036248 0.039503 0.18962 0.0080802 0.35015 0.25521 0.050258 0.18487 0.67028 -0.58217 -0.068302 0.57439 0.56872 0.1736 0.3198 -0.17866 -1.0868 0.088486 0.40564 0.12112 -0.03252 -0.21825 0.0019944 0.356 -0.12568 -0.25332 0.64952 0.063118 -0.10451 -0.1135 -0.18863 0.035751 0.17187 -0.25183 0.41665 -0.043003 0.17603 -0.23986 0.076001 -0.32777 -0.089796 0.48218 -0.27653 0.65723 -0.20672 0.067953 0.57232 -0.46503 0.048659 0.13195 0.024169 0.013676 -0.030787 -0.23868 -0.055009 -0.092773 -0.05724 -0.56034 -0.010004 -0.04402 -0.46228 -0.16635 0.55358 -0.37701 -0.020473 0.03928 -0.33133 -0.22495 -0.18188 0.24318 -0.74549 0.66998 0.40667 0.19265 0.57801 0.42643 -0.2793 -0.42221 -0.5082 0.55535 -0.11804 -0.031851 -0.36863 0.16484 0.39227 0.25118 0.25516 -0.46434 0.34855 -0.23515 -0.22823 0.89349 0.60923 -0.0046119 0.065174 -0.79777 -0.17571 0.54667 -0.028824 0.11052 0.33188 0.30587 0.056675 0.23262 0.26045 -0.50427 0.16795 -0.46069 -0.31411 -0.014056 0.21035 -0.054582 0.3124 -0.24453 -0.11068 -0.30098 -0.062329 0.015567 0.11904 -0.023448 -0.34345 0.54221 -0.14046 -0.024123 -0.45599 0.6228 -0.62462 0.40384 0.34643 -0.032938 -0.16571 -0.47482 -0.025395 -0.14345 -0.12227 -0.80909 -0.53113 0.24603 0.32387 0.36544 0.037705 0.015735 0.24447 0.54155 0.17828 -0.086668 0.50439 -0.0060953 -0.58932 -0.044801 -0.53521 -0.51108 0.31494 0.48028 0.25271 -0.02574 0.14131 -0.015955 0.6318 -0.23627 -0.27793 0.33079 -0.13615 -0.23613 0.34328 0.03896 -0.13974 0.53745 -0.033499 0.27336 0.31128 0.35012 -0.24443 0.26615 0.024629 0.50945 0.23765 -0.17218 -0.084718 0.58236 0.13059 -0.26305 -0.44512 0.21252 0.081095 -0.10619 -0.089852 0.27759 -0.23015 -0.29705 -0.39719 0.48432 0.14744 0.12805 0.94935 -0.0049396 -1.0625 -0.31487 -0.51739 -0.28275 -0.19737 0.097958 -0.078557 0.44818 -0.042478 -0.016063 -0.56041 0.30017 -0.60905 0.14536 0.030705 -0.26984 -0.18041 -0.19634 0.01146 -0.86442 -0.015023 0.4781 -0.47836 0.09377 0.053217 0.29098 -0.41082 0.042457 0.0084489 0.21064 -0.3688 0.36419 -1.9267 0.13045 0.66707 -0.46529 0.65363 -0.51625 -0.11907 0.14938 0.49096 0.27519 -0.29299 0.025386 0.13382 -0.28366 -0.32958 -0.15248 0.077357 -0.075657 0.42658 0.83551 -0.27067 -0.428 0.1272 -0.37544
beautiful -0.23852 -0.33704 -0.26531 -0.34693 -0.12875 0.10698 -0.024669 0.026829 -0.10024 -0.91494 0.48989 -0.10362 -0.24535 0.57003 -0.035189 -0.3769 -0.069177 -0.25942 0.22511 0.51855 -0.39326 1.2665 -0.44396 0.76827 -0.010909 -0.24237 -0.10275 -0.49712 -0.080183 0.40611 0.21275 0.65182 -1.1487 0.004608 -0.68265 0.96941 -0.076194 -0.4159 -0.27069 -0.053364 -0.079631 -0.2667 -0.021544 0.22392 0.055741 0.084611 0.86011 0.48927 0.47428 -0.24446 -0.21553 0.1437 0.50683 -0.58435 -0.56243 -0.063757 -0.22861 -0.069374 0.56618 -0.087813 -0.21272 -0.16319 0.33545 0.13707 -0.001192 0.097461 0.32382 -0.22693 -0.17767 0.040166 -0.53029 -0.45809 -0.23483 0.31453 0.17206 -0.069996 0.21818 -0.1337 0.070031 -0.51293 -0.59242 0.26683 0.034211 -0.23073 0.092629 0.97956 -0.17105 0.34766 0.15655 0.16473 -0.048657 -0.33195 0.040701 -0.36882 0.038325 0.14471 0.45228 -0.53237 0.16001 0.091856 -0.03367 -0.28456 0.27661 0.25678 -0.506 0.090557 0.2359 -0.23907 -0.1019 -0.4315 -0.19739 0.34452 0.33246 -0.082128 0.23898 0.028935 0.34182 0.64785 0.044846 0.23185 -0.0906 0.32501 -0.1169 0.6349 -0.039302 -0.19762 -0.11636 0.64526 -0.68176 -0.27499 0.23495 0.38022 -0.072129 0.32216 -0.63217 -0.13036 -0.072367 -0.18482 -0.078929 0.1248 0.096149 0.048628 -0.05932 -0.15919 -0.21533 -0.38724 0.35391 0.34231 -0.39314 -0.11976 -0.3705 -0.12089 -0.0058203 -0.33442 0.64367 -0.22489 -0.45688 0.018812 0.17772 -0.15363 0.04273 -0.34811 0.61017 0.30632 -0.40521 0.011642 8.0483e-05 0.19665 0.27749 -0.27826 -0.28165 -0.17904 -0.39776 0.2914 0.086537 -0.052711 -0.24818 0.13174 -0.50422 -0.17553 -0.050302 -0.66879 0.48007 0.023588 0.38455 -0.20443 0.32373 -0.26863 -0.0011948 0.4177 -0.28839 -0.058236 -0.15103 -0.052364 -0.44363 0.18137 -0.40447 -0.42684 -0.30427 0.36178 1.5595 -0.33639 -0.097822 -0.017268 0.065117 -0.38777 0.057876 0.43497 -0.31166 -0.27618 -0.17773 0.33641 -0.10508 -0.31227 0.39182 -0.037915 0.25229 -0.66904 0.10371 0.17643 0.25485 -0.036815 0.17848 0.082182 -0.61077 0.20832 0.41189 -0.20953 -0.52351 -0.045922 0.10356 -0.11626 -0.23241 -0.41366 -0.056315 0.45747 -0.29707 -0.16137 -0.3341 -0.31331 0.33484 0.17417 -0.41686 0.48983 -0.17848 0.47937 -0.30127 0.42611 0.19762 0.34076 0.26479 -0.5377 -0.10298 -0.038824 0.73822 0.033278 0.11207 0.078605 0.13025 -0.36788 -0.36885 -0.40836 -0.16628 -0.21534 -0.073451 -0.34754 -0.0086115 -0.21517 0.49213 0.28894 0.19182 -0.53703 0.015176 -0.019287 0.12511 0.29509 -1.0003 0.10112 -0.13583 -0.36766 -0.31532 0.39986 -0.074484 -0.16293 -0.64623 0.18405 -0.23892 0.35487 -0.28264 -0.34756 0.1912 0.076232 -0.46812 0.39841 0.1233 -0.25784 0.45218 0.32891 0.037239 0.23779
beauty 0.13467 0.36013 -0.46974 0.19668 -0.33352 0.31918 0.24139 -0.30895 0.10436 -0.9071 0.39032 -0.34943 -0.54993 0.59324 -0.049213 -0.31383 0.46937 -0.19481 -0.59011 -0.29233 -0.59527 0.85245 -0.44129 0.56649 -0.24987 -0.30407 -0.19883 0.053161 0.24534 0.68316 0.52747 -0.01186 -0.59089 -0.31933 -0.5323 0.56962 -0.36838 -0.089988 0.041361 -0.84279 0.22988 -0.43327 -0.26243 0.0064943 -0.056613 -0.26601 0.70523 0.378 0.83894 -0.24179 0.46652 -0.090746 0.76366 -0.086228 0.10658 0.24982 -0.33441 -0.44665 0.62923 -0.3566 0.42626 0.54909 0.062399 -0.27123 -0.4575 -0.44326 0.072043 -0.024693 0.06699 0.15995 -0.38602 0.072197 0.30429 -0.53077 0.18553 -0.14595 0.29559 -0.70059 0.026013 -0.39691 -0.33998 -0.085366 0.0036872 -0.017075 0.2798 0.19171 0.037165 -0.089492 0.48461 0.26123 -0.48972 -0.60254 0.4877 -0.29327 0.11803 -0.23956 0.30913 -0.42981 0.14189 -0.43659 0.41311 0.051154 0.21539 -0.48811 -0.074795 0.062997 0.32957 -0.38796 0.0845 0.022915 0.49038 -0.045918 0.59815 -0.23727 1.1176 0.20913 0.21147 0.5547 -0.26958 0.3116 -0.032716 0.3135 -0.29412 0.067019 -0.050491 -0.36842 -0.024649 0.31995 -0.70181 0.044567 0.26444 -0.1435 0.18243 0.20875 -0.60375 -0.21901 -0.58932 -0.059565 -0.25081 0.35726 0.42751 -0.29301 -0.49693 -0.027938 0.33269 -0.17932 0.34286 0.45538 -0.61189 -0.21857 0.084422 0.10766 -0.099177 -0.25244 0.28973 -0.24409 -0.34257 -0.24324 0.030804 -0.18279 0.66709 0.040753 0.67368 0.25046 -0.64148 -0.20485 0.043101 0.10614 0.27945 -0.074314 -0.41397 0.18882 -0.54632 0.63985 -0.29073 0.45322 0.20988 0.36666 -0.0021367 -0.28307 -0.3692 -0.4266 0.14334 -0.25291 0.23435 0.038196 0.47243 -0.00514 0.18937 -0.043585 -0.26896 -0.48843 -0.97845 -0.31069 -0.21105 0.33045 -0.72003 0.0032313 -0.30917 0.40276 1.6428 0.0065186 0.042779 -0.064022 -0.42424 0.16089 -0.0703 0.76607 -0.24285 -0.25648 -0.17214 0.36814 0.14044 0.026489 -0.24008 -0.029413 0.18139 -0.63288 -0.3242 0.012975 -0.26355 -0.35655 0.054151 0.21512 -0.18911 0.34366 -0.187 0.2379 0.27407 0.013642 0.28519 0.1993 0.2361 -0.42845 -0.3705 0.24953 0.067583 -0.20142 -0.62828 -0.50116 -0.096413 0.20421 0.22446 0.58274 -0.66134 -0.22896 -0.43381 -0.06743 0.097405 0.63138 -0.028946 0.022911 0.053046 -0.43702 -0.15751 -0.45339 -0.20472 -0.12779 -0.064911 0.032073 0.19076 -0.80218 -0.48665 -0.47528 -0.30633 0.051309 0.039619 -0.043986 0.63918 0.025409 0.27312 -0.25225 -0.33053 -0.24267 -0.14506 0.71256 -0.76882 -0.081596 0.044368 -0.47131 -0.62641 0.48339 -0.26198 0.2843 0.18239 0.26707 -0.29262 -0.051514 0.14674 0.48007 0.172 0.2357 -0.1764 0.095199 -0.036027 0.16142 0.64286 0.70002 -0.055191 0.047834
black -0.086825 0.036227 0.46572 -0.37567 -0.38478 -0.13635 0.029258 0.24192 -0.074205 -0.58889 0.18656 0.11574 0.12297 0.47277 0.057567 0.0055512 0.19645 0.13084 -0.27641 -0.2111 -0.26682 0.15479 0.49475 0.16682 -0.3599 -0.52817 0.50594 0.22501 -0.54257 0.17608 0.10541 0.15563 -0.88648 -0.057818 -0.87272 0.43009 -0.12413 0.15605 0.20306 0.28875 0.10657 -0.2657 -0.13978 0.073435 0.40391 -0.46762 -0.1359 -0.042211 -0.36747 -0.27328 0.42457 -0.063086 0.13557 -0.052828 -0.29505 0.06267 -0.3397 -0.28208 0.22318 -0.33587 -0.3467 -0.34361 0.52057 0.001214 0.021841 -0.58852 -0.026687 -0.021355 0.39422 -0.1383 0.45983 -0.4422 -0.28787 -0.3382 -0.19807 -0.11296 0.072706 0.20471 0.39059 -0.40228 0.0051335 -0.23077 0.37933 -0.41384 0.22939 -0.21594 0.51277 0.11294 -0.17049 0.094362 -0.4777 -0.38551 0.162 0.34217 -0.13432 0.090053 0.4118 0.51635 0.3832 -0.49207 0.50702 0.32133 0.045134 -0.48606 -0.22431 0.072857 0.61363 0.11343 -0.23228 -0.44638 0.16317 0.53952 0.082504 -0.29944 0.21191 0.024048 0.072866 0.32232 -0.081944 -0.71354 -0.22644 -0.23213 0.11976 -0.22497 -0.043035 0.16361 0.12498 0.57965 0.34461 -0.21389 -0.48776 -0.31363 -0.037673 0.085819 0.023679 -0.054634 -0.64764 0.53163 -0.089289 0.12052 0.41388 0.080534 -0.21855 -0.10749 0.041428 0.10819 0.038213 -0.14516 0.25032 0.43419 0.52055 0.13547 0.27243 -0.36589 0.61276 0.052527 0.15247 -0.88126 0.29377 0.01651 -0.1813 -0.25649 0.24431 0.25805 -0.59096 -0.48691 -0.55553 0.67436 -0.1032 -0.59864 0.70564 0.042308 -0.65878 0.37361 0.23997 -0.7528 -0.54161 0.32926 -0.0021018 0.31838 0.11102 0.71755 0.48677 -0.019367 0.049462 -0.78151 0.17722 0.33303 -0.36914 0.022928 0.042332 0.23998 0.21219 0.48437 0.57693 -0.00469 0.18041 -0.32227 0.020047 -0.51123 1.5963 -0.38556 0.064036 -0.45507 0.11343 -0.26422 0.28224 0.27955 -0.14801 0.27713 0.43781 -0.35238 -0.14416 0.043359 0.65212 0.0035042 1.38 -0.079047 0.31797 -0.46718 0.43374 0.30798 0.25061 -0.324 0.19469 -0.45274 -0.11809 -0.20506 -0.34345 -0.30416 0.21237 -0.38271 -0.30232 0.46214 -0.06153 0.26629 0.19691 -0.0064713 -0.75065 -0.078398 -0.20391 0.39792 -0.1082 -0.04407 -0.76149 0.13622 0.46195 -0.55866 0.2512 -0.14804 -0.3163 0.11041 -0.17622 -0.085051 0.67703 -0.019308 -0.37167 0.15784 0.36217 -0.25741 0.33679 0.32747 0.44275 -0.098982 -0.32169 -0.23243 -0.070403 0.15559 -0.78529 0.85591 -0.26368 0.1193 -0.015978 -0.16371 -0.78735 0.3368 -1.724 0.7489 0.15055 0.014572 -0.51839 0.13419 0.066424 -0.19361 -0.32172 0.71812 -0.2661 0.48796 0.037026 -0.2361 -0.07855 -0.60675 -0.52821 0.87722 -0.72705 0.26274 0.25088 0.067862 0.026733 0.22466
boss -0.28323 0.31357 0.29585 -0.19004 0.11767 -0.69066 -0.2484 -0.07396 0.064059 -0.64877 0.069633 -0.58897 0.40122 0.03557 -0.39447 0.18218 0.45504 -0.087406 0.10979 0.07893 0.85295 0.37561 0.34199 -0.10047 -0.29048 -0.32213 0.032423 0.080765 0.18333 -0.45205 -0.53148 -0.028003 -0.19361 -0.21655 -0.79859 0.49608 0.67254 -0.15368 -0.21217 -0.2131 -0.24971 0.18464 -0.24301 0.22936 0.049986 -0.064553 -0.18037 -0.28909 -0.049728 -0.12709 -0.44207 -0.32516 -0.12155 0.45581 -0.081797 0.64182 -0.06476 -0.3539 -0.0099014 -0.51583 -0.070523 -0.22748 -0.02476 -0.035569 0.081195 -0.35239 -0.22312 -0.27962 -0.25381 -0.02199 0.068453 0.0049997 -0.5311 -0.23901 0.17082 0.20185 -0.41436 0.012068 0.26788 0.084663 0.11646 0.36557 0.52055 -0.40622 -0.2265 0.21116 0.17368 0.22417 0.19365 0.19068 -0.13003 0.46999 -0.19658 -0.29131 -0.14399 -0.18525 -0.0040601 -0.2395 0.35141 -0.82738 0.065136 0.36416 -0.24184 0.062282 -0.0075908 -0.14981 0.60205 0.073408 0.38115 0.21008 0.22931 0.22011 0.12106 0.046085 0.15664 0.13861 -0.1579 -0.24232 -0.36446 -0.94024 -0.23297 -0.11128 -0.13656 0.39221 0.54779 -0.39054 -0.019596 -0.23832 0.13297 0.10092 0.23485 0.17484 -0.49331 0.048203 -0.0059422 0.3199 0.4685 -0.2322 0.15421 -0.061758 -0.2426 -0.48157 0.27397 -0.16219 -0.252 0.27118 0.21131 0.029616 -0.048351 -0.25734 0.20165 0.44524 0.033457 0.30521 -0.19216 -0.035547 0.30388 0.4761 -0.35509 0.13182 0.34295 0.55645 0.52135 0.35717 0.096906 -0.10945 -0.40886 -0.40157 0.27776 -0.083803 -0.24892 -0.07974 -0.73141 -0.42336 0.15839 0.52051 0.13898 0.16012 -0.50032 0.029855 -0.011992 0.55879 0.14527 0.67238 -0.14915 -0.5242 -0.70807 0.11083 0.22585 -0.4892 0.21741 -0.093719 -0.37918 0.27722 -0.049827 -0.7695 0.025554 -0.17131 0.26592 -0.44728 1.3503 0.50588 -0.041955 -0.47411 -0.089825 -0.34672 0.28847 -0.35758 -0.17999 -0.65966 -0.48912 -0.46105 0.15406 -0.26582 0.47195 0.012322 0.14523 0.28907 -0.15725 -0.30228 -0.35196 -0.22396 0.2717 0.13622 0.34805 -0.32732 0.15809 0.34364 -0.62159 0.17588 0.25984 -0.28189 0.2917 -0.038933 0.17462 -0.14326 0.24559 0.19004 -0.15512 0.45297 -0.15581 -0.78442 0.11112 -0.11567 0.73459 0.36223 0.18224 -0.41258 0.22356 -0.31112 0.26783 0.24257 -0.084169 0.58921 0.62031 -0.0361 -0.38473 0.13625 -0.26978 -0.068723 -0.55199 0.10484 0.16345 0.50073 -0.45204 0.32998 -0.18534 0.17872 -0.29437 0.10831 0.1829 0.085127 -0.33535 -0.42723 0.37751 0.40628 -0.38239 -0.09561 0.27263 0.063692 -0.23077 0.81823 0.24625 0.20394 -0.024096 0.032282 0.54921 -0.029214 -0.16365 -0.87655 -0.58241 0.057486 -0.25153 -0.085402 0.20796 0.056243 -0.7416 0.015201 -0.49167 0.66219
boy -0.29973 -0.10202 -0.41355 -0.23211 -0.22184 0.19936 -0.052565 -0.075111 -0.28006 -0.37557 -0.024574 0.21675 -0.15359 0.059833 -0.17297 -0.011219 -0.40388 -0.41359 0.17666 -0.057639 0.02452 0.96054 -0.47304 -0.23099 -0.26022 -0.45139 0.28963 -0.24606 0.1675 0.15718 -0.3776 0.25756 -0.17091 0.011648 -0.4357 0.38048 -0.24886 0.077578 -0.16279 0.48851 0.3141 -0.58471 0.086057 -0.05205 -0.077833 0.25113 0.18934 -0.77035 0.091445 -0.15744 0.18958 -0.44857 -0.28676 0.75436 -0.3836 -0.10954 -0.1343 0.1471 0.10592 -0.70471 0.34129 0.43086 0.42201 0.26919 -0.18816 -0.39071 0.10955 -0.37502 -0.53663 0.16496 0.13647 -0.27518 -0.57768 0.038157 0.021975 -0.31067 -0.02432 0.1331 0.33254 0.28542 0.48114 0.38516 0.42604 0.11398 -0.24768 -0.0067404 -0.30656 -0.084039 0.031691 0.26669 -0.29982 -0.15799 -0.50505 0.32157 -0.028634 0.032699 0.63605 0.3021 -0.015586 -0.53445 0.35045 -0.077435 0.23344 0.093149 0.37815 0.11407 0.46091 0.16582 0.20498 0.10393 -0.2316 0.44202 0.4594 0.0021626 0.58144 -0.094572 -0.19038 0.085934 -0.027673 -0.032247 -0.11759 -0.047023 -0.18422 -0.41095 0.038641 -0.32468 -0.35991 0.16414 0.66579 -0.40467 0.025143 0.15197 0.20623 0.70654 0.35081 0.06081 0.45754 -0.32791 -0.24152 -0.010337 0.69438 -0.19151 -0.49623 -0.48727 -0.53432 0.0092418 -0.094648 0.3734 -0.016354 -0.12722 -0.38008 0.43849 0.14366 0.7438 0.30643 0.11702 -0.060529 -0.079202 -0.21663 0.42707 0.75658 -0.30882 0.025095 0.074963 -0.20072 -0.16813 0.013808 0.47374 0.0086192 -0.43025 0.0040262 -0.099194 -0.90322 0.36557 0.15636 -0.12354 0.29429 -0.27028 -0.15489 0.24746 0.033515 -0.045159 -0.27708 0.43667 -0.049558 -0.24902 -0.17564 -0.24223 0.64745 0.20029 -0.25236 -0.034722 0.0064774 0.30915 -0.52747 0.28263 -0.20838 -0.41637 -0.33949 -0.05128 2.0444 0.44927 0.5334 0.20114 -0.082688 -0.16812 -0.087912 0.22278 -0.30808 0.14367 -0.30867 -0.13294 -0.46945 0.11482 0.34446 -0.3687 -0.17442 -0.17693 0.063132 0.02676 -0.12735 0.089257 0.052465 0.004907 0.04294 0.16546 -0.044701 -0.85432 -0.42761 0.022245 0.44517 0.17425 -0.77372 -0.60984 0.20154 -0.17823 0.23283 0.0031938 -0.31697 0.01749 0.26145 -0.18562 -0.42554 0.062592 -0.26809 0.073799 0.032416 -0.35376 -0.22916 0.35091 -0.23491 0.2543 -0.22392 0.081214 0.95004 0.4781 0.015967 0.20212 -0.17039 -0.36189 -0.096862 -0.0055339 -0.41496 0.31636 0.019452 0.30044 0.02665 0.23863 -0.55074 0.39315 -0.64916 -0.77466 0.64619 -0.32919 0.4002 0.1778 -2.0037 0.069727 -0.31009 0.076044 -0.1909 0.42796 -0.17401 0.14709 0.11153 0.58603 0.0026242 0.4396 -0.44939 -0.19291 -0.1423 0.0044063 -0.16998 0.041541 -0.16269 0.00065256 0.016884 0.02963 -0.2526 0.26076
brave 0.14343 -0.26386 0.19237 -0.37158 0.070677 -0.018838 -0.13946 0.62787 0.3843 -0.36556 0.21383 -0.074001 -0.31444 0.16058 0.31074 0.33363 -0.30551 -0.04771 0.22789 0.46671 0.36676 0.5883 0.65108 0.40998 0.19596 -0.45474 0.54558 0.27419 0.074647 0.20564 0.40046 -0.28725 -0.19144 -0.77998 -0.81259 -0.11992 0.18841 -0.085997 0.17717 0.042215 0.57719 0.28304 0.42268 0.45009 -0.56318 -0.11207 0.21957 -0.46113 0.10529 -0.24604 -0.0059274 0.034624 0.35149 -0.069901 -0.40289 0.23183 -0.10375 0.63169 0.57285 0.45354 0.090659 0.2087 -0.12112 0.37014 -0.44269 0.56723 0.3347 0.11723 -0.28866 0.10373 -0.25805 0.069258 -0.077912 0.096906 -0.047859 0.161 -0.16078 -0.22273 0.095792 -0.40698 -0.57495 0.48238 0.74703 -0.24962 -0.76239 0.47217 -0.027803 0.0070798 0.36828 -0.16604 0.019421 0.068193 0.12954 -0.10393 0.15275 0.028581 0.14623 -0.015275 -0.23476 0.54709 0.30858 0.01467 -0.14836 0.086716 0.57281 -0.17001 0.050489 -0.036721 0.5869 -0.46201 0.1696 0.57859 -0.038115 -0.17441 0.17937 -0.092169 0.20164 -0.45113 -0.050477 -0.11635 -0.39645 0.11773 0.13119 0.17661 -0.064067 0.064841 -0.17195 0.36641 0.23317 -0.50833 0.3393 0.12077 -0.17545 0.68329 -0.53257 -0.15768 -0.059727 -0.58257 0.07299 0.24878 -0.14704 0.60164 -0.19077 0.35743 -0.92735 -0.3327 -0.52311 -0.037919 -0.39165 -0.23632 -0.35244 -0.68459 0.47741 0.12716 0.29284 0.46756 -0.3183 0.032161 -0.14681 -0.094813 -0.1452 0.022818 0.23548 0.1212 -0.64065 -0.058838 0.12144 0.47748 0.10194 -0.057283 0.25634 -0.2154 -0.56464 -0.37372 -0.38535 -0.085528 0.16361 -0.10638 -0.083213 0.79126 -0.30977 -0.41861 0.34456 0.15626 0.36374 -0.017885 0.1848 -0.46925 0.0088174 -0.34424 -0.32295 -0.61184 1.0804 0.045022 -0.28533 0.11522 -0.88308 -0.579 -0.12727 -0.20002 1.1537 0.36815 0.34509 0.51257 0.20579 -0.024105 0.20181 0.029113 0.09955 -0.50633 -0.23021 -0.2009 -1.1101 0.18554 0.25239 0.11793 0.30455 -0.087509 -0.0089197 -0.071779 0.069291 0.22286 0.18269 0.44705 -0.28555 0.15228 -0.060229 -0.34174 -0.23711 0.090973 -0.57572 -0.062663 -0.3637 -0.15105 -0.26087 0.43672 -0.58784 -0.5479 -0.16648 0.42164 -0.31058 0.22754 -0.534 6.9785e-05 0.23945 -0.062154 0.10963 -0.030194 0.18329 0.10762 -0.053692 -0.27899 -0.21887 -0.061033 0.743 0.56343 0.74305 -0.027403 0.20642 -0.12235 -0.13007 -0.25332 0.13288 0.42252 0.040818 0.44601 -0.67921 -0.27377 0.13784 0.2309 0.33322 -0.31527 0.28247 -0.22521 -0.40871 0.059219 -0.63624 0.074842 0.15327 0.014191 0.50458 -0.07849 0.42233 0.49843 -0.078448 -0.20004 -0.12713 0.31457 -0.0063997 -0.40755 0.053609 0.11018 -0.17019 0.099514 0.082262 -0.15106 -0.1444 0.3732 0.060349 0.25769
brother -0.11814 0.33494 0.14149 -0.33411 0.097872 0.31051 -0.229 0.094854 -0.028885 -0.49931 0.070535 0.034667 0.015569 0.30867 -0.27278 0.032647 0.037408 -0.65477 0.31007 0.23016 0.16056 0.65167 -0.4279 -0.36951 -0.20036 -0.25427 -0.05752 -0.1611 -0.17912 -0.62489 -0.21235 0.54828 0.39863 0.44836 -0.5578 0.02979 0.50397 -0.24717 0.25563 0.40507 0.082534 -0.20336 0.17845 -0.15884 -0.17124 0.29002 0.3602 0.040157 0.28546 -0.21915 -0.053801 -0.14239 0.10804 0.36214 0.0086779 0.15435 0.15738 0.75719 0.12067 -0.89393 0.44052 0.20149 0.037837 0.42217 0.23499 -0.50865 -0.16821 -0.46236 -0.23135 0.35614 -0.1791 0.061091 -0.37066 0.27429 0.063426 -0.52874 -0.22419 -0.09048 -0.01487 0.50814 0.65999 0.48332 0.28526 0.14286 -0.37898 -0.036871 0.24653 0.47308 -0.023065 0.0245 -0.032739 0.25272 -0.24085 0.2637 -0.21625 -0.010186 0.16379 -0.34195 0.68959 -0.30929 0.17269 -0.46109 0.27937 -0.0050434 0.099582 -0.097157 0.16625 -0.023659 -0.13817 -0.055285 -0.18998 0.19958 -0.25314 0.01023 0.28309 0.064152 -0.17079 -0.27024 -0.018832 -0.60769 -0.47021 0.30485 -0.6312 -0.71101 0.25277 -0.17556 0.092603 -0.30591 0.56188 0.0037046 -0.1954 0.070285 -0.28231 0.14608 0.3385 -0.15976 0.38945 -0.7227 -0.44319 -0.14756 0.28347 0.12049 0.10853 0.18476 -0.30764 0.052905 0.11758 0.22062 -0.18308 -0.20989 0.48383 0.43701 -0.5437 0.31619 0.41626 -0.05052 0.55517 0.14378 0.38648 0.056044 0.74783 0.018104 0.33967 0.23765 -0.39514 -0.081774 0.042247 0.12842 0.31673 -0.092534 0.12706 -0.31631 -0.8458 -0.19403 -0.054546 0.08019 0.37766 -0.44061 0.00884 0.32351 0.06575 0.59598 -0.49328 0.76223 -0.24701 -0.19494 -1.1233 0.0307 0.10519 0.25625 -0.15847 -0.55573 -0.0013127 0.33517 -0.29733 -0.039766 -0.032266 -0.025259 0.35263 -0.32389 1.5034 -0.094508 0.35647 0.10412 0.17929 -0.029102 0.16616 0.24592 -0.30172 -0.37209 -0.22028 0.07616 0.32465 -0.23065 0.072509 -0.12525 -0.086572 -0.2941 -0.041578 -0.29036 -0.23491 -0.41139 0.0060111 0.19426 0.19478 0.44395 0.20656 -0.31957 -0.12677 0.0019394 -0.36557 0.16463 0.06488 -0.28222 -0.071776 -0.23249 -0.063205 0.17236 -0.36941 0.10158 -0.095615 0.22239 0.15444 0.4758 0.29167 -0.088044 0.11422 -0.16303 -0.34642 -0.36206 0.091365 0.18015 -0.17544 0.37579 1.3637 0.75922 0.54566 0.14627 0.23245 -0.3625 0.10773 -0.11592 -0.15032 0.12441 -0.26208 0.23912 0.13459 -0.065241 -0.080336 0.075961 -0.29128 0.03112 0.4297 -0.19921 -0.23583 -0.50796 -1.3763 -0.6399 0.07879 0.53043 0.20138 0.38039 0.10513 -0.17965 -0.019412 0.51207 -0.017703 0.53694 0.097375 0.22173 0.30509 0.27079 0.45947 -0.67324 -0.25553 -0.26001 0.5878 0.11813 -0.75083 0.81216
carpenter 0.12962 -0.21503 -0.25762 0.059803 0.2998 0.11013 -0.20011 -0.066333 -0.42964 0.12155 0.38626 -0.19387 -0.17639 -0.14142 -0.048451 0.15676 -0.33628 -0.38741 -0.5872 -0.21427 -0.20319 0.13613 0.2995 0.80075 -0.40112 -0.10754 -0.14776 -0.329 -0.068077 0.12112 0.1539 0.55958 0.0017365 0.067162 -0.41061 0.19292 -0.26677 -0.0063617 0.33377 -0.11017 -0.052622 0.20882 0.15586 -0.19525 -0.20879 0.11027 0.29667 -0.024656 0.24676 -0.38408 0.31272 0.16611 -0.324 0.71458 -0.27954 0.031358 0.25387 -0.21185 -0.10808 -0.01143 0.34332 0.173 0.49182 0.24258 0.16458 -1.0501 0.38082 -0.20318 0.81658 -0.23509 0.38726 -0.51719 -0.21686 0.4525 -0.3567 0.3491 -0.04807 -0.092118 0.016889 -0.34591 0.090201 0.2441 -0.37878 -0.2383 -0.13188 -0.072031 0.21606 0.39599 0.019191 -0.076437 0.01331 0.11918 0.014051 -0.56966 0.2328 -0.72816 0.093623 -0.20145 -0.22059 -0.36645 -0.11238 -0.1135 0.067288 0.12805 0.32537 -0.16815 -0.074512 -0.0491 0.3052 -0.25257 -0.80052 -0.11956 -0.42312 0.62557 0.35109 -0.12941 -0.47768 -0.0081878 -0.081167 0.27231 0.25636 0.31103 -0.11173 0.093273 0.32957 -0.012219 0.31279 -0.29508 0.49306 0.16905 -0.15782 0.11638 0.59416 -0.060798 0.22058 -0.1493 -0.23662 0.24492 -0.059272 0.091746 0.072068 -0.074562 0.53135 -0.22308 0.26675 0.39952 -0.11724 0.29184 -0.17425 -0.47316 0.19856 0.41226 0.16946 -0.22704 -0.17384 -0.01519 -0.51514 -0.18534 0.53162 -0.50079 0.18189 -0.66726 0.36529 -0.163 -0.50416 0.38642 -0.1518 -0.35915 0.66068 0.28926 -0.44828 0.163 -0.36223 -0.064188 0.048834 0.61737 -0.05409 -0.28826 -0.090909 -0.22498 0.34045 -0.013746 -0.097649 0.16108 0.073196 -0.38255 -0.49231 0.04114 0.42142 0.61809 0.33335 0.19033 0.029765 0.074777 -0.027625 -0.030255 -0.24444 -0.014603 0.00034223 -0.47685 0.50212 -0.25236 0.13049 -0.10225 0.27621 0.30257 0.40168 -0.1989 0.39887 0.094319 -0.070092 -0.051951 0.442 -0.32515 -0.010921 0.038196 -0.14175 0.23023 -0.17622 -0.50327 -0.23742 -0.27915 0.45062 0.067963 0.093363 -0.14766 0.0096877 -0.17558 0.35895 -0.026527 0.036719 0.34015 -0.28754 -0.023921 -0.30509 0.23125 0.34839 0.49152 -0.10367 0.34722 0.52931 -0.40822 -0.24673 0.22334 0.23468 -0.006207 -0.36375 0.37165 0.39681 0.047414 0.28193 0.22909 -0.22192 0.36218 1.0742 0.026014 0.11703 0.04267 0.43335 -0.064748 -0.019144 0.27787 -0.31897 0.33397 0.02181 0.11176 0.10405 0.12862 -0.42326 0.049595 -0.53037 0.24294 0.56172 -0.35581 -0.085795 -0.29597 -0.12481 -0.20541 -0.45022 -0.22808 0.096538 0.56573 0.32653 0.18539 0.10338 0.38371 -0.24604 0.34266 -0.16025 0.095087 -0.015657 -0.24008 -0.32968 0.35952 -0.3125 0.37618 -0.3615 0.084891 0.007911 0.59638
cashier -0.36967 0.37706 0.071507 -0.26054 0.12026 -0.60316 0.17137 -0.35045 0.077902 -0.062707 -0.51722 -0.29875 0.37733 -0.33359 -0.2705 0.30835 -0.068626 -0.84853 -0.49373 0.3085 0.53102 -0.030099 0.13119 -0.43481 -0.44524 0.27237 0.23876 0.071489 0.16468 -0.44584 -0.26329 0.12788 0.056953 0.33944 -0.034537 -0.050934 -0.41142 -0.51535 -0.30911 -0.17517 -0.15336 -0.35964 -0.19296 0.24263 0.097112 -0.1773 0.55659 -0.11937 -0.43571 0.13652 -0.2295 -0.15793 0.75369 0.015924 -0.16245 0.37286 0.1276 -0.23778 -0.1896 0.090483 0.29342 0.31087 0.019239 0.062089 -0.078265 -0.35018 0.092964 -0.20588 0.3118 0.020799 0.40955 0.14273 0.45399 -0.081535 0.25154 0.021425 -0.35776 -0.38202 0.23451 -0.79943 -0.44472 0.59724 0.32572 -0.071918 0.13071 -0.093011 -0.41916 -0.23464 -0.31109 0.33332 -0.021421 -0.21383 -0.22096 -0.13699 0.083152 0.0047847 -0.38718 -0.5435 0.14451 0.015701 0.16848 -0.10297 -0.0092709 -0.39445 0.16707 -0.42704 -0.086753 0.42629 -0.020855 0.55073 -0.59376 0.38787 0.28307 0.55647 0.19156 0.48215 -0.27071 0.015199 -0.29638 0.096467 0.46732 0.94589 -0.081 0.32269 0.19841 0.11322 0.34244 -0.53974 0.44565 -0.29181 0.093528 -0.025584 -0.18847 0.11121 -0.57448 -0.42168 0.65946 0.10934 0.44128 0.7276 -0.21467 -0.15635 -0.26119 0.33743 -0.060751 0.13448 -0.24573 0.38331 0.53327 -0.32538 -0.28241 0.06362 0.52973 -0.1514 -0.42019 -0.40878 -0.39113 -0.70839 -0.021327 -0.16253 0.2136 0.4256 0.3059 0.21885 0.029933 0.099542 -0.27842 -0.2954 0.78619 -0.28936 -0.31408 0.23254 0.17307 -0.34782 -0.0093796 0.25674 -0.16775 -0.22522 -0.17017 -0.47291 -0.091518 0.2934 -0.38376 0.49863 0.073502 0.24129 0.28487 0.581 0.12915 -0.16372 0.49991 0.14369 -0.067212 -0.59647 0.21009 -0.2139 -0.55652 -0.33664 0.096968 0.1545 0.000242 0.1265 -0.12235 -0.0185 0.42471 -0.58074 0.034941 -0.5315 1.1385 -0.44566 -0.25956 -0.084685 0.45921 0.19202 0.22556 0.093093 -0.15712 -0.034721 0.055164 0.64059 -0.47028 0.22874 -0.30822 0.077672 0.54434 -0.15158 -0.25754 0.12314 0.23129 0.29515 0.049052 -0.091293 -0.21446 -0.11905 -0.5018 0.55333 0.38828 -0.38515 -0.093637 0.45409 -0.26778 -0.28752 -0.36507 0.16825 0.38212 -0.4886 0.4318 -0.85295 -0.068472 -0.287 0.22451 -0.10123 -0.049211 0.12002 0.05707 -0.37039 -0.57368 0.56907 0.53308 -0.21921 -0.2234 0.11978 0.035446 -0.19657 0.32215 0.1692 0.27915 0.2648 0.27352 -0.051297 -0.33158 -0.24382 -0.10407 0.19926 -0.059476 -0.33944 0.082052 0.016487 -0.51116 0.086563 0.38866 0.38377 0.27716 0.075167 -0.14461 0.82823 0.71636 0.048905 -0.45106 -0.40485 -0.079092 0.23451 0.018446 -0.26103 0.35157 -0.47263 0.71063 0.43916 -0.49807 0.53759
ceo 0.40286 -0.50306 0.28859 -0.12233 0.20441 -0.68853 -0.56067 -0.072784 0.24234 -0.84326 -0.045805 -0.32235 -0.27742 -0.20816 -0.19684 0.4171 -0.36681 0.22137 0.041777 0.031138 0.56884 0.50712 0.18198 -0.21903 -0.080274 -0.23929 -0.22016 0.069666 0.35212 -0.40104 -0.2523 -0.08332 0.10247 0.1742 -1.4208 -0.31792 0.53148 -0.28629 -0.051317 -0.33668 0.022179 0.24113 -0.1493 0.92073 0.0047776 -0.16221 -0.29034 -0.062073 -0.028597 -0.5353 0.020069 -0.15543 0.78222 0.48769 0.15986 0.86135 0.19229 0.2902 -0.032991 -0.49565 -0.19045 -0.27669 0.59468 -0.61967 0.11058 -0.14131 -0.61153 0.12733 -0.66831 0.022464 -0.35217 -0.17133 0.036773 0.2373 -0.24339 -0.28705 -0.35339 -0.0050579 0.28275 -0.1654 -0.8842 0.4374 -0.36314 0.049806 0.47371 0.099687 0.00090677 0.46618 -0.32621 -0.32186 -0.50396 0.21582 -0.43898 0.23033 0.18323 -0.25384 -0.45987 0.1378 0.6169 -0.75351 -0.0783 0.062192 -0.10434 -0.18476 0.50262 -0.061753 0.11205 -0.29158 -0.24966 0.005887 -0.14614 -0.19442 -0.37258 0.24311 -0.16098 0.075182 0.76367 -0.66148 -0.02859 0.16918 -0.33507 -0.13368 0.080753 -0.18647 0.39778 -0.28606 -0.14536 -0.13245 -0.38168 -0.18334 -0.20178 0.46889 -0.22744 0.14081 -0.165 -0.12748 -0.097827 0.078709 -0.092356 -0.52431 0.13887 -0.17508 0.38832 -0.031692 -0.10694 0.8491 0.18126 -0.074744 -0.073557 0.077168 0.72276 0.11262 0.64742 -0.15801 -0.1154 -0.04463 0.3519 -0.20191 -0.46647 0.047923 0.11041 0.19592 0.03148 0.26797 -0.5428 -0.089772 0.034054 0.58864 -0.096789 1.0709 0.23062 0.4958 -0.5395 -0.53568 -0.11472 0.67081 0.33645 -0.11225 -0.027753 0.41729 -0.089844 0.33185 0.31517 0.27359 0.0905 -0.2845 -1.232 0.072366 -0.37869 -0.15522 0.68195 0.061333 -0.16953 -0.033335 -0.17673 -0.32898 0.18847 0.1521 0.59718 -0.018675 0.73812 -0.28809 -0.26294 -0.36708 -0.090193 0.060296 0.47102 -0.30627 0.14837 -0.81191 0.61741 -0.26202 0.02675 -0.65093 -0.10625 0.20241 -0.306 0.19894 -0.67497 -0.8089 -0.15875 0.30597 -0.28697 -0.12652 0.059625 0.035992 0.083 0.15715 0.22959 -0.11418 -0.19467 0.57569 0.23809 0.03169 0.082766 -0.17413 0.32304 0.0073289 -0.81567 -0.074715 -0.28604 -0.46322 -0.0079479 -0.06962 -0.19489 -0.17042 0.58996 -1.0526 0.46476 0.028748 0.39332 0.26538 -0.95362 0.31655 -0.035433 -0.021356 -0.19365 -0.29192 0.46132 -0.39084 -0.18818 -0.13113 -0.46005 0.0069683 -0.066954 0.089857 0.38678 0.22718 -0.12043 0.454 -0.32568 0.2997 -0.14875 -0.32145 0.28151 -0.13692 0.34335 0.016951 0.14585 -0.77275 -0.18609 -0.24175 -0.33425 0.59554 -0.099483 -0.0050032 0.7514 0.13204 -0.1994 -0.43375 0.37132 0.049801 -0.28219 -0.2052 -0.50768 0.59505 -0.51882 0.39501 -0.39911 -0.044911
chef 0.40226 0.45878 0.69864 -0.52051 0.018307 0.25209 -0.73166 -0.52128 0.12584 0.21287 0.47725 -0.53591 -0.24663 0.68541 -0.57454 0.30212 -0.31408 -0.43973 0.050363 0.36679 0.21086 0.47844 -0.095339 0.12502 -0.13986 0.25406 -0.020255 0.3197 0.3226 -0.36641 -0.1565 -0.018073 -0.53483 0.025463 -1.0211 0.74905 -0.1777 -0.4995 -0.25449 -0.45387 0.018391 0.026061 -0.097331 -0.020251 -0.33809 0.23637 -0.14252 0.38343 -0.068831 -0.032178 0.11967 -0.46348 1.3425 0.3846 -0.3426 -0.19279 -0.22297 -0.18863 0.15102 -0.36044 -0.10201 -0.12324 0.15943 0.24052 -0.29889 -0.68759 0.062272 0.18686 -0.97424 -0.41417 0.3095 -0.024824 -0.22948 -0.26709 -0.88892 0.25913 0.19745 0.28635 -0.45959 -0.43199 -0.34426 0.87321 0.0236 0.11595 0.10404 -0.35694 -0.3856 0.12408 -0.43048 -0.60456 -0.21707 -0.14546 0.31899 -0.14858 -0.1106 -0.35945 -0.0063701 -0.16374 0.074501 -0.41026 -0.46961 0.042784 0.38927 -0.25062 0.30565 -0.38902 0.0062111 0.52375 0.053215 0.17831 0.19647 0.3163 0.19122 -0.62803 0.063848 -0.24451 -0.70142 -0.35105 -0.59885 -0.30279 0.059123 0.97279 -0.22236 0.0066766 0.097471 -0.65348 -0.15607 0.18495 -0.0010429 -0.22797 0.055876 -0.18433 -0.00073878 -0.20063 0.080478 -0.22319 0.39133 0.047833 -0.068348 0.28694 0.13245 0.27005 0.45071 -0.19848 -0.10694 0.51372 0.039657 0.18405 -0.308 0.058822 0.59331 0.48255 0.63489 -0.047887 0.30109 0.24168 -0.20068 -0.15385 -0.095135 -0.29024 0.80616 0.034225 -0.21296 0.36899 -0.20872 0.14683 0.27416 -0.53593 0.11521 -0.19467 -0.37612 0.2624 -0.709 -0.5174 -0.51449 0.25835 -0.3478 -0.50511 0.99316 0.020846 0.069582 0.37753 -0.21563 -0.11044 0.71692 0.22634 -0.73625 0.32871 0.16886 -0.47314 0.25672 0.44921 -0.63195 0.45066 0.013001 -0.027934 -0.83867 0.040877 -0.15307 -0.13556 1.0419 0.087648 -0.067104 0.2121 0.19927 0.65353 0.59381 0.42672 0.13307 -0.39904 0.33731 -0.81173 0.79965 -0.50165 0.054356 0.2679 0.77292 -0.71529 -0.4285 -0.097143 0.073289 0.304 0.028535 0.14036 0.14547 -0.31512 0.15596 -0.052907 -0.51707 -0.084424 0.35963 0.37163 -0.33828 0.023776 -0.081446 0.5339 0.16904 0.033355 -0.70605 -0.047228 -0.15981 -0.1906 -0.30698 0.063752 -0.10703 0.3437 -0.58773 0.1893 -0.042813 -0.33936 0.40112 -0.13641 0.32067 0.64156 -0.046271 -0.065791 -0.3311 -0.19579 -0.29821 0.23517 -0.33231 -0.19122 -0.88686 -0.24162 -0.18927 0.23983 0.094517 0.42185 0.31233 -0.65372 -0.81131 0.031731 0.2097 -0.043739 0.43277 -0.15266 -0.35126 0.5602 -1.3357 -0.35232 0.56873 0.33965 -0.27102 -0.10804 -0.22892 0.049436 0.55066 -0.32971 -0.12723 0.48424 0.3166 -0.13874 -0.52296 -0.13352 -0.38227 -0.4863 -0.13169 0.43568 -0.4041 -0.14644
citizen -0.056606 -0.20545 0.018818 -0.008083 0.3142 -0.27607 -0.28343 -0.20236 -0.21858 -1.1885 0.11037 0.19501 0.055636 0.10784 -0.25543 0.091593 -0.032537 0.16418 -0.076729 0.02072 -0.1887 0.17777 0.080437 0.37902 0.1352 -0.10996 0.46408 0.36098 -0.053538 -0.14311 -0.5745 0.4297 0.27665 -0.13309 -0.26028 -0.64261 0.075828 -0.33755 -0.16121 0.52381 0.35803 -0.56757 0.20839 0.33483 -0.58643 -0.1947 0.058581 0.31781 -0.32941 -0.062512 -0.421 -0.2171 0.0043996 0.82014 -0.21229 -0.082672 0.47714 0.18122 0.3783 0.20571 -0.23215 0.48893 -0.42474 0.11292 -0.32096 0.056461 -0.16824 0.013357 -0.21439 -0.12289 0.077349 0.099127 -0.13367 0.062798 -0.47196 0.44471 0.087127 0.36998 0.10056 0.48156 -0.57653 -0.16473 0.33347 0.51272 0.27117 -0.87618 0.070429 -0.17125 0.040193 -0.14667 -0.50741 -0.20233 0.87825 0.34795 0.11708 0.12092 -0.24478 0.18817 -0.2475 0.16038 -0.18168 -0.39397 0.12442 -0.19546 0.35707 0.29537 0.026405 -0.037889 -0.0099102 0.30659 0.11193 0.56056 0.35646 -0.43584 0.11206 -0.1728 0.090939 -0.36622 -0.036873 0.17398 -0.15374 0.93323 0.43551 0.15993 0.35747 -0.13861 0.1108 -0.16073 0.20045 0.36983 -0.054204 -0.59285 0.082928 -0.17836 -0.08046 0.12198 -0.47836 0.0096825 -0.22281 -0.22426 0.94112 0.25563 0.098227 0.34309 -0.082786 0.049019 0.21176 -0.33291 -0.72171 0.37593 0.71359 -0.44915 0.15281 0.24793 -0.092375 0.45752 -0.20235 -0.70606 -0.16525 -0.29061 0.057509 0.016459 0.25888 0.26853 0.081968 -0.40786 -0.04395 -0.15261 0.2801 -0.062004 0.35085 -0.083568 -0.86345 0.62302 -0.17445 -0.45283 -0.19483 -0.31961 0.34298 0.42334 -0.064707 -0.14031 -0.18154 0.23306 0.091116 0.16884 -0.51329 0.4046 0.46821 0.27182 0.40327 -0.56562 0.33464 0.35692 0.093159 0.12201 0.57774 -0.66505 -0.33103 -0.13497 0.65843 0.26645 0.2349 0.20632 0.14805 0.023574 0.2218 0.56866 0.17286 0.30555 -0.035681 0.10862 -0.15228 0.22797 -0.18024 0.15633 -0.701 0.53019 0.12906 0.88891 -0.39567 -0.1298 0.31207 0.072983 -0.048876 0.21907 0.19094 -0.27697 0.82201 0.20999 0.065243 0.22193 0.15381 -0.24281 -0.29693 0.41743 -0.44201 -0.4475 0.015305 -0.041404 0.14839 0.24958 0.26888 -0.21531 0.23681 -0.053614 -0.029654 0.038349 0.11865 0.037083 -0.10718 -0.48678 0.12096 0.43079 0.7679 0.28497 0.32256 -0.11815 -0.038317 -0.27112 0.36874 0.065284 0.27857 0.15541 -0.12572 -0.032132 0.78248 0.051645 -0.18691 -0.2627 0.19799 -0.33377 0.32487 -0.36421 -0.15468 0.29023 -1.4192 0.51945 0.5002 0.18711 0.31612 -0.082868 0.045899 -0.12703 -0.18156 0.00088185 0.68427 0.48119 -0.016329 0.01136 0.79616 0.14478 -0.2672 -0.38869 0.12338 0.058443 0.3489 0.41984 -0.2138 -0.010934
clerk -0.45842 -0.010179 -0.029697 -0.0026831 0.35264 -0.3906 0.51604 -0.11795 -0.32188 -0.28654 -0.31683 -0.0010441 0.67417 -0.29907 -0.10788 0.12725 0.12039 -0.98901 -0.24377 0.26222 0.1494 0.20954 0.092426 0.045878 -0.41291 0.10073 0.35087 -0.40414 0.18264 -0.27378 -0.24412 0.023624 0.16031 0.50097 -0.62874 0.36329 -0.18479 -0.45167 -0.60378 -0.03925 -0.037597 0.059384 0.029512 0.90122 0.58376 -0.19815 0.28578 0.23026 -0.033078 0.056385 0.27863 0.10206 0.4578 0.5202 0.26283 0.024811 -0.25654 -0.20024 -0.24233 -0.064173 0.58379 -0.075814 0.25527 0.33781 -0.24588 -1.1382 -0.27699 -0.29234 0.076221 -0.38777 0.5594 -0.74696 0.068557 0.32006 -0.344 0.17024 -0.51409 0.15669 -0.28876 -0.43825 0.019679 0.60409 0.081681 0.58235 0.027382 -0.46036 -0.011747 -0.18066 -0.19393 0.27455 -0.36576 -0.28773 -0.37564 -0.68308 -0.065633 0.28803 -0.49026 -0.1611 0.1737 -0.46578 0.08889 -0.15016 -0.23124 -0.74449 -0.35147 -0.30445 -0.17745 0.20924 0.48096 0.34991 0.15066 0.60011 0.34521 0.41848 -0.14322 0.14171 0.26807 -0.1122 -0.036505 0.35979 0.39047 0.91514 0.24982 -0.55338 -0.13421 -0.036484 0.47281 -0.54879 0.85809 0.15141 0.28834 -0.20766 -0.01783 0.13299 -0.18426 -0.10545 0.47569 0.28965 0.013895 0.43844 -0.057908 -0.22921 -0.016405 0.43523 0.013467 0.062924 0.17238 0.57098 0.75932 -0.68178 0.46276 0.31259 0.3356 -0.082391 -0.21482 0.22205 -0.61815 -0.99976 0.43809 -0.40412 0.11558 -0.048631 0.29452 0.12261 0.14472 0.30998 -0.18355 -0.14121 0.67088 0.57811 -0.21572 -0.051338 -0.10393 -0.042436 -0.12859 0.43832 0.009419 -0.23137 -0.057799 -0.24429 -0.016609 0.47358 -0.20081 0.48849 0.73717 -0.15448 -0.12105 0.10175 -0.16871 -0.17963 0.48382 0.0048081 0.083699 -0.47475 0.1971 0.060615 -0.47728 -0.67474 -0.9282 -0.37208 0.11491 0.11153 -0.2596 0.010673 0.20867 -0.57313 0.065749 -0.055997 0.6733 -0.41589 -0.2686 0.17983 0.21285 -0.31616 0.14747 0.3463 -0.4505 0.43988 -0.14063 0.25994 -0.79772 0.055085 -0.39207 0.49139 0.53478 0.0058446 -0.54134 -0.65614 0.24692 0.1591 0.31181 -0.045318 -0.28234 -0.41282 0.048024 0.77124 0.30627 -0.17752 -0.2077 0.36917 -0.41483 -0.24829 -0.15603 0.054422 0.498 0.12335 0.092491 -0.61238 -0.10784 -0.20681 0.3961 -0.064357 -0.014527 -0.11531 0.70056 -0.092164 -0.44425 0.65801 0.34943 -0.25054 -0.52305 0.51571 0.25582 0.26579 0.058185 -0.23854 0.39073 0.14172 -0.1799 -0.07065 -0.46676 -0.23975 0.17312 0.15096 -0.31376 -0.37581 -0.49446 0.65889 0.31911 0.33727 0.044212 0.42773 0.38475 -0.28394 0.25735 0.58579 0.63923 0.44735 -0.27542 0.20704 0.39787 -0.01839 -0.25436 -0.26829 0.39231 0.053871 0.17752 -0.12893 -0.32568 0.45273
compassionate -0.18147 -0.92317 0.0099412 -0.20743 0.35126 -0.026258 0.63086 -0.079215 -0.45338 -0.26099 0.37406 -0.35955 -0.0054198 0.12201 -0.28041 0.82079 -0.41927 -0.073046 0.31606 -0.21069 0.068529 0.27654 0.1658 0.1605 0.31833 0.22002 -0.065024 0.16652 -0.33846 0.25273 -0.45935 0.40739 -0.70835 -0.1809 0.045313 0.5528 0.5003 -0.13485 -0.46667 -0.23331 0.95539 0.30544 0.5841 -0.95388 -0.30881 -0.24322 0.24808 0.49088 -0.0087756 -0.19936 -0.49893 0.21063 0.21078 0.40871 -0.50705 -0.4132 -0.15039 0.36136 0.32705 0.0052544 0.18197 -0.23411 0.35896 -0.14959 0.33014 0.23964 -0.42625 -0.15201 0.39288 0.66885 -0.19029 -0.12676 0.4302 0.22468 0.96527 0.37097 0.29427 0.27545 -0.43393 -0.15919 -0.20882 0.050805 0.067562 0.06511 -0.71882 -0.26714 -0.21785 -0.0059904 -0.095186 -0.1119 -0.88793 -0.4947 -0.24598 -0.23039 0.49967 -0.24872 0.974 0.51234 0.1641 0.20591 0.32548 -0.70721 -0.41784 0.57374 -0.28723 -0.025626 -0.89139 0.28299 0.1577 0.14784 -0.1952 0.043989 0.24666 -0.31086 0.49344 -0.78234 0.2695 -0.3923 -0.16123 -0.0076286 -0.38507 0.087669 0.029018 0.73247 0.073913 -0.28582 0.039276 0.30228 0.33942 0.32176 0.58697 -0.31713 0.014813 0.64197 -0.95465 -0.36019 0.23607 -0.023173 -0.28881 -0.23432 -0.16924 0.0058378 -0.34249 -0.17289 -0.75785 -0.32467 -0.082175 -0.26038 -0.52224 0.079915 -0.61028 -0.15927 0.50964 0.77752 -0.48868 0.33666 -0.062675 -0.4836 0.56818 0.24302 -0.59535 0.15258 0.46487 -0.47938 -0.75115 -0.52658 -0.52197 -0.58904 0.69076 -0.096486 0.58452 -0.44443 -0.45025 -0.068593 0.23668 0.23793 0.66797 0.090262 -0.15636 0.51219 0.48379 -0.11781 0.77244 -0.12823 -0.40584 0.15501 -0.14288 -0.44984 -0.19907 -0.26528 -0.77576 0.1028 0.42206 0.47587 -0.19375 0.22963 -0.58213 0.54503 -0.40461 0.19018 0.43697 -0.76632 0.32074 0.32204 -0.065514 0.43287 0.59576 0.054346 -0.17247 -0.018298 -0.035033 -0.1259 -0.93015 0.37147 0.12513 0.77459 -0.34173 0.053804 0.74614 0.75247 -0.14641 0.8183 -0.0094641 0.73188 -0.21351 0.024232 -0.40636 0.38421 -0.40864 -0.51953 0.23103 -0.44106 0.41283 0.073514 -0.046411 0.41836 -0.6328 -0.14029 -0.38071 0.2464 -0.035701 0.20734 -0.070399 -0.040051 -0.44818 -0.0065384 0.51699 -0.33067 0.83967 0.79162 -0.12592 -0.58239 0.26941 0.6735 0.22209 0.72361 0.88969 0.18818 -0.24342 -0.51692 -0.10938 -0.33706 -0.13426 0.1007 -0.32814 0.43022 0.25034 -0.049382 -0.37292 -0.64818 0.75525 -0.56927 0.2705 -0.45288 -0.071181 -0.4616 -0.2284 0.49069 1.0147 -0.20987 -0.11034 -0.82745 0.31089 0.92916 0.073003 0.31373 -0.24523 -0.23702 -0.036646 -0.50192 0.42932 0.42203 0.030091 -0.23871 0.10863 -0.25699 -0.22786 0.044713 0.51762 0.79256
competitive 0.090753 0.2317 0.2548 -0.32883 0.13863 0.010163 -0.24249 0.20539 0.17098 -1.2774 0.05743 0.19808 0.034105 0.074789 -0.68641 -0.45806 -0.2901 0.0099597 -0.095859 -0.44513 -0.14156 0.34275 0.42626 0.18223 -0.21374 0.14064 -0.32504 0.0928 -0.158 0.20142 -0.43389 -0.59909 0.28881 -0.52848 -1.8142 1.0793 0.2303 0.2686 -0.33221 0.053685 0.4696 -0.042258 0.48681 0.16088 -0.01956 0.15049 0.29055 -0.1248 0.5617 0.40968 0.23663 -0.40757 -0.16086 -0.31009 0.25681 -0.19742 -0.20391 0.38342 0.028098 -0.17345 0.46387 -0.045053 -0.32275 -0.58928 -0.23443 0.38248 0.1739 -0.16845 -0.19337 0.53186 -0.6124 0.27507 -0.18501 0.031943 0.029043 0.13455 0.086142 -0.025938 -0.12092 0.32966 -0.036667 -0.11605 0.40075 -0.59651 -0.017972 0.071535 -0.10478 -0.32166 0.20025 0.60866 0.11488 0.17202 0.49097 -0.21711 0.48855 -0.083068 -0.21441 -0.10977 0.062852 0.19059 -0.37749 -0.13874 -0.18278 -0.37161 -0.079541 0.46514 0.43547 0.14096 -0.10675 0.15416 -0.10513 -0.5539 0.45092 -0.075215 -0.17896 -0.44106 0.10015 0.24059 -0.33998 0.19826 0.16098 0.37192 -0.29421 -0.028977 0.33805 -0.27086 0.18289 -0.30471 -0.22866 -0.56338 0.14487 0.41455 0.24795 -0.11886 -0.70181 0.2937 0.23182 -0.15902 0.77363 0.58116 -0.026911 -0.26022 0.19925 0.076148 -0.096166 -0.02795 0.15044 0.035007 -0.5717 0.20337 0.40052 0.07098 0.087929 -0.37828 0.27572 -0.53411 -0.52682 0.15501 0.01743 -0.10899 -0.2672 -0.17967 -0.37521 0.16037 0.24 -0.69229 -0.47317 -0.056976 0.0953 0.36799 0.12185 0.61335 -0.80856 0.42325 0.075807 0.080973 -0.17743 0.28132 0.24934 0.82403 0.065277 -0.58178 -0.097316 -0.19047 0.75503 -0.09963 -0.093197 0.33843 -0.13532 0.13982 -0.38177 0.20408 -0.089582 0.20479 0.25933 0.16639 -0.11017 -0.11638 0.16655 -0.40467 0.6425 0.14967 -0.18679 -0.51783 -0.040773 0.12885 0.064703 0.31933 -0.028891 -0.19012 0.14279 -0.12114 -0.18486 -0.17736 -0.13821 -0.21026 -0.018537 0.29585 0.11224 -0.26394 0.13345 0.25198 0.088474 -0.32526 0.15843 0.059391 -0.78354 0.28076 -0.21978 -0.40115 0.01968 0.043021 0.72989 -0.14363 -0.46491 -0.33565 0.18134 0.21991 0.1151 0.6501 0.75911 -0.0019213 0.56127 0.34329 -0.909 -0.0065722 -0.024747 0.26384 0.20115 -0.072358 0.14558 -0.1961 -0.76382 0.15759 -0.21473 0.031455 -0.23764 0.42829 -0.07966 0.31219 0.068244 -0.51061 -0.080848 -0.16481 0.73346 0.51198 -0.095692 0.038789 0.23716 -0.6928 0.078952 0.84151 -0.3476 -0.035804 0.55944 -0.0087029 -1.3861 -0.070289 -0.025021 -0.37054 -0.30281 -0.28051 0.090318 0.6869 0.090536 -0.79105 -0.23051 -0.25537 0.51444 -0.39053 0.012201 0.53858 -0.3172 -0.05716 0.12866 -0.16423 -0.44702 -0.45947 0.3982 0.082309
confident 0.20703 0.19945 0.027382 -0.51365 0.1763 -0.16299 0.26986 0.14285 0.098496 -1.4853 0.29371 -0.3204 0.15459 0.24578 -0.32957 0.29657 -0.3044 -0.077661 0.45196 -0.1903 0.30801 0.17474 0.58341 -0.10368 -0.5107 0.43134 0.082639 -0.21116 -0.10326 0.23607 0.09084 -0.12915 -0.28163 -0.3262 -1.435 0.63998 0.036842 0.015658 0.017629 0.14306 -0.059027 -0.10322 0.14729 0.053697 0.31167 0.071089 -0.041129 -0.099683 0.17488 -0.16487 0.021931 -0.11973 -0.0055974 0.05989 0.15662 0.83188 0.17645 0.058443 0.024818 0.25405 0.39572 -0.27856 -0.10858 0.17003 -0.24289 0.072241 0.099145 -0.48575 -0.069576 -0.095317 -0.19914 0.02957 -0.17153 0.42279 0.3706 -0.16275 0.13023 0.16054 0.1336 0.44188 -0.2669 0.46578 0.24053 0.0921 0.13216 0.094174 -0.58503 0.035618 -0.026324 0.40292 -0.15137 0.031498 -0.32279 -0.24886 0.057393 -0.021252 -0.36621 -0.027058 -0.3271 -0.20116 -0.13243 -0.20311 -0.27123 -0.38059 0.039946 0.6735 0.28038 -0.040548 -0.089255 -0.20561 0.25014 -0.20424 -0.27585 -0.24876 0.42321 -0.061267 0.0047503 -0.20079 0.13269 -0.090656 -0.39261 -0.12853 0.032541 0.21907 -0.29261 0.022594 0.17555 0.63452 0.024273 -0.13336 0.10625 -0.13386 -0.41695 -0.068855 -0.58395 -0.090458 0.13105 -0.178 0.62062 -0.55111 -0.24746 -0.12375 0.22603 0.20728 -0.24316 0.2461 -0.38255 -0.18034 -0.18337 -0.029487 -0.293 -0.48485 -0.088426 0.49763 0.28082 0.1215 -0.45078 -0.21258 -0.16624 0.03979 -0.21794 0.014458 -0.14134 -0.32792 0.092597 -0.4402 -0.11148 -0.36339 -0.020357 0.50173 0.53489 0.32924 -0.17985 -0.43133 0.32088 0.29908 0.22087 -0.036628 0.47936 0.34423 -0.013014 -0.20233 0.45156 -0.031622 0.23431 0.089696 -0.3175 -0.037831 -0.26748 0.36894 -0.19342 -0.19217 0.11296 0.1994 0.10732 -0.7274 -0.21446 0.36559 -0.39803 -0.30129 0.89215 0.21829 -0.11787 -0.094608 -0.45434 -0.18232 0.45784 -0.15789 0.042002 -0.34016 0.11055 0.053524 -0.21318 -0.037583 0.1932 -0.48354 -0.15697 -0.22179 -0.18551 -0.27417 0.49836 -0.33545 -0.38101 0.46682 -0.26886 0.17907 -0.015767 0.07632 -0.34043 0.10117 0.061173 0.41687 0.46488 0.033289 -0.53845 0.24249 -0.4657 0.030904 -0.18548 0.34401 0.5719 0.21825 -0.067148 0.68311 0.1281 0.01604 0.065252 0.088937 -0.017186 0.45784 0.05352 -0.47641 -0.2484 0.39494 -0.0052472 0.14419 0.081784 0.021413 -0.058716 0.32758 0.082598 -0.14934 -0.22456 0.55176 -0.18023 0.33855 0.33671 -0.82391 -0.2404 0.13389 0.25208 -0.25632 -0.14826 -0.046512 0.33668 0.27279 -0.55988 0.32617 0.5242 -0.58108 0.62015 0.034405 -0.09381 0.56141 -0.093383 -0.50229 0.0085445 0.47856 -0.58295 -0.48801 0.089434 0.030952 -0.10171 0.061065 0.10374 0.35328 -0.31298 -0.55163 -0.32092 -0.081113
cooperative -0.74054 0.16763 -0.13395 -0.97815 0.59341 -0.26698 -0.41967 -0.33435 -0.069343 -1.2228 0.26535 -0.37791 0.42323 0.016453 -0.56738 0.41149 -0.049373 -0.46575 -0.52442 0.70755 -0.0077705 -0.25126 0.52619 0.72968 0.47698 0.075582 -0.30431 -0.86502 -0.5008 -0.3509 0.21773 -0.3592 0.31591 -0.078385 0.14144 0.71007 0.71955 -0.46699 -0.093234 -0.099936 -0.001953 0.1438 -0.007374 0.6786 -0.09087 -0.43088 0.036324 0.092452 -0.23212 0.0013188 -0.099094 -0.27437 0.28676 -0.077603 0.5246 0.20362 0.22106 0.69222 -0.12279 -0.40573 0.73114 0.30644 0.095167 -0.64172 -0.084309 0.87589 0.14271 -0.14993 -0.29715 0.1884 -0.08759 0.084669 -0.52984 -0.19465 -0.22736 -0.38108 -0.19741 0.31189 0.36501 -0.32239 0.026509 0.25876 0.14955 -0.39536 0.17924 -0.69214 -0.43194 -0.22163 -0.32206 -0.62508 -0.14928 0.28989 0.28699 0.54904 0.46085 -0.5871 0.20388 -0.092541 -0.34673 0.26784 -0.18413 -0.40826 -0.21751 -0.30077 0.019532 0.52762 0.34566 0.31778 0.13819 -0.2984 -0.39968 -1.1351 -0.32875 0.72883 0.53161 0.064209 -0.049182 0.030043 0.58731 1.0326 -0.083278 0.24611 0.65353 -0.20217 0.10152 0.42775 0.32705 0.60821 -0.078976 -0.27973 -0.027211 -0.3517 -0.032808 -0.39778 -0.68747 -0.14109 0.10999 0.087123 0.48409 -0.26767 0.13106 0.254 0.15555 -0.53629 -0.21008 0.0098383 -0.012495 -0.35944 0.024968 -0.023088 -0.5316 -0.43731 0.098461 -0.10435 -0.3796 -0.044051 -0.16411 -0.28196 -0.80471 0.0013603 -0.16016 0.43101 -0.39975 -0.25815 0.41518 -0.70693 0.022079 -0.65523 0.28197 0.86215 0.60426 0.02112 -0.84318 0.38389 0.33191 0.39718 0.0050575 -0.44251 -0.20931 -0.19078 0.29753 -0.39239 -0.15514 -0.036087 -0.047217 -0.39532 -0.19772 0.25585 0.036691 -0.17725 -0.62032 0.55503 -0.024825 -0.19047 -0.25824 0.26491 -0.037516 0.25306 -0.41141 -0.010993 -0.28935 -0.22699 0.0085714 -0.0052465 -0.032399 -0.25746 0.013703 0.21823 0.21051 0.87435 0.050097 0.63677 -0.49674 0.75274 0.3042 -0.27313 0.22079 0.45589 0.41247 0.68301 0.59152 -0.19408 -0.057226 0.21673 -0.080678 0.027066 -0.54485 0.11139 0.16832 0.47941 0.00053924 -0.16678 -0.11921 0.26647 0.25218 0.19316 -0.19154 -0.20533 -0.57775 0.082506 0.55425 0.30932 -0.15203 -0.35171 -0.51779 0.073715 -0.029809 0.18165 0.11675 -0.20127 0.58724 -0.043091 0.10314 0.32509 0.43723 0.50907 -0.12468 0.44402 0.33794 0.017174 -0.10236 0.45255 0.68663 -0.06802 -0.070605 0.23155 -0.30047 0.051503 0.31325 -0.078049 0.054133 0.05518 -0.0019299 -0.20835 0.70607 -0.061044 -0.85803 0.37005 0.82454 0.049313 -0.52823 -0.3907 -0.044016 -0.090903 -0.44582 0.25832 0.041317 0.18347 0.41046 -0.64923 -0.45846 -0.43445 -0.51947 -0.55855 0.32878 0.7225 -0.21669 -0.1395 0.31958 -0.077399
daughter -0.56584 -0.20942 -0.23749 -0.49706 0.13661 -0.00017953 -0.038067 -0.62157 -0.28109 -0.81997 0.098281 0.090116 0.29337 -0.10548 -0.21707 0.09734 0.27458 -0.82963 0.16672 -0.14388 -0.40646 0.24877 -0.3851 -0.061543 0.081892 -0.18275 -0.1091 0.10204 0.016809 -0.19926 -0.29154 0.78456 0.26052 0.30168 -0.49565 0.47613 -0.18178 -0.039627 0.088448 -0.15964 0.32648 -0.08995 0.5588 -0.066897 -0.19384 0.03256 0.6197 0.5509 0.18109 -0.46714 0.14861 0.024049 0.32794 -0.044038 -0.25725 -0.11367 0.062231 0.11738 0.16499 -0.59684 0.24424 0.36436 0.77076 0.82286 0.16766 -0.74053 0.064514 -0.43726 -0.60299 -0.069693 -0.31006 -0.86097 -0.42704 0.12439 0.03568 -0.22063 0.079574 -0.90607 0.098755 0.2954 0.11215 0.048947 0.72864 0.28174 -0.13229 0.18406 -0.03724 0.20917 0.13208 -0.037506 -0.29239 -0.12658 -0.51141 0.43325 -0.016132 0.26513 -0.18546 -0.15491 0.43128 -0.20005 0.14719 -0.44344 0.15163 0.17019 -0.072396 0.035203 0.4785 -0.12192 0.15955 0.0098556 0.26428 0.74959 0.097704 0.25033 0.30265 0.01622 0.21162 -0.044705 0.50303 -0.33117 -0.12805 0.60623 -0.46939 -0.55067 -0.036798 -0.46492 0.1748 -0.35775 0.62563 -0.35256 0.18509 0.1795 -0.46494 0.15037 0.077514 0.47034 0.063557 -0.32919 -0.48487 0.1839 0.33984 0.072107 0.19646 0.09348 0.062631 -0.066201 0.50867 0.25476 0.13837 0.093965 0.074641 0.3394 -0.25092 0.53604 -0.20602 0.17871 -0.12381 -0.26793 0.027548 0.088729 0.36291 -0.22728 0.61425 0.16591 -0.4082 0.18596 -0.47143 0.2721 0.020241 0.35005 -0.25232 0.48492 -0.89362 0.077151 -0.43709 0.12699 0.00091849 -0.28475 -0.046322 0.52936 -0.10262 0.46878 -0.026881 -0.097047 0.17677 0.28974 -0.81311 0.025647 0.41767 0.22761 -0.25391 -0.42522 -0.57241 -0.13668 -0.74503 0.24861 0.30904 -0.58049 0.042944 -0.38224 1.601 0.16091 0.29438 0.27567 0.73896 -0.14651 0.41724 0.18903 -0.050221 -0.10129 -0.25439 -0.10353 0.12979 -0.17239 0.14685 -0.13944 0.26486 -0.79746 -0.37904 -0.28142 0.19897 -0.11129 0.14991 0.11398 -0.41755 0.87172 0.39561 -0.3644 -0.25726 0.24572 0.018307 -0.060843 -0.1097 -0.32229 -0.32953 0.16335 -0.060294 0.69744 -0.22719 -0.28585 0.12084 -0.40533 0.29554 0.2677 -0.11664 0.32159 0.0082156 -0.10343 -0.099777 0.16241 -0.37085 0.17717 -0.26719 0.14407 1.2534 0.36081 0.41861 0.082699 0.58127 -0.30427 -0.050384 -0.079394 -0.38852 -0.062856 -0.18323 0.19547 0.27751 0.015535 0.17756 0.27334 -0.25775 -0.54034 0.13139 -0.69569 -0.082775 -0.33008 -1.2188 -0.80425 -0.11877 0.30422 0.055294 0.7016 0.052194 -0.54222 -0.78996 0.56335 0.10843 0.73763 0.026236 0.26597 0.22642 0.17786 0.51324 -0.48374 -0.33696 -0.16077 0.61633 -0.14776 -0.22767 1.0817
